{"learner":{"attributes":{},"feature_names":[],"feature_types":[],"gradient_booster":{"model":{"cats":{"enc":[],"feature_segments":[],"sorted_idx":[]},"gbtree_model_param":{"num_parallel_tree":"1","num_trees":"100"},"iteration_indptr":[0,1,2,3,4,5,6,7,8,9,10,11,12,13,14,15,16,17,18,19,20,21,22,23,24,25,26,27,28,29,30,31,32,33,34,35,36,37,38,39,40,41,42,43,44,45,46,47,48,49,50,51,52,53,54,55,56,57,58,59,60,61,62,63,64,65,66,67,68,69,70,71,72,73,74,75,76,77,78,79,80,81,82,83,84,85,86,87,88,89,90,91,92,93,94,95,96,97,98,99,100],"tree_info":[0,0,0,0,0,0,0,0,0,0,0,0,0,0,0,0,0,0,0,0,0,0,0,0,0,0,0,0,0,0,0,0,0,0,0,0,0,0,0,0,0,0,0,0,0,0,0,0,0,0,0,0,0,0,0,0,0,0,0,0,0,0,0,0,0,0,0,0,0,0,0,0,0,0,0,0,0,0,0,0,0,0,0,0,0,0,0,0,0,0,0,0,0,0,0,0,0,0,0,0],"trees":[{"base_weights":[-2.6874769E-8,-2.0562664E-1,2.2222565E-1,-3.5255477E-1,-1.0185538E-1,1.15378745E-1,3.37987E-1,-3.7026927E-1,-1.6182266E-2,-1.7905451E-1,5.8079727E-2,-1.2517846E-1,1.6630585E-1,-1.8966464E-2,3.5107723E-1,-4.0373328E-1,-2.3063408E-1,-1.6179313E-1,1.4675641E-1,1.5219375E-1,-2.1256895E-1,-3.6979705E-1,9.151488E-2,-3.136948E-1,-2.2747759E-2,6.3087374E-2,2.6629174E-1,-3.8496578E-1,1.10411234E-1,2.5882417E-1,3.9120093E-1,-1.7042708E-1,-4.1600096E-1,-2.8119877E-1,8.604084E-2,-3.4207675E-1,3.611754E-2,-1.7552619E-1,2.8364426E-1,-4.381762E-2,2.4453749E-1,-2.370286E-1,1.6403766E-1,-3.9449942E-1,2.3286696E-1,-2.1701695E-1,1.3232775E-1,-3.5686204E-1,-3.325357E-2,-1.6257279E-1,1.3520147E-1,3.7508488E-1,2.6348608E-2,-4.793025E-2,2.8615E-1,3.206422E-2,-4.1006517E-1,-4.2442024E-2,2.780366E-1,-1.6171256E-1,2.7942365E-1,3.3443597E-1,4.3347234E-1,-2.8002668E-2,1.4094991E-2,-4.7379512E-2,-3.7815638E-2,-4.0597957E-2,-2.0181267E-2,-4.1407686E-2,1.6146353E-2,-4.4842675E-2,-1.4350791E-2,2.2472104E-2,-9.141787E-3,-3.0059988E-2,2.131969E-2,3.0440329E-2,-3.8927753E-2,-1.3715133E-2,2.127973E-2,-3.1203454E-2,2.670734E-2,-3.8401872E-2,-1.9291138E-2,7.1421126E-3,3.6671784E-2,-1.9906348E-2,-4.287324E-2,-2.5951836E-2,3.164118E-2,-1.4532178E-2,-4.6254877E-2,-2.5367675E-2,1.5733663E-2,-3.8043663E-2,1.870539E-3,-2.9827524E-2,1.1471966E-2,-6.7718984E-3,-3.283238E-2,-4.499896E-2,1.6553244E-2,-1.7592952E-2,4.0512707E-2,-2.9363314E-2,5.3196372E-3,-1.4720094E-2,2.2237467E-2,2.9942453E-2,-1.198152E-2,1.1072247E-2,-4.3541495E-2,-4.1827526E-2,7.265886E-3,-2.0415712E-2,3.1825583E-2,-2.6019722E-2,2.977547E-2,-6.6884416E-3,3.008532E-2,-5.9871823E-3,3.4784313E-2,3.5063174E-2,4.4616934E-2],"categories":[],"categories_nodes":[],"categories_segments":[],"categories_sizes":[],"default_left":[0,0,0,0,0,0,0,0,0,0,0,0,0,0,0,0,0,0,0,0,0,0,0,0,0,0,0,0,0,0,0,0,0,0,0,0,0,0,0,0,0,0,0,0,0,0,0,0,0,0,0,0,0,0,0,0,0,0,0,0,0,0,0,0,0,0,0,0,0,0,0,0,0,0,0,0,0,0,0,0,0,0,0,0,0,0,0,0,0,0,0,0,0,0,0,0,0,0,0,0,0,0,0,0,0,0,0,0,0,0,0,0,0,0,0,0,0,0,0,0,0,0,0,0,0],"id":0,"left_children":[1,3,5,7,9,11,13,15,17,19,21,23,25,27,29,31,33,35,37,39,41,43,45,47,49,51,53,55,57,59,61,63,65,67,69,71,73,75,77,79,81,83,85,87,89,91,93,95,97,99,101,103,105,107,109,-1,111,113,115,117,119,121,123,-1,-1,-1,-1,-1,-1,-1,-1,-1,-1,-1,-1,-1,-1,-1,-1,-1,-1,-1,-1,-1,-1,-1,-1,-1,-1,-1,-1,-1,-1,-1,-1,-1,-1,-1,-1,-1,-1,-1,-1,-1,-1,-1,-1,-1,-1,-1,-1,-1,-1,-1,-1,-1,-1,-1,-1,-1,-1,-1,-1,-1,-1],"loss_changes":[1.5123387E3,2.6205853E2,1.9669824E2,4.2390015E1,1.2441726E2,1.01372375E2,3.5677246E1,3.148999E1,8.493798E0,7.547882E1,4.6972237E1,2.7914923E1,7.0450836E1,1.2874938E1,2.715686E1,1.5530518E1,2.098465E1,6.755884E0,7.5054874E0,1.132348E1,5.689328E1,3.635025E0,3.835898E1,6.1500244E0,2.073795E1,3.851525E1,2.1653717E1,1.388917E0,5.1618385E0,1.9406647E1,1.2164673E1,9.390211E0,1.114624E1,1.1101784E1,6.8942175E0,2.02631E0,2.2094233E0,2.5436573E0,1.7808304E0,4.843301E0,5.414053E0,3.751178E1,7.0506783E0,1.446743E0,4.9347728E-1,6.199608E0,2.5998272E1,3.9116592E0,2.74013E0,7.807378E0,7.9019756E0,5.931286E0,2.585673E1,5.5872383E0,1.7614746E1,0E0,9.591379E-1,4.615817E0,1.9267464E0,4.8287745E0,1.5834747E1,1.1619522E1,2.9328003E0,0E0,0E0,0E0,0E0,0E0,0E0,0E0,0E0,0E0,0E0,0E0,0E0,0E0,0E0,0E0,0E0,0E0,0E0,0E0,0E0,0E0,0E0,0E0,0E0,0E0,0E0,0E0,0E0,0E0,0E0,0E0,0E0,0E0,0E0,0E0,0E0,0E0,0E0,0E0,0E0,0E0,0E0,0E0,0E0,0E0,0E0,0E0,0E0,0E0,0E0,0E0,0E0,0E0,0E0,0E0,0E0,0E0,0E0,0E0,0E0,0E0,0E0],"parents":[2147483647,0,0,1,1,2,2,3,3,4,4,5,5,6,6,7,7,8,8,9,9,10,10,11,11,12,12,13,13,14,14,15,15,16,16,17,17,18,18,19,19,20,20,21,21,22,22,23,23,24,24,25,25,26,26,27,27,28,28,29,29,30,30,31,31,32,32,33,33,34,34,35,35,36,36,37,37,38,38,39,39,40,40,41,41,42,42,43,43,44,44,45,45,46,46,47,47,48,48,49,49,50,50,51,51,52,52,53,53,54,54,56,56,57,57,58,58,59,59,60,60,61,61,62,62],"right_children":[2,4,6,8,10,12,14,16,18,20,22,24,26,28,30,32,34,36,38,40,42,44,46,48,50,52,54,56,58,60,62,64,66,68,70,72,74,76,78,80,82,84,86,88,90,92,94,96,98,100,102,104,106,108,110,-1,112,114,116,118,120,122,124,-1,-1,-1,-1,-1,-1,-1,-1,-1,-1,-1,-1,-1,-1,-1,-1,-1,-1,-1,-1,-1,-1,-1,-1,-1,-1,-1,-1,-1,-1,-1,-1,-1,-1,-1,-1,-1,-1,-1,-1,-1,-1,-1,-1,-1,-1,-1,-1,-1,-1,-1,-1,-1,-1,-1,-1,-1,-1,-1,-1,-1,-1],"split_conditions":[2.0102987E-2,3.8687033E-3,3.3292044E-2,1.4473E-1,7.2549386E-3,-6.505E-2,-1.2094E-1,1.2193053E-2,1.558E-2,-1.0907E-1,-1.4379E-1,-1.4178E-1,2.3355328E-3,-6.959E-2,-3.857139E-3,-1.2044E-1,9.6E-2,-3.062188E-3,-1.2196471E-2,-1.891E-2,1.5368E-1,1.5105E-1,-9.91E-2,1.2858E-1,2.133349E-3,-1.2434E-1,-1.1263E-1,-4.146961E-2,5.874598E-3,-1.2604E-1,4.1092344E-2,5.414E-2,-8.680502E-3,-8.035288E-3,-1.5538E-1,5.3150924E-3,1.5813073E-3,7.404E-2,5.5347186E-2,6.479E-2,-1.6558E-1,-7.999E-2,2.3259E-1,-6.022E-2,7.4382573E-3,6.288E-2,-1.4735E-1,2.5044039E-2,-5.6625227E-3,2.53E-2,-1.4706E-1,-1.4735E-1,-1.1354E-1,7.702E-2,1.587E-1,3.206422E-2,-3.2775354E-2,-6.199E-2,-2.3243E-1,4.9049597E-2,-1.3355E-1,-1.3339E-1,-5.142E-2,-2.8002668E-2,1.4094991E-2,-4.7379512E-2,-3.7815638E-2,-4.0597957E-2,-2.0181267E-2,-4.1407686E-2,1.6146353E-2,-4.4842675E-2,-1.4350791E-2,2.2472104E-2,-9.141787E-3,-3.0059988E-2,2.131969E-2,3.0440329E-2,-3.8927753E-2,-1.3715133E-2,2.127973E-2,-3.1203454E-2,2.670734E-2,-3.8401872E-2,-1.9291138E-2,7.1421126E-3,3.6671784E-2,-1.9906348E-2,-4.287324E-2,-2.5951836E-2,3.164118E-2,-1.4532178E-2,-4.6254877E-2,-2.5367675E-2,1.5733663E-2,-3.8043663E-2,1.870539E-3,-2.9827524E-2,1.1471966E-2,-6.7718984E-3,-3.283238E-2,-4.499896E-2,1.6553244E-2,-1.7592952E-2,4.0512707E-2,-2.9363314E-2,5.3196372E-3,-1.4720094E-2,2.2237467E-2,2.9942453E-2,-1.198152E-2,1.1072247E-2,-4.3541495E-2,-4.1827526E-2,7.265886E-3,-2.0415712E-2,3.1825583E-2,-2.6019722E-2,2.977547E-2,-6.6884416E-3,3.008532E-2,-5.9871823E-3,3.4784313E-2,3.5063174E-2,4.4616934E-2],"split_indices":[9,9,9,2,0,3,2,0,4,6,2,3,0,5,0,6,3,9,0,3,3,5,3,2,0,6,5,8,0,3,9,4,9,9,2,0,1,3,1,4,4,3,3,6,0,6,4,0,7,6,2,4,2,4,6,0,1,3,2,9,5,4,3,0,0,0,0,0,0,0,0,0,0,0,0,0,0,0,0,0,0,0,0,0,0,0,0,0,0,0,0,0,0,0,0,0,0,0,0,0,0,0,0,0,0,0,0,0,0,0,0,0,0,0,0,0,0,0,0,0,0,0,0,0,0],"split_type":[0,0,0,0,0,0,0,0,0,0,0,0,0,0,0,0,0,0,0,0,0,0,0,0,0,0,0,0,0,0,0,0,0,0,0,0,0,0,0,0,0,0,0,0,0,0,0,0,0,0,0,0,0,0,0,0,0,0,0,0,0,0,0,0,0,0,0,0,0,0,0,0,0,0,0,0,0,0,0,0,0,0,0,0,0,0,0,0,0,0,0,0,0,0,0,0,0,0,0,0,0,0,0,0,0,0,0,0,0,0,0,0,0,0,0,0,0,0,0,0,0,0,0,0,0],"sum_hessian":[3.3094E4,1.7189E4,1.5905E4,7.114E3,1.0075E4,8.272E3,7.633E3,6.758E3,3.56E2,6.795E3,3.28E3,1.445E3,6.827E3,2.7E2,7.363E3,5.45E3,1.308E3,1.88E2,1.68E2,6.24E2,6.171E3,2.37E2,3.043E3,5.08E2,9.37E2,3.36E3,3.467E3,7E1,2E2,2.234E3,5.129E3,2.73E2,5.177E3,1.128E3,1.8E2,9.8E1,9E1,5E1,1.18E2,2E2,4.24E2,5.795E3,3.76E2,2.28E2,9E0,3.55E2,2.688E3,4.4E2,6.8E1,4.97E2,4.4E2,3.53E2,3.007E3,2.06E2,3.261E3,2E0,6.8E1,1.05E2,9.5E1,1.04E2,2.13E3,2.193E3,2.936E3,2.02E2,7.1E1,2.044E3,3.133E3,4.37E2,6.91E2,2.3E1,1.57E2,6.3E1,3.5E1,3.6E1,5.4E1,3.8E1,1.2E1,1.15E2,3E0,1.47E2,5.3E1,1.6E1,4.08E2,1.336E3,4.459E3,2.59E2,1.17E2,3.5E1,1.93E2,1E0,8E0,2.76E2,7.9E1,1.63E2,2.525E3,4.14E2,2.6E1,2.4E1,4.4E1,3.17E2,1.8E2,2.1E1,4.19E2,1.8E1,3.35E2,2.32E2,2.775E3,1.51E2,5.5E1,3.158E3,1.03E2,3E0,6.5E1,2.4E1,8.1E1,7E0,8.8E1,8.6E1,1.8E1,1.24E2,2.006E3,7.2E1,2.121E3,3.94E2,2.542E3],"tree_param":{"num_deleted":"0","num_feature":"10","num_nodes":"125","size_leaf_vector":"1"}},{"base_weights":[-1.1288871E-5,-2.1539322E-1,1.7298426E-1,-3.3384314E-1,-1.32236E-1,5.809601E-2,2.8137013E-1,-4.0030888E-1,-2.668506E-1,-1.619514E-1,2.3617283E-1,-1.64169E-2,2.0573129E-1,-8.7500624E-2,2.963785E-1,-4.1030052E-1,-2.3581032E-1,-2.9814294E-1,-1.6648078E-2,-2.2124216E-1,-2.4079919E-2,-2.9962504E-1,2.7103424E-1,-5.9573494E-2,2.2835001E-1,-1.3875897E-1,2.3167993E-1,-2.0803106E-1,1.313954E-1,1.8570046E-1,3.3117598E-1,-4.3770882E-1,-3.68105E-1,-3.3409718E-1,7.824859E-2,-3.7384787E-1,-2.1775705E-1,-1.1891018E-1,2.4237628E-1,9.807247E-2,-2.4553135E-1,1.3478421E-2,-3.2209265E-1,3.8120717E-2,-3.6513054E-1,2.9273406E-1,-1.8891652E-1,-2.8524223E-1,-2.1065377E-2,-1.7602465E-1,2.610322E-1,2.7309585E-1,-1.8596558E-1,-1.9327842E-1,2.502567E-1,3.617279E-1,-2.4240537E-1,-1.7293067E-1,2.3050906E-1,-2.4581255E-1,2.0882806E-1,2.8231117E-1,3.875677E-1,-4.393153E-2,9.8982435E-3,-3.7827633E-2,-2.6709675E-3,-3.6334675E-2,6.7857415E-3,-4.3022983E-2,2.2549963E-2,-3.8409714E-2,-9.230574E-3,-2.6259482E-2,1.2896991E-3,-3.6164813E-2,-2.0573603E-3,4.5852352E-2,1.419764E-2,-2.157565E-2,1.4185341E-2,-2.6667625E-2,4.705011E-3,-8.189437E-3,1.2867801E-2,-3.599838E-2,-7.375168E-3,-4.101826E-2,1.0909438E-2,1.7359054E-2,3.617344E-2,2.5660206E-2,-3.220853E-2,-3.4251593E-2,-1.3678095E-2,2.8628757E-2,-4.9114567E-3,-2.9503336E-2,1.4015704E-2,2.2314169E-2,4.2525187E-2,-3.8605582E-2,3.9749116E-2,-2.4595747E-2,7.583212E-3,-3.241185E-2,3.942588E-3,2.6338631E-2,-1.0756878E-2,-2.465085E-2,4.2747747E-2,-2.7351428E-2,3.3516265E-2,6.375397E-3,-3.994429E-2,3.1255525E-2,-1.5028307E-3,-3.0217348E-2,4.2651918E-2,1.5639493E-2,3.5031445E-2,-1.22031765E-2,2.9264957E-2,2.728394E-2,3.9602302E-2],"categories":[],"categories_nodes":[],"categories_segments":[],"categories_sizes":[],"default_left":[0,0,0,0,0,0,0,0,0,0,0,0,0,0,0,0,0,0,0,0,0,0,0,0,0,0,0,0,0,0,0,0,0,0,0,0,0,0,0,0,0,0,0,0,0,0,0,0,0,0,0,0,0,0,0,0,0,0,0,0,0,0,0,0,0,0,0,0,0,0,0,0,0,0,0,0,0,0,0,0,0,0,0,0,0,0,0,0,0,0,0,0,0,0,0,0,0,0,0,0,0,0,0,0,0,0,0,0,0,0,0,0,0,0,0,0,0,0,0,0,0,0,0,0,0],"id":1,"left_children":[1,3,5,7,9,11,13,15,17,19,21,23,25,27,29,31,33,35,37,39,41,43,45,47,49,51,53,55,57,59,61,63,65,67,69,71,73,75,77,79,81,83,85,-1,87,89,91,93,95,97,99,101,103,105,107,109,111,113,115,117,119,121,123,-1,-1,-1,-1,-1,-1,-1,-1,-1,-1,-1,-1,-1,-1,-1,-1,-1,-1,-1,-1,-1,-1,-1,-1,-1,-1,-1,-1,-1,-1,-1,-1,-1,-1,-1,-1,-1,-1,-1,-1,-1,-1,-1,-1,-1,-1,-1,-1,-1,-1,-1,-1,-1,-1,-1,-1,-1,-1,-1,-1,-1,-1],"loss_changes":[1.2331608E3,1.4516406E2,2.2853253E2,2.6965637E1,9.487567E1,9.8030914E1,5.2309204E1,4.9162903E0,2.3726013E1,6.552969E1,1.2166313E1,6.2580063E1,2.6750984E1,9.789278E0,3.488922E1,3.1626892E0,5.489753E0,1.6313217E1,8.981893E0,4.35036E1,2.7001528E1,1.9231205E0,6.1236534E0,4.375722E1,1.178162E1,4.133662E0,2.1994644E1,4.7685165E0,4.0213604E0,2.173758E1,1.8912292E1,1.5410461E0,3.9415588E0,1.6118536E0,3.316597E0,3.9639893E0,1.354108E1,5.7929735E0,2.0182114E0,5.485277E0,3.224478E1,2.3555475E1,2.5141296E0,0E0,8.3524656E-1,4.7135773E0,1.7438645E0,6.1943016E0,3.7110226E1,2.5624526E0,5.0198975E0,1.9573519E0,2.9870372E0,3.5750837E0,1.2544113E1,6.652553E-1,4.1523247E0,1.7946613E0,2.0192375E0,4.335031E0,1.5249725E1,1.5510986E1,2.998108E0,0E0,0E0,0E0,0E0,0E0,0E0,0E0,0E0,0E0,0E0,0E0,0E0,0E0,0E0,0E0,0E0,0E0,0E0,0E0,0E0,0E0,0E0,0E0,0E0,0E0,0E0,0E0,0E0,0E0,0E0,0E0,0E0,0E0,0E0,0E0,0E0,0E0,0E0,0E0,0E0,0E0,0E0,0E0,0E0,0E0,0E0,0E0,0E0,0E0,0E0,0E0,0E0,0E0,0E0,0E0,0E0,0E0,0E0,0E0,0E0,0E0,0E0],"parents":[2147483647,0,0,1,1,2,2,3,3,4,4,5,5,6,6,7,7,8,8,9,9,10,10,11,11,12,12,13,13,14,14,15,15,16,16,17,17,18,18,19,19,20,20,21,21,22,22,23,23,24,24,25,25,26,26,27,27,28,28,29,29,30,30,31,31,32,32,33,33,34,34,35,35,36,36,37,37,38,38,39,39,40,40,41,41,42,42,44,44,45,45,46,46,47,47,48,48,49,49,50,50,51,51,52,52,53,53,54,54,55,55,56,56,57,57,58,58,59,59,60,60,61,61,62,62],"right_children":[2,4,6,8,10,12,14,16,18,20,22,24,26,28,30,32,34,36,38,40,42,44,46,48,50,52,54,56,58,60,62,64,66,68,70,72,74,76,78,80,82,84,86,-1,88,90,92,94,96,98,100,102,104,106,108,110,112,114,116,118,120,122,124,-1,-1,-1,-1,-1,-1,-1,-1,-1,-1,-1,-1,-1,-1,-1,-1,-1,-1,-1,-1,-1,-1,-1,-1,-1,-1,-1,-1,-1,-1,-1,-1,-1,-1,-1,-1,-1,-1,-1,-1,-1,-1,-1,-1,-1,-1,-1,-1,-1,-1,-1,-1,-1,-1,-1,-1,-1,-1,-1,-1,-1,-1],"split_conditions":[1.6575476E-2,1.6794195E-3,2.9989848E-2,-3.6987693E-3,1.509E-1,9.133549E-3,-1.3799E-1,1.2671E-1,1.0102E-1,7.4382573E-3,-1.4239E-1,1.2426E-1,-1.1767E-1,3.003E-2,-7.858467E-3,-1.4505379E-2,5.825E-2,-6.408417E-3,6.517E-2,-1.1767E-1,1.1888E-1,-9.76E-2,1.4994E-1,-1.0794E-1,-1.0133E-1,-1.5343009E-2,-1.4379E-1,-1.2434E-1,3.3292044E-2,-1.1354E-1,4.1092344E-2,2.5405E-1,1.5477E-1,1.2166E-1,-5.79E-2,1.5368E-1,7.143E-2,-7.679E-2,-3.387E-2,-1.0575E-1,1.4584E-1,2.527E-2,9.205E-2,3.8120717E-2,2.457358E-2,-1.3021663E-3,-1.3456291E-2,6.891E-2,-1.2434E-1,2.1459E-1,2.3781E-1,-2.0699015E-2,1.1038E-1,3.063E-2,1.5505E-1,-2.2091E-1,2.9033419E-2,-2.369E-2,1.0469883E-2,1.1859E-1,4.7259532E-2,-1.4706E-1,-9.387E-2,-4.393153E-2,9.8982435E-3,-3.7827633E-2,-2.6709675E-3,-3.6334675E-2,6.7857415E-3,-4.3022983E-2,2.2549963E-2,-3.8409714E-2,-9.230574E-3,-2.6259482E-2,1.2896991E-3,-3.6164813E-2,-2.0573603E-3,4.5852352E-2,1.419764E-2,-2.157565E-2,1.4185341E-2,-2.6667625E-2,4.705011E-3,-8.189437E-3,1.2867801E-2,-3.599838E-2,-7.375168E-3,-4.101826E-2,1.0909438E-2,1.7359054E-2,3.617344E-2,2.5660206E-2,-3.220853E-2,-3.4251593E-2,-1.3678095E-2,2.8628757E-2,-4.9114567E-3,-2.9503336E-2,1.4015704E-2,2.2314169E-2,4.2525187E-2,-3.8605582E-2,3.9749116E-2,-2.4595747E-2,7.583212E-3,-3.241185E-2,3.942588E-3,2.6338631E-2,-1.0756878E-2,-2.465085E-2,4.2747747E-2,-2.7351428E-2,3.3516265E-2,6.375397E-3,-3.994429E-2,3.1255525E-2,-1.5028307E-3,-3.0217348E-2,4.2651918E-2,1.5639493E-2,3.5031445E-2,-1.22031765E-2,2.9264957E-2,2.728394E-2,3.9602302E-2],"split_indices":[9,9,9,0,3,0,3,3,4,0,4,3,5,5,0,0,4,9,3,6,6,6,6,3,2,8,2,6,9,2,9,4,2,5,2,3,2,2,6,4,2,5,2,0,0,0,8,2,6,3,3,7,3,3,6,4,0,6,8,5,9,2,5,0,0,0,0,0,0,0,0,0,0,0,0,0,0,0,0,0,0,0,0,0,0,0,0,0,0,0,0,0,0,0,0,0,0,0,0,0,0,0,0,0,0,0,0,0,0,0,0,0,0,0,0,0,0,0,0,0,0,0,0,0,0],"split_type":[0,0,0,0,0,0,0,0,0,0,0,0,0,0,0,0,0,0,0,0,0,0,0,0,0,0,0,0,0,0,0,0,0,0,0,0,0,0,0,0,0,0,0,0,0,0,0,0,0,0,0,0,0,0,0,0,0,0,0,0,0,0,0,0,0,0,0,0,0,0,0,0,0,0,0,0,0,0,0,0,0,0,0,0,0,0,0,0,0,0,0,0,0,0,0,0,0,0,0,0,0,0,0,0,0,0,0,0,0,0,0,0,0,0,0,0,0,0,0,0,0,0,0,0,0],"sum_hessian":[3.3094E4,1.4741E4,1.8353E4,6.079E3,8.662E3,8.91E3,9.443E3,3.049E3,3.03E3,8.016E3,6.46E2,5.922E3,2.988E3,3.69E2,9.074E3,2.873E3,1.76E2,2.693E3,3.37E2,5.605E3,2.411E3,3.9E1,6.07E2,5.035E3,8.87E2,2.09E2,2.779E3,2.38E2,1.31E2,2.172E3,6.902E3,1.736E3,1.137E3,1.34E2,4.2E1,1.385E3,1.308E3,2.42E2,9.5E1,3.96E2,5.209E3,2.142E3,2.69E2,3E0,3.6E1,5.8E2,2.7E1,7.33E2,4.302E3,6.6E1,8.21E2,2.1E1,1.88E2,1.16E2,2.663E3,1.3E1,2.25E2,3.2E1,9.9E1,1.1E2,2.062E3,3.701E3,3.201E3,1.731E3,5E0,1.104E3,3.3E1,1.25E2,9E0,9E0,3.3E1,1.336E3,4.9E1,1.095E3,2.13E2,6.9E1,1.73E2,2.9E1,6.6E1,4.8E1,3.48E2,4.858E3,3.51E2,1.172E3,9.7E2,2.33E2,3.6E1,3.3E1,3E0,2.14E2,3.66E2,6E0,2.1E1,5.28E2,2.05E2,3.59E2,3.943E3,4.8E1,1.8E1,6.69E2,1.52E2,3E0,1.8E1,1.53E2,3.5E1,7.4E1,4.2E1,2.569E3,9.4E1,1E0,1.2E1,2.14E2,1.1E1,1.6E1,1.6E1,7.4E1,2.5E1,1.02E2,8E0,1.506E3,5.56E2,9.2E1,3.609E3,2.22E2,2.979E3],"tree_param":{"num_deleted":"0","num_feature":"10","num_nodes":"125","size_leaf_vector":"1"}},{"base_weights":[-1.0897946E-5,-1.8646984E-1,1.6213739E-1,-2.866755E-1,-1.00340635E-1,7.296785E-2,2.697766E-1,-3.0161235E-1,-3.0768989E-3,-1.3850945E-1,1.4918515E-1,-3.8591426E-2,1.5338778E-1,-5.0144956E-2,2.8182828E-1,-3.14262E-1,-1.4215924E-2,-1.2880027E-1,1.3754319E-1,-2.5452846E-1,-6.751859E-2,-2.7353588E-1,1.8579608E-1,-7.802696E-2,2.0832007E-1,-1.9900462E-1,1.7566213E-1,-2.0577423E-1,1.22639604E-1,2.2827376E-2,2.9385298E-1,-3.740747E-1,-2.6764923E-1,1.5521191E-1,-1.7324467E-1,-2.79741E-1,3.6825355E-2,-1.3971367E-1,2.552117E-1,-6.1894786E-2,-2.879204E-1,-2.9320025E-1,-2.9877465E-2,-3.3726966E-1,1.582173E-1,-2.4422812E-1,2.1460089E-1,-1.0787073E-1,1.7930295E-1,2.2442845E-1,-3.184547E-1,-3.9425236E-1,-1.14242814E-1,-2.1520232E-1,1.9185272E-1,-2.9781914E-1,7.327661E-2,2.1729514E-2,3.0754122E-1,-9.9058874E-2,2.0549133E-1,2.5675384E-2,3.030891E-1,-3.8049597E-2,-1.5673755E-2,-3.6665063E-2,-2.2117307E-2,-1.3611699E-2,2.661685E-2,-3.7642617E-2,-2.2387935E-3,5.8955135E-4,-3.390302E-2,1.8412648E-2,-9.896788E-3,-2.3487015E-2,2.2766165E-2,2.7474439E-2,-3.750387E-2,-2.6221458E-2,2.4680856E-3,-3.0544886E-2,-1.449787E-3,1.8104872E-2,-3.1206328E-2,-8.350353E-3,1.15321595E-2,-4.0963937E-2,1.7653871E-3,3.9523106E-2,-4.1461803E-2,1.5105595E-2,-3.3835247E-2,3.8955037E-2,1.6677044E-2,2.0337528E-2,-1.308496E-2,-3.2082736E-2,2.0777628E-2,-6.1469874E-3,2.4790116E-2,-4.754157E-2,4.8543005E-3,-4.109595E-2,-6.122983E-3,4.102472E-2,-1.5443499E-2,-3.1405482E-2,-2.7028253E-4,9.529597E-3,2.4749903E-2,-3.5233706E-2,1.2454985E-2,-4.2990495E-2,1.5991816E-2,-3.8165744E-2,1.00029195E-2,3.6460157E-2,-2.6751015E-2,2.7476301E-2,-1.590688E-2,8.494208E-3,3.654651E-2,-2.2482155E-2,1.3832211E-2,2.442493E-2,3.3360284E-2],"categories":[],"categories_nodes":[],"categories_segments":[],"categories_sizes":[],"default_left":[0,0,0,0,0,0,0,0,0,0,0,0,0,0,0,0,0,0,0,0,0,0,0,0,0,0,0,0,0,0,0,0,0,0,0,0,0,0,0,0,0,0,0,0,0,0,0,0,0,0,0,0,0,0,0,0,0,0,0,0,0,0,0,0,0,0,0,0,0,0,0,0,0,0,0,0,0,0,0,0,0,0,0,0,0,0,0,0,0,0,0,0,0,0,0,0,0,0,0,0,0,0,0,0,0,0,0,0,0,0,0,0,0,0,0,0,0,0,0,0,0,0,0,0,0,0,0],"id":2,"left_children":[1,3,5,7,9,11,13,15,17,19,21,23,25,27,29,31,33,35,37,39,41,43,45,47,49,51,53,55,57,59,61,63,65,67,69,71,73,75,77,79,81,83,85,87,89,91,93,95,97,99,101,103,105,107,109,111,113,115,117,119,121,123,125,-1,-1,-1,-1,-1,-1,-1,-1,-1,-1,-1,-1,-1,-1,-1,-1,-1,-1,-1,-1,-1,-1,-1,-1,-1,-1,-1,-1,-1,-1,-1,-1,-1,-1,-1,-1,-1,-1,-1,-1,-1,-1,-1,-1,-1,-1,-1,-1,-1,-1,-1,-1,-1,-1,-1,-1,-1,-1,-1,-1,-1,-1,-1,-1],"loss_changes":[1.00062445E3,1.3283124E2,1.698866E2,3.013861E1,7.8880264E1,8.687784E1,3.0935974E1,2.4567627E1,6.3292007E0,5.9135834E1,1.705918E1,3.9519615E1,4.4203003E1,7.8772144E0,2.4064514E1,1.7949707E1,7.7328444E0,4.735236E0,5.549182E0,1.7516953E1,3.7853058E1,2.4748812E0,1.25878105E1,2.689059E1,4.8148575E0,5.4990606E0,3.353711E1,3.9773455E0,2.5868402E0,7.6792493E0,1.8286804E1,3.8940125E0,1.6676483E1,4.529386E0,4.5279646E0,1.6785798E0,1.8384497E0,1.8363359E0,1.5679865E0,7.012968E0,1.1128952E1,5.7549515E0,2.9761673E1,1.9850311E0,1.7931081E0,2.4322844E0,7.8761864E0,2.2455532E1,5.2501583E0,3.6592083E0,1.0023516E0,5.367861E-1,5.01725E0,4.4314404E0,2.7287506E1,2.7149773E0,1.7690103E0,2.9124184E0,1.7053537E0,4.687342E0,2.630247E0,7.000859E0,1.2737854E1,0E0,0E0,0E0,0E0,0E0,0E0,0E0,0E0,0E0,0E0,0E0,0E0,0E0,0E0,0E0,0E0,0E0,0E0,0E0,0E0,0E0,0E0,0E0,0E0,0E0,0E0,0E0,0E0,0E0,0E0,0E0,0E0,0E0,0E0,0E0,0E0,0E0,0E0,0E0,0E0,0E0,0E0,0E0,0E0,0E0,0E0,0E0,0E0,0E0,0E0,0E0,0E0,0E0,0E0,0E0,0E0,0E0,0E0,0E0,0E0,0E0,0E0,0E0,0E0],"parents":[2147483647,0,0,1,1,2,2,3,3,4,4,5,5,6,6,7,7,8,8,9,9,10,10,11,11,12,12,13,13,14,14,15,15,16,16,17,17,18,18,19,19,20,20,21,21,22,22,23,23,24,24,25,25,26,26,27,27,28,28,29,29,30,30,31,31,32,32,33,33,34,34,35,35,36,36,37,37,38,38,39,39,40,40,41,41,42,42,43,43,44,44,45,45,46,46,47,47,48,48,49,49,50,50,51,51,52,52,53,53,54,54,55,55,56,56,57,57,58,58,59,59,60,60,61,61,62,62],"right_children":[2,4,6,8,10,12,14,16,18,20,22,24,26,28,30,32,34,36,38,40,42,44,46,48,50,52,54,56,58,60,62,64,66,68,70,72,74,76,78,80,82,84,86,88,90,92,94,96,98,100,102,104,106,108,110,112,114,116,118,120,122,124,126,-1,-1,-1,-1,-1,-1,-1,-1,-1,-1,-1,-1,-1,-1,-1,-1,-1,-1,-1,-1,-1,-1,-1,-1,-1,-1,-1,-1,-1,-1,-1,-1,-1,-1,-1,-1,-1,-1,-1,-1,-1,-1,-1,-1,-1,-1,-1,-1,-1,-1,-1,-1,-1,-1,-1,-1,-1,-1,-1,-1,-1,-1,-1,-1],"split_conditions":[1.7552512E-2,3.8687033E-3,3.2529596E-2,1.4473E-1,1.1038E-1,-1.868166E-3,-1.2917E-1,1.509E-1,1.558E-2,-2.77E-2,-1.299E-1,1.3371E-1,-1.3799E-1,4.64E-3,-1.2451E-1,-7.235958E-3,1.467E-2,-3.062188E-3,-1.2196471E-2,-6.737E-2,-1.1418E-1,2.3259E-1,-1.4239E-1,1.3721E-1,1.6386E-1,-3.477E-2,-1.4379E-1,1.1336234E-2,1.191E-1,4.2756878E-2,-1.2094E-1,1.5998E-1,-1.0465067E-2,-4.692E-2,-6.416E-2,-8.871732E-3,3.0654352E-3,9.449E-2,1.4994E-1,-5E-2,1.4427E-1,-1.5797E-1,6.117E-2,5.525E-2,4.155E-2,-5.476E-2,-7.494E-2,-1.2859E-1,-1.5408E-1,-9.344E-2,-1.00769205E-2,1.4889E-1,-2.8160665E-2,3.719E-2,-4.9E-4,1.6764E-1,-1.5931485E-2,-1.3473478E-2,1.1441E-1,-1.0096E-1,9.133549E-3,-8.505684E-3,-1.4784028E-3,-3.8049597E-2,-1.5673755E-2,-3.6665063E-2,-2.2117307E-2,-1.3611699E-2,2.661685E-2,-3.7642617E-2,-2.2387935E-3,5.8955135E-4,-3.390302E-2,1.8412648E-2,-9.896788E-3,-2.3487015E-2,2.2766165E-2,2.7474439E-2,-3.750387E-2,-2.6221458E-2,2.4680856E-3,-3.0544886E-2,-1.449787E-3,1.8104872E-2,-3.1206328E-2,-8.350353E-3,1.15321595E-2,-4.0963937E-2,1.7653871E-3,3.9523106E-2,-4.1461803E-2,1.5105595E-2,-3.3835247E-2,3.8955037E-2,1.6677044E-2,2.0337528E-2,-1.308496E-2,-3.2082736E-2,2.0777628E-2,-6.1469874E-3,2.4790116E-2,-4.754157E-2,4.8543005E-3,-4.109595E-2,-6.122983E-3,4.102472E-2,-1.5443499E-2,-3.1405482E-2,-2.7028253E-4,9.529597E-3,2.4749903E-2,-3.5233706E-2,1.2454985E-2,-4.2990495E-2,1.5991816E-2,-3.8165744E-2,1.00029195E-2,3.6460157E-2,-2.6751015E-2,2.7476301E-2,-1.590688E-2,8.494208E-3,3.654651E-2,-2.2482155E-2,1.3832211E-2,2.442493E-2,3.3360284E-2],"split_indices":[9,9,9,2,3,0,4,3,4,5,2,3,3,5,3,0,6,9,0,6,3,3,4,4,6,2,2,0,2,9,2,4,9,4,2,1,1,3,6,2,4,6,4,4,6,6,6,6,5,4,0,4,1,5,4,2,7,0,6,6,0,0,0,0,0,0,0,0,0,0,0,0,0,0,0,0,0,0,0,0,0,0,0,0,0,0,0,0,0,0,0,0,0,0,0,0,0,0,0,0,0,0,0,0,0,0,0,0,0,0,0,0,0,0,0,0,0,0,0,0,0,0,0,0,0,0,0],"split_type":[0,0,0,0,0,0,0,0,0,0,0,0,0,0,0,0,0,0,0,0,0,0,0,0,0,0,0,0,0,0,0,0,0,0,0,0,0,0,0,0,0,0,0,0,0,0,0,0,0,0,0,0,0,0,0,0,0,0,0,0,0,0,0,0,0,0,0,0,0,0,0,0,0,0,0,0,0,0,0,0,0,0,0,0,0,0,0,0,0,0,0,0,0,0,0,0,0,0,0,0,0,0,0,0,0,0,0,0,0,0,0,0,0,0,0,0,0,0,0,0,0,0,0,0,0,0,0],"sum_hessian":[3.3094E4,1.5393E4,1.7701E4,7.114E3,8.279E3,9.682E3,8.019E3,6.758E3,3.56E2,7.181E3,1.098E3,4.056E3,5.626E3,2.91E2,7.728E3,6.473E3,2.85E2,1.88E2,1.68E2,2.725E3,4.456E3,8.7E1,1.011E3,3.498E3,5.58E2,3.34E2,5.292E3,1.53E2,1.38E2,3.43E2,7.385E3,2.832E3,3.641E3,1.38E2,1.47E2,9.8E1,9E1,5E1,1.18E2,4.03E2,2.322E3,6.36E2,3.82E3,7.6E1,1.1E1,6.3E1,9.48E2,3.135E3,3.63E2,5.42E2,1.6E1,1E2,2.34E2,2.1E2,5.082E3,1.15E2,3.8E1,9E1,4.8E1,2.06E2,1.37E2,2.46E2,7.139E3,2.75E3,8.2E1,1.161E3,2.48E3,3.8E1,1E2,6.2E1,8.5E1,1.7E1,8.1E1,4.3E1,4.7E1,4E1,1E1,1.15E2,3E0,1.21E2,2.82E2,2.182E3,1.4E2,2.4E1,6.12E2,2.79E3,1.03E3,6.3E1,1.3E1,8E0,3E0,1.2E1,5.1E1,2.02E2,7.46E2,2.15E2,2.92E3,1.9E1,3.44E2,4.1E1,5.01E2,1.1E1,5E0,9.5E1,5E0,1.6E1,2.18E2,1.43E2,6.7E1,1.859E3,3.223E3,1.02E2,1.3E1,5E0,3.3E1,1.4E1,7.6E1,4.4E1,4E0,2.8E1,1.78E2,7.9E1,5.8E1,7.6E1,1.7E2,2.441E3,4.698E3],"tree_param":{"num_deleted":"0","num_feature":"10","num_nodes":"127","size_leaf_vector":"1"}},{"base_weights":[-1.7496164E-5,-1.5105927E-1,1.6321702E-1,-2.3595238E-1,-5.0659947E-2,9.462899E-2,2.599118E-1,-2.5273943E-1,7.975988E-2,-1.939123E-1,4.3647015E-3,-9.74071E-2,1.3230339E-1,-1.5115355E-2,2.7209893E-1,1.2550749E-2,-2.668299E-1,2.119024E-1,-6.9408536E-2,-3.345906E-1,-1.3912562E-1,-3.3182256E-2,2.2158587E-1,-2.6773506E-1,-1.8349491E-2,8.305208E-2,2.5681233E-1,-3.2304144E-1,6.295976E-2,1.9512625E-2,2.799247E-1,1.2865727E-1,-1.6864714E-1,-2.764247E-1,4.698967E-2,4.9129394E-3,3.2235128E-1,-2.9363018E-1,7.4537724E-2,-3.49274E-1,-3.5140414E-3,-2.3899275E-1,-5.496269E-2,-8.687347E-2,9.620522E-2,8.215167E-2,2.719295E-1,-3.6052364E-1,-1.7871565E-1,-1.256996E-1,1.0374663E-1,4.2208727E-2,2.3342717E-1,2.1479517E-1,3.424651E-1,3.129786E-2,-3.6417177E-1,2.1016392E-1,-1.1984696E-1,-1.1650577E-1,2.056673E-1,4.5761824E-2,2.867984E-1,-7.838725E-3,2.2592211E-2,-2.868217E-2,8.759557E-3,-3.6153372E-2,-2.4572685E-2,-1.4171304E-2,1.9869983E-2,-3.4346808E-2,1.1923337E-2,-2.6957283E-2,3.4668963E-2,-3.3984013E-2,3.8684398E-2,-1.8333958E-2,1.7276803E-2,-3.6618967E-2,-4.4978266E-3,2.3201294E-2,-2.3879005E-2,-7.279207E-3,-2.782761E-2,3.8284105E-3,-1.6337635E-2,-1.959113E-2,-2.2942405E-3,-1.6545055E-2,1.3015869E-2,2.963774E-3,4.207538E-2,-1.2177153E-2,2.8809605E-2,-3.7155285E-2,5.3367815E-3,-2.3625733E-2,5.5025434E-3,1.3150856E-2,-1.6732074E-2,-6.7839E-3,1.7626917E-2,8.0513227E-4,2.5090462E-2,6.4378204E-3,2.652494E-2,-1.2333973E-2,2.3089297E-2,3.1613454E-2,3.98E-2,-3.935794E-2,2.6695117E-2,3.1126572E-3,3.140195E-2,-2.628292E-2,1.4561622E-2,9.409181E-3,-2.6699161E-2,2.5261471E-2,-4.232777E-2,-4.862749E-3,2.4889298E-2,2.478723E-2,3.2312643E-2],"categories":[],"categories_nodes":[],"categories_segments":[],"categories_sizes":[],"default_left":[0,0,0,0,0,0,0,0,0,0,0,0,0,0,0,0,0,0,0,0,0,0,0,0,0,0,0,0,0,0,0,0,0,0,0,0,0,0,0,0,0,0,0,0,0,0,0,0,0,0,0,0,0,0,0,0,0,0,0,0,0,0,0,0,0,0,0,0,0,0,0,0,0,0,0,0,0,0,0,0,0,0,0,0,0,0,0,0,0,0,0,0,0,0,0,0,0,0,0,0,0,0,0,0,0,0,0,0,0,0,0,0,0,0,0,0,0,0,0,0,0,0,0,0,0],"id":3,"left_children":[1,3,5,7,9,11,13,15,17,19,21,23,25,27,29,31,33,35,37,39,41,43,45,47,49,51,53,55,57,59,61,63,65,67,69,71,73,75,77,79,81,83,85,87,89,91,93,95,97,99,101,103,105,107,109,-1,111,113,115,117,119,121,123,-1,-1,-1,-1,-1,-1,-1,-1,-1,-1,-1,-1,-1,-1,-1,-1,-1,-1,-1,-1,-1,-1,-1,-1,-1,-1,-1,-1,-1,-1,-1,-1,-1,-1,-1,-1,-1,-1,-1,-1,-1,-1,-1,-1,-1,-1,-1,-1,-1,-1,-1,-1,-1,-1,-1,-1,-1,-1,-1,-1,-1,-1],"loss_changes":[8.159895E2,1.4650201E2,1.0546567E2,4.938318E1,6.209059E1,6.734758E1,2.2125946E1,3.3062866E1,9.298819E0,1.6801598E1,4.6431267E1,2.0557247E1,4.7693527E1,6.775962E0,1.2487152E1,9.425798E0,2.5299683E1,5.713855E0,7.1871295E0,2.973915E0,1.3224911E1,3.372896E1,5.8671265E0,3.933403E0,1.3696781E1,3.424309E1,7.8619843E0,1.605082E0,6.079917E0,4.8601694E0,9.853516E0,5.5154243E0,5.3243628E0,2.1201782E1,7.185188E0,3.5457346E0,2.4417076E0,2.8671503E0,3.4767413E0,2.999878E0,1.5515763E0,4.6805687E0,8.659754E0,2.3912678E1,1.2672527E1,3.970547E0,3.9557915E0,1.0971432E0,3.3620138E0,5.9741516E0,6.096989E0,3.1270752E1,6.389923E0,8.095337E0,9.328613E-1,0E0,1.1072979E0,2.3144789E0,3.871881E0,3.5429282E0,2.49864E0,3.3866234E0,8.340881E0,0E0,0E0,0E0,0E0,0E0,0E0,0E0,0E0,0E0,0E0,0E0,0E0,0E0,0E0,0E0,0E0,0E0,0E0,0E0,0E0,0E0,0E0,0E0,0E0,0E0,0E0,0E0,0E0,0E0,0E0,0E0,0E0,0E0,0E0,0E0,0E0,0E0,0E0,0E0,0E0,0E0,0E0,0E0,0E0,0E0,0E0,0E0,0E0,0E0,0E0,0E0,0E0,0E0,0E0,0E0,0E0,0E0,0E0,0E0,0E0,0E0,0E0],"parents":[2147483647,0,0,1,1,2,2,3,3,4,4,5,5,6,6,7,7,8,8,9,9,10,10,11,11,12,12,13,13,14,14,15,15,16,16,17,17,18,18,19,19,20,20,21,21,22,22,23,23,24,24,25,25,26,26,27,27,28,28,29,29,30,30,31,31,32,32,33,33,34,34,35,35,36,36,37,37,38,38,39,39,40,40,41,41,42,42,43,43,44,44,45,45,46,46,47,47,48,48,49,49,50,50,51,51,52,52,53,53,54,54,56,56,57,57,58,58,59,59,60,60,61,61,62,62],"right_children":[2,4,6,8,10,12,14,16,18,20,22,24,26,28,30,32,34,36,38,40,42,44,46,48,50,52,54,56,58,60,62,64,66,68,70,72,74,76,78,80,82,84,86,88,90,92,94,96,98,100,102,104,106,108,110,-1,112,114,116,118,120,122,124,-1,-1,-1,-1,-1,-1,-1,-1,-1,-1,-1,-1,-1,-1,-1,-1,-1,-1,-1,-1,-1,-1,-1,-1,-1,-1,-1,-1,-1,-1,-1,-1,-1,-1,-1,-1,-1,-1,-1,-1,-1,-1,-1,-1,-1,-1,-1,-1,-1,-1,-1,-1,-1,-1,-1,-1,-1,-1,-1,-1,-1,-1],"split_conditions":[2.0102987E-2,8.124619E-3,3.5402626E-2,1.509E-1,-4.6E-2,-6.717E-2,-1.3809E-1,-1.3277E-1,1.467E-2,-1.5057E-1,1.191E-1,-2.13E-2,5.191E-2,-5.677E-2,-1.4178E-1,7.5916583E-3,1.5834E-1,-2.9726403E-3,-4.555E-2,1.6249E-1,-4.9E-4,1.067566E-2,-6.032087E-3,-1.2604E-1,3.3062268E-3,1.0576E-1,9.067E-2,-3.1029474E-2,-6.89E-3,7.083E-2,-1.3339E-1,-6.443113E-3,3.171E-2,-8.958E-2,-1.6578371E-3,-5.119E-2,-2.6097E-1,1.2363E-1,-5.061129E-3,2.605109E-2,9.97E-3,-4.947E-2,1.359E-2,-1.517E-2,-9.91E-2,1.2868E-1,-1.5629E-1,1.4117E-1,5.907E-2,-7.494E-2,-1.4178E-1,1.367E-1,-1.4505379E-2,-1.2661E-1,1.5834E-1,3.129786E-2,3.0836487E-2,7.23E-3,4.5674514E-2,-6.9210026E-4,1.334E-1,1.3456E-1,4.4130582E-2,-7.838725E-3,2.2592211E-2,-2.868217E-2,8.759557E-3,-3.6153372E-2,-2.4572685E-2,-1.4171304E-2,1.9869983E-2,-3.4346808E-2,1.1923337E-2,-2.6957283E-2,3.4668963E-2,-3.3984013E-2,3.8684398E-2,-1.8333958E-2,1.7276803E-2,-3.6618967E-2,-4.4978266E-3,2.3201294E-2,-2.3879005E-2,-7.279207E-3,-2.782761E-2,3.8284105E-3,-1.6337635E-2,-1.959113E-2,-2.2942405E-3,-1.6545055E-2,1.3015869E-2,2.963774E-3,4.207538E-2,-1.2177153E-2,2.8809605E-2,-3.7155285E-2,5.3367815E-3,-2.3625733E-2,5.5025434E-3,1.3150856E-2,-1.6732074E-2,-6.7839E-3,1.7626917E-2,8.0513227E-4,2.5090462E-2,6.4378204E-3,2.652494E-2,-1.2333973E-2,2.3089297E-2,3.1613454E-2,3.98E-2,-3.935794E-2,2.6695117E-2,3.1126572E-3,3.140195E-2,-2.628292E-2,1.4561622E-2,9.409181E-3,-2.6699161E-2,2.5261471E-2,-4.232777E-2,-4.862749E-3,2.4889298E-2,2.478723E-2,3.2312643E-2],"split_indices":[9,9,9,3,5,3,5,6,6,5,2,2,5,4,3,1,5,0,2,4,4,0,0,3,0,4,2,1,6,4,4,0,4,2,9,4,2,4,9,0,6,6,6,3,3,5,3,5,5,6,3,2,0,4,5,0,0,3,9,8,6,2,9,0,0,0,0,0,0,0,0,0,0,0,0,0,0,0,0,0,0,0,0,0,0,0,0,0,0,0,0,0,0,0,0,0,0,0,0,0,0,0,0,0,0,0,0,0,0,0,0,0,0,0,0,0,0,0,0,0,0,0,0,0,0],"split_type":[0,0,0,0,0,0,0,0,0,0,0,0,0,0,0,0,0,0,0,0,0,0,0,0,0,0,0,0,0,0,0,0,0,0,0,0,0,0,0,0,0,0,0,0,0,0,0,0,0,0,0,0,0,0,0,0,0,0,0,0,0,0,0,0,0,0,0,0,0,0,0,0,0,0,0,0,0,0,0,0,0,0,0,0,0,0,0,0,0,0,0,0,0,0,0,0,0,0,0,0,0,0,0,0,0,0,0,0,0,0,0,0,0,0,0,0,0,0,0,0,0,0,0,0,0],"sum_hessian":[3.3094E4,1.7189E4,1.5905E4,9.313E3,7.876E3,9.306E3,6.599E3,8.843E3,4.7E2,2.185E3,5.691E3,1.526E3,7.78E3,2.8E2,6.319E3,4.46E2,8.397E3,2.49E2,2.21E2,6.11E2,1.574E3,4.853E3,8.38E2,4.83E2,1.043E3,5.576E3,2.204E3,5.6E1,2.24E2,1.9E2,6.129E3,2.72E2,1.74E2,8.148E3,2.49E2,8.7E1,1.62E2,8.6E1,1.35E2,5.85E2,2.6E1,7.19E2,8.55E2,3.43E3,1.423E3,2.23E2,6.15E2,2.35E2,2.48E2,5.55E2,4.88E2,4.386E3,1.19E3,1.481E3,7.23E2,3E0,5.3E1,1.24E2,1E2,1.1E2,8E1,1.75E2,5.954E3,8.7E1,1.85E2,1.19E2,5.5E1,2.157E3,5.991E3,1.11E2,1.38E2,2.1E1,6.6E1,6E0,1.56E2,8.1E1,5E0,3.7E1,9.8E1,5.54E2,3.1E1,1.3E1,1.3E1,1.38E2,5.81E2,4.6E2,3.95E2,1.267E3,2.163E3,1.63E2,1.26E3,1.94E2,2.9E1,2.4E1,5.91E2,2.29E2,6E0,1.99E2,4.9E1,7.7E1,4.78E2,1.45E2,3.43E2,3.77E3,6.16E2,1.89E2,1.001E3,6.7E1,1.414E3,4.95E2,2.28E2,5.1E1,2E0,4.6E1,7.8E1,6.5E1,3.5E1,4.6E1,6.4E1,7.5E1,5E0,1.2E2,5.5E1,2.878E3,3.076E3],"tree_param":{"num_deleted":"0","num_feature":"10","num_nodes":"125","size_leaf_vector":"1"}},{"base_weights":[-1.399103E-5,-1.8024324E-1,1.1182292E-1,-2.7070883E-1,-1.23596415E-1,2.5137464E-2,2.0284796E-1,-2.815271E-1,-6.5848143E-3,-1.4875127E-1,1.4992587E-1,-8.8897824E-2,8.87829E-2,-8.953955E-2,2.1467495E-1,-3.4809527E-1,-2.4651705E-1,-2.6478204E-1,7.143841E-2,-2.2509323E-1,-7.5837746E-2,-6.946248E-3,2.4383704E-1,-1.3162576E-1,1.0372803E-1,2.7894272E-2,1.8538243E-1,-1.7219171E-1,1.5022057E-1,1.3181715E-1,2.4889931E-1,3.2101575E-2,-3.491252E-1,-2.94742E-1,-1.7173997E-1,-3.6879224E-1,-8.131468E-3,-1.1016441E-1,1.758249E-1,-2.3419467E-1,1.4193368E-1,-1.0764819E-1,1.8168306E-1,-2.0112704E-1,9.077467E-2,-1.3425305E-1,2.7289167E-1,-1.7311709E-1,4.477779E-2,-8.203921E-2,1.64724E-1,-1.5764771E-1,6.5005355E-2,1.354128E-1,2.7719152E-1,-2.4304214E-1,1.2693672E-1,-1.3074173E-1,2.843608E-1,-3.5839584E-2,1.6853045E-1,1.2284532E-2,2.5672686E-1,-3.502488E-2,1.8984316E-2,-9.862615E-3,-3.0719435E-2,-3.2301802E-2,-1.2722454E-2,-3.9609812E-2,-1.421209E-2,-2.6902108E-2,3.8455814E-2,-4.1418415E-2,2.5181726E-3,-3.550191E-2,2.0306002E-2,-3.1817228E-2,-1.9876745E-2,-1.9364156E-3,3.1550612E-2,-6.3806735E-3,-2.7034093E-2,2.0794261E-2,-3.302711E-2,-2.3983035E-2,3.355372E-2,-5.09103E-3,2.936328E-2,2.3784114E-2,-2.8037101E-2,2.160956E-2,3.602567E-2,-2.047387E-2,5.3467313E-3,-1.9777453E-2,9.399319E-3,-2.982668E-2,1.9325704E-3,-2.8455585E-2,1.9026952E-2,-8.93276E-3,-3.4958642E-2,-2.8395206E-2,8.416947E-3,1.5416502E-2,-2.0217385E-2,-2.2521965E-2,2.8469047E-2,3.2326058E-3,-3.0520529E-2,-2.51089E-3,2.5036413E-2,2.1804234E-2,-2.5107432E-2,-3.8190797E-2,3.209872E-2,-1.5354173E-2,8.822828E-3,-1.0199994E-2,1.8532947E-2,-2.284865E-2,9.894563E-3,2.3446871E-2,3.1708468E-2],"categories":[],"categories_nodes":[],"categories_segments":[],"categories_sizes":[],"default_left":[0,0,0,0,0,0,0,0,0,0,0,0,0,0,0,0,0,0,0,0,0,0,0,0,0,0,0,0,0,0,0,0,0,0,0,0,0,0,0,0,0,0,0,0,0,0,0,0,0,0,0,0,0,0,0,0,0,0,0,0,0,0,0,0,0,0,0,0,0,0,0,0,0,0,0,0,0,0,0,0,0,0,0,0,0,0,0,0,0,0,0,0,0,0,0,0,0,0,0,0,0,0,0,0,0,0,0,0,0,0,0,0,0,0,0,0,0,0,0,0,0,0,0,0,0],"id":4,"left_children":[1,3,5,7,9,11,13,15,17,19,21,23,25,27,29,31,33,35,37,39,41,43,45,47,49,51,53,55,57,59,61,-1,63,65,67,69,71,73,75,77,79,81,83,85,87,89,91,93,95,97,99,101,103,105,107,109,111,113,115,117,119,121,123,-1,-1,-1,-1,-1,-1,-1,-1,-1,-1,-1,-1,-1,-1,-1,-1,-1,-1,-1,-1,-1,-1,-1,-1,-1,-1,-1,-1,-1,-1,-1,-1,-1,-1,-1,-1,-1,-1,-1,-1,-1,-1,-1,-1,-1,-1,-1,-1,-1,-1,-1,-1,-1,-1,-1,-1,-1,-1,-1,-1,-1,-1],"loss_changes":[6.6709235E2,6.491043E1,1.6114354E2,1.39392395E1,5.365515E1,7.5939255E1,3.4468475E1,1.0837463E1,3.9069738E0,3.9721176E1,9.680645E0,3.0861584E1,3.9491203E1,7.7147436E0,2.7119568E1,1.2236633E0,1.1038208E1,1.1982434E0,2.843945E0,1.1681473E1,2.9944384E1,4.7052116E0,4.5515823E0,2.2463108E1,7.7299614E0,2.8379183E1,1.1872047E1,6.155736E0,3.8060129E0,1.7246838E1,1.2544922E1,0E0,1.042099E0,4.531555E0,8.093826E0,1.4176893E-1,1.5377351E0,2.2735639E0,1.4455614E0,1.0060989E1,2.3858423E0,2.3178238E1,5.473035E0,1.8044391E0,4.7573705E0,1.6977732E0,1.8176289E0,1.7808716E1,7.001915E0,3.7098877E0,5.941886E0,8.977591E0,2.298864E1,1.06854E1,3.5076675E0,4.015421E0,1.0572157E0,1.4397578E0,1.7819915E0,7.3734846E0,1.0462509E1,4.5712824E0,8.736023E0,0E0,0E0,0E0,0E0,0E0,0E0,0E0,0E0,0E0,0E0,0E0,0E0,0E0,0E0,0E0,0E0,0E0,0E0,0E0,0E0,0E0,0E0,0E0,0E0,0E0,0E0,0E0,0E0,0E0,0E0,0E0,0E0,0E0,0E0,0E0,0E0,0E0,0E0,0E0,0E0,0E0,0E0,0E0,0E0,0E0,0E0,0E0,0E0,0E0,0E0,0E0,0E0,0E0,0E0,0E0,0E0,0E0,0E0,0E0,0E0,0E0,0E0],"parents":[2147483647,0,0,1,1,2,2,3,3,4,4,5,5,6,6,7,7,8,8,9,9,10,10,11,11,12,12,13,13,14,14,15,15,16,16,17,17,18,18,19,19,20,20,21,21,22,22,23,23,24,24,25,25,26,26,27,27,28,28,29,29,30,30,32,32,33,33,34,34,35,35,36,36,37,37,38,38,39,39,40,40,41,41,42,42,43,43,44,44,45,45,46,46,47,47,48,48,49,49,50,50,51,51,52,52,53,53,54,54,55,55,56,56,57,57,58,58,59,59,60,60,61,61,62,62],"right_children":[2,4,6,8,10,12,14,16,18,20,22,24,26,28,30,32,34,36,38,40,42,44,46,48,50,52,54,56,58,60,62,-1,64,66,68,70,72,74,76,78,80,82,84,86,88,90,92,94,96,98,100,102,104,106,108,110,112,114,116,118,120,122,124,-1,-1,-1,-1,-1,-1,-1,-1,-1,-1,-1,-1,-1,-1,-1,-1,-1,-1,-1,-1,-1,-1,-1,-1,-1,-1,-1,-1,-1,-1,-1,-1,-1,-1,-1,-1,-1,-1,-1,-1,-1,-1,-1,-1,-1,-1,-1,-1,-1,-1,-1,-1,-1,-1,-1,-1,-1,-1,-1,-1,-1,-1],"split_conditions":[1.3489025E-2,-3.468E-2,2.9033305E-2,1.5477E-1,1.3452E-1,-2.443E-2,-1.2094E-1,-1.4666E-1,-3.7845871E-3,-2.786084E-3,-4.0337075E-3,9.896E-2,5.484E-2,9.034E-2,-4.81E-3,-3.1817E-1,1.5951756E-3,6.6666915E-3,-1.1561E-1,1.5834E-1,1.1665E-1,-2.918E-2,-1.3799E-1,9.355E-2,-4.121E-2,-6.511E-2,6.413E-2,1.8665258E-2,-8.505684E-3,-1.3473478E-2,-1.3339E-1,3.2101575E-2,2.5405E-1,-1.0743E-1,-8.761E-2,-5.386E-2,-2.583E-2,-4.921E-2,-1.7854E-1,-6.717E-2,6.517E-2,7.972E-2,1.718E-1,1.5731E-1,1.8599E-1,1.5998E-1,8.28E-2,1.2063E-1,-1.3809E-1,-7.1679465E-3,-1.4379E-1,4.817E-2,-1.4706E-1,1.2948E-1,-1.8444E-1,-7.494E-2,-1.6667E-1,-8.426011E-3,2.9989848E-2,5.598E-2,-1.2535E-1,-5.142E-2,1.4921E-1,-3.502488E-2,1.8984316E-2,-9.862615E-3,-3.0719435E-2,-3.2301802E-2,-1.2722454E-2,-3.9609812E-2,-1.421209E-2,-2.6902108E-2,3.8455814E-2,-4.1418415E-2,2.5181726E-3,-3.550191E-2,2.0306002E-2,-3.1817228E-2,-1.9876745E-2,-1.9364156E-3,3.1550612E-2,-6.3806735E-3,-2.7034093E-2,2.0794261E-2,-3.302711E-2,-2.3983035E-2,3.355372E-2,-5.09103E-3,2.936328E-2,2.3784114E-2,-2.8037101E-2,2.160956E-2,3.602567E-2,-2.047387E-2,5.3467313E-3,-1.9777453E-2,9.399319E-3,-2.982668E-2,1.9325704E-3,-2.8455585E-2,1.9026952E-2,-8.93276E-3,-3.4958642E-2,-2.8395206E-2,8.416947E-3,1.5416502E-2,-2.0217385E-2,-2.2521965E-2,2.8469047E-2,3.2326058E-3,-3.0520529E-2,-2.51089E-3,2.5036413E-2,2.1804234E-2,-2.5107432E-2,-3.8190797E-2,3.209872E-2,-1.5354173E-2,8.822828E-3,-1.0199994E-2,1.8532947E-2,-2.284865E-2,9.894563E-3,2.3446871E-2,3.1708468E-2],"split_indices":[9,3,9,2,4,5,2,3,9,0,0,3,3,3,3,6,0,0,3,5,2,2,2,2,4,4,2,0,0,0,4,0,4,6,4,3,4,5,5,2,3,6,6,3,4,4,3,4,5,7,2,6,2,6,4,6,2,8,9,2,5,5,3,0,0,0,0,0,0,0,0,0,0,0,0,0,0,0,0,0,0,0,0,0,0,0,0,0,0,0,0,0,0,0,0,0,0,0,0,0,0,0,0,0,0,0,0,0,0,0,0,0,0,0,0,0,0,0,0,0,0,0,0,0,0],"split_type":[0,0,0,0,0,0,0,0,0,0,0,0,0,0,0,0,0,0,0,0,0,0,0,0,0,0,0,0,0,0,0,0,0,0,0,0,0,0,0,0,0,0,0,0,0,0,0,0,0,0,0,0,0,0,0,0,0,0,0,0,0,0,0,0,0,0,0,0,0,0,0,0,0,0,0,0,0,0,0,0,0,0,0,0,0,0,0,0,0,0,0,0,0,0,0,0,0,0,0,0,0,0,0,0,0,0,0,0,0,0,0,0,0,0,0,0,0,0,0,0,0,0,0,0,0],"sum_hessian":[3.3094E4,1.2672E4,2.0422E4,4.878E3,7.794E3,1.0461E4,9.961E3,4.686E3,1.92E2,7.138E3,6.56E2,3.747E3,6.714E3,3.87E2,9.574E3,1.612E3,3.074E3,4.4E1,1.48E2,3.486E3,3.652E3,2.46E2,4.1E2,3.067E3,6.8E2,4.119E3,2.595E3,2.88E2,9.9E1,2.8E3,6.774E3,2E0,1.61E3,1.867E3,1.207E3,3.1E1,1.3E1,5.4E1,9.4E1,3.402E3,8.4E1,3.251E3,4.01E2,8.2E1,1.64E2,2.9E1,3.81E2,2.483E3,5.84E2,1.68E2,5.12E2,6.86E2,3.433E3,1.682E3,9.13E2,2.33E2,5.5E1,3.2E1,6.7E1,5.03E2,2.297E3,2.17E2,6.557E3,1.607E3,3E0,1.12E2,1.755E3,2.73E2,9.34E2,2.7E1,4E0,8E0,5E0,1.6E1,3.8E1,4E0,9E1,1.007E3,2.395E3,4.4E1,4E1,2.562E3,6.89E2,3.82E2,1.9E1,7.7E1,5E0,9.7E1,6.7E1,8E0,2.1E1,2.33E2,1.48E2,2.179E3,3.04E2,9.8E1,4.86E2,5.3E1,1.15E2,2.7E1,4.85E2,5.07E2,1.79E2,1.78E2,3.255E3,1.594E3,8.8E1,1.3E1,9E2,4.3E1,1.9E2,2.5E1,3E1,8E0,2.4E1,3E0,6.4E1,2.58E2,2.45E2,1.34E2,2.163E3,5.7E1,1.6E2,4.794E3,1.763E3],"tree_param":{"num_deleted":"0","num_feature":"10","num_nodes":"125","size_leaf_vector":"1"}},{"base_weights":[-1.9903811E-5,-1.1414251E-1,1.4430842E-1,-1.9311324E-1,-3.391048E-2,7.7246904E-2,2.0969178E-1,-2.0751315E-1,7.768521E-2,2.4434824E-1,-5.7651825E-2,-3.551713E-2,1.3525742E-1,-3.6131475E-2,2.2091804E-1,-1.3499466E-1,-2.4693924E-1,2.52437E-1,-8.006303E-3,-2.1916337E-1,2.6689917E-1,-3.1702644E-1,-3.5379928E-2,-9.876455E-2,1.0198764E-1,-2.4426999E-2,1.6499813E-1,-1.12424925E-1,2.880832E-1,-2.0136608E-2,2.2861983E-1,-2.3204593E-1,-7.607434E-2,-2.5605452E-1,-6.205494E-3,3.11906E-1,2.3130132E-2,-1.7063884E-1,9.19254E-2,-3.2709432E-1,2.438695E-1,-2.6657817E-1,2.816293E-1,-3.3236524E-1,-6.789804E-2,-1.00561485E-1,5.4447204E-2,1.6169406E-1,-1.2723807E-1,-8.277034E-3,1.8501745E-1,5.085732E-2,-1.5740398E-1,-1.9801739E-1,1.7536493E-1,-2.083768E-1,8.075636E-2,3.136843E-1,-3.199669E-2,-9.533727E-2,2.586943E-1,1.15389705E-1,2.4261087E-1,-2.3830479E-2,3.954415E-2,2.5296679E-2,-1.0081051E-2,-2.6475651E-2,-5.926255E-3,-1.7701281E-2,1.4483139E-2,-3.532779E-2,3.3147957E-2,1.981715E-2,-2.0013092E-2,-2.1104995E-2,3.557047E-2,-3.2605164E-2,1.3067503E-2,3.1681743E-2,-3.888113E-2,3.7489485E-2,-2.7114121E-2,3.0707909E-2,-3.5213076E-2,1.2327085E-2,3.0442793E-2,-2.2713823E-2,-3.479453E-2,-2.3320138E-2,1.6946537E-2,-1.1874641E-2,1.4791833E-2,-4.370925E-4,1.546019E-2,-4.3723878E-2,1.908121E-2,-5.6133345E-3,-2.2812618E-2,-6.6177896E-3,2.4091996E-2,2.7227072E-2,8.86169E-3,9.1284123E-4,2.4983948E-2,-4.1732634E-4,-2.2740634E-2,1.8314039E-3,-3.0498508E-2,1.918462E-2,-2.3379226E-3,-2.4406096E-2,1.6371856E-2,2.0491995E-2,-1.3239266E-2,-2.9561853E-2,3.2902196E-2,-3.341491E-2,-1.6820256E-3,3.1532332E-2,-2.8005442E-2,-9.682774E-3,1.5598047E-2,2.2273382E-2,3.024356E-2],"categories":[],"categories_nodes":[],"categories_segments":[],"categories_sizes":[],"default_left":[0,0,0,0,0,0,0,0,0,0,0,0,0,0,0,0,0,0,0,0,0,0,0,0,0,0,0,0,0,0,0,0,0,0,0,0,0,0,0,0,0,0,0,0,0,0,0,0,0,0,0,0,0,0,0,0,0,0,0,0,0,0,0,0,0,0,0,0,0,0,0,0,0,0,0,0,0,0,0,0,0,0,0,0,0,0,0,0,0,0,0,0,0,0,0,0,0,0,0,0,0,0,0,0,0,0,0,0,0,0,0,0,0,0,0,0,0,0,0,0,0,0,0,0,0],"id":5,"left_children":[1,3,5,7,9,11,13,15,17,19,21,23,25,27,29,31,33,35,37,39,41,43,45,47,49,51,53,55,57,59,61,63,65,67,69,71,73,75,77,79,81,83,85,87,89,91,93,95,97,99,101,103,105,107,109,111,113,115,-1,117,119,121,123,-1,-1,-1,-1,-1,-1,-1,-1,-1,-1,-1,-1,-1,-1,-1,-1,-1,-1,-1,-1,-1,-1,-1,-1,-1,-1,-1,-1,-1,-1,-1,-1,-1,-1,-1,-1,-1,-1,-1,-1,-1,-1,-1,-1,-1,-1,-1,-1,-1,-1,-1,-1,-1,-1,-1,-1,-1,-1,-1,-1,-1,-1],"loss_changes":[5.451283E2,1.1709505E2,6.406195E1,3.6335846E1,6.058667E1,4.720828E1,2.0426819E1,2.5252716E1,7.0551248E0,7.594837E0,4.879667E1,2.1334682E1,2.2633621E1,8.046676E0,1.314151E1,1.7806263E1,1.2567657E1,2.1064672E0,5.167617E0,1.7789378E0,5.4815025E0,2.530075E0,4.556965E1,1.247974E1,7.0785437E0,7.5063057E0,1.5151947E1,4.891823E0,1.0655079E0,4.6376824E0,1.083493E1,4.7167244E0,1.5823722E1,9.435486E0,5.4432607E0,1.7185678E0,1.3292973E0,2.6487553E0,3.2333088E0,1.2359099E0,5.7400554E-1,1.0406113E0,2.3814087E0,9.5217896E-1,1.6089982E0,2.0396381E1,1.9281631E1,2.9784288E0,1.0855232E1,4.8207073E0,3.685238E0,3.9750037E0,2.9059358E0,2.5973186E0,1.2798775E1,2.3768697E0,2.3560805E0,6.579819E-1,0E0,3.2570171E0,1.522222E0,6.527339E0,7.188751E0,0E0,0E0,0E0,0E0,0E0,0E0,0E0,0E0,0E0,0E0,0E0,0E0,0E0,0E0,0E0,0E0,0E0,0E0,0E0,0E0,0E0,0E0,0E0,0E0,0E0,0E0,0E0,0E0,0E0,0E0,0E0,0E0,0E0,0E0,0E0,0E0,0E0,0E0,0E0,0E0,0E0,0E0,0E0,0E0,0E0,0E0,0E0,0E0,0E0,0E0,0E0,0E0,0E0,0E0,0E0,0E0,0E0,0E0,0E0,0E0,0E0,0E0],"parents":[2147483647,0,0,1,1,2,2,3,3,4,4,5,5,6,6,7,7,8,8,9,9,10,10,11,11,12,12,13,13,14,14,15,15,16,16,17,17,18,18,19,19,20,20,21,21,22,22,23,23,24,24,25,25,26,26,27,27,28,28,29,29,30,30,31,31,32,32,33,33,34,34,35,35,36,36,37,37,38,38,39,39,40,40,41,41,42,42,43,43,44,44,45,45,46,46,47,47,48,48,49,49,50,50,51,51,52,52,53,53,54,54,55,55,56,56,57,57,59,59,60,60,61,61,62,62],"right_children":[2,4,6,8,10,12,14,16,18,20,22,24,26,28,30,32,34,36,38,40,42,44,46,48,50,52,54,56,58,60,62,64,66,68,70,72,74,76,78,80,82,84,86,88,90,92,94,96,98,100,102,104,106,108,110,112,114,116,-1,118,120,122,124,-1,-1,-1,-1,-1,-1,-1,-1,-1,-1,-1,-1,-1,-1,-1,-1,-1,-1,-1,-1,-1,-1,-1,-1,-1,-1,-1,-1,-1,-1,-1,-1,-1,-1,-1,-1,-1,-1,-1,-1,-1,-1,-1,-1,-1,-1,-1,-1,-1,-1,-1,-1,-1,-1,-1,-1,-1,-1,-1,-1,-1,-1],"split_conditions":[2.1906259E-2,8.124619E-3,4.060735E-3,1.509E-1,-1.378E-1,-4.81E-3,-1.3422E-1,2.303091E-3,-2.369E-2,-1.4379E-1,-1.4379E-1,3.6448695E-2,-5.06E-2,1.367E-1,-1.4465E-1,-7.858467E-3,1.5385E-1,1.5983898E-2,-4.555E-2,1.8813469E-2,-1.6493E-1,1.0975E-1,3.3062268E-3,-1.0907E-1,-1.948E-2,1.5813073E-3,-1.5637E-1,7.083E-2,2.770485E-2,1.2222E-1,-6.416E-2,2.2708E-1,-1.4996E-1,1.3856E-1,-1.662E-2,-1.7854E-1,-4.2796633E-3,1.2363E-1,-1.0042E-1,-2.1099223E-2,-1.6667E-1,-1.5343009E-2,-7.355E-2,-5.813E-2,7.55E-3,1.4889E-1,3.593E-2,-1.5637E-1,3.9536566E-3,1.4473E-1,-7.0593497E-3,1.6166E-1,-5.7575973E-3,-1.13218855E-2,1.0008E-1,2.9533148E-2,-1.5361219E-3,-3.2197E-1,-3.199669E-2,-4.001E-2,1.8761484E-2,-4.884E-2,1.1636E-1,-2.3830479E-2,3.954415E-2,2.5296679E-2,-1.0081051E-2,-2.6475651E-2,-5.926255E-3,-1.7701281E-2,1.4483139E-2,-3.532779E-2,3.3147957E-2,1.981715E-2,-2.0013092E-2,-2.1104995E-2,3.557047E-2,-3.2605164E-2,1.3067503E-2,3.1681743E-2,-3.888113E-2,3.7489485E-2,-2.7114121E-2,3.0707909E-2,-3.5213076E-2,1.2327085E-2,3.0442793E-2,-2.2713823E-2,-3.479453E-2,-2.3320138E-2,1.6946537E-2,-1.1874641E-2,1.4791833E-2,-4.370925E-4,1.546019E-2,-4.3723878E-2,1.908121E-2,-5.6133345E-3,-2.2812618E-2,-6.6177896E-3,2.4091996E-2,2.7227072E-2,8.86169E-3,9.1284123E-4,2.4983948E-2,-4.1732634E-4,-2.2740634E-2,1.8314039E-3,-3.0498508E-2,1.918462E-2,-2.3379226E-3,-2.4406096E-2,1.6371856E-2,2.0491995E-2,-1.3239266E-2,-2.9561853E-2,3.2902196E-2,-3.341491E-2,-1.6820256E-3,3.1532332E-2,-2.8005442E-2,-9.682774E-3,1.5598047E-2,2.2273382E-2,3.024356E-2],"split_indices":[9,9,0,3,6,3,3,1,6,2,2,9,2,2,5,0,2,1,2,9,5,5,0,6,5,1,4,4,8,2,2,4,6,4,4,5,8,4,5,8,2,8,4,6,3,4,5,4,8,2,1,3,8,1,6,0,1,3,0,4,8,4,4,0,0,0,0,0,0,0,0,0,0,0,0,0,0,0,0,0,0,0,0,0,0,0,0,0,0,0,0,0,0,0,0,0,0,0,0,0,0,0,0,0,0,0,0,0,0,0,0,0,0,0,0,0,0,0,0,0,0,0,0,0,0],"split_type":[0,0,0,0,0,0,0,0,0,0,0,0,0,0,0,0,0,0,0,0,0,0,0,0,0,0,0,0,0,0,0,0,0,0,0,0,0,0,0,0,0,0,0,0,0,0,0,0,0,0,0,0,0,0,0,0,0,0,0,0,0,0,0,0,0,0,0,0,0,0,0,0,0,0,0,0,0,0,0,0,0,0,0,0,0,0,0,0,0,0,0,0,0,0,0,0,0,0,0,0,0,0,0,0,0,0,0,0,0,0,0,0,0,0,0,0,0,0,0,0,0,0,0,0,0],"sum_hessian":[3.3094E4,1.8481E4,1.4613E4,9.313E3,9.168E3,7.215E3,7.398E3,8.843E3,4.7E2,7.2E2,8.448E3,2.451E3,4.764E3,3.23E2,7.075E3,3.116E3,5.727E3,1.54E2,3.16E2,3.3E1,6.87E2,6.67E2,7.781E3,1.679E3,7.72E2,7.48E2,4.016E3,2.62E2,6.1E1,2.19E2,6.856E3,1.176E3,1.94E3,5.518E3,2.09E2,1.22E2,3.2E1,1.2E2,1.96E2,2.7E1,6E0,1.8E1,6.69E2,6.28E2,3.9E1,4.509E3,3.272E3,1.65E2,1.514E3,3.32E2,4.4E2,4.78E2,2.7E2,1.11E2,3.905E3,1.75E2,8.7E1,5.9E1,2E0,1.73E2,4.6E1,7.55E2,6.101E3,1.165E3,1.1E1,1.35E2,1.805E3,5.284E3,2.34E2,9.8E1,1.11E2,3E0,1.19E2,1.8E1,1.4E1,1.12E2,8E0,1.6E1,1.8E2,2E0,2.5E1,5E0,1E0,2E0,1.6E1,8.5E1,5.84E2,8.3E1,5.45E2,2.3E1,1.6E1,4.202E3,3.07E2,2.062E3,1.21E3,7E0,1.58E2,8.89E2,6.25E2,2.7E2,6.2E1,2.3E2,2.1E2,3.96E2,8.2E1,8.5E1,1.85E2,3.7E1,7.4E1,3.606E3,2.99E2,1.6E2,1.5E1,5.5E1,3.2E1,1E0,5.8E1,4.2E1,1.31E2,4.2E1,4E0,1.21E2,6.34E2,4.583E3,1.518E3],"tree_param":{"num_deleted":"0","num_feature":"10","num_nodes":"125","size_leaf_vector":"1"}},{"base_weights":[-1.8754095E-5,-9.820755E-2,1.365942E-1,-1.7930487E-1,-3.184105E-2,-1.2813564E-1,1.5089789E-1,-2.083387E-1,-6.5180406E-2,-5.9148498E-2,1.7098062E-1,-1.6707216E-1,2.0876567E-1,-1.1047439E-1,1.6259347E-1,-3.1165417E-2,-2.2206883E-1,-1.0410499E-1,1.6693233E-1,-1.5015799E-2,-1.7600201E-1,-2.0715382E-2,2.0077597E-1,-2.1108675E-1,1.2520355E-1,-3.816264E-2,2.6647124E-1,-1.6483335E-1,1.20064095E-1,1.2985106E-1,2.4101278E-1,-1.1937199E-1,1.2131787E-1,-2.2989316E-1,-1.8764201E-3,-2.769867E-1,-6.3032866E-2,-1.595044E-1,2.1834034E-1,-1.2595673E-1,3.6351204E-2,-1.3352701E-1,-3.0157655E-1,2.8672713E-1,-8.335706E-2,2.524082E-1,1.0622094E-1,-1.6736306E-1,-4.232733E-1,2.0207563E-2,3.3447385E-2,-6.5854564E-2,3.1187892E-1,-2.015277E-1,8.549184E-2,1.6123593E-1,-4.1473832E-2,7.540873E-2,1.9008179E-1,-2.2712857E-1,2.4554417E-1,-2.4377655E-2,3.939284E-5,-2.4738122E-2,1.6554143E-2,-2.3666548E-2,-1.357566E-3,-2.3490494E-2,9.672459E-3,-2.9282821E-2,3.1906825E-3,-2.6806781E-2,-2.3248175E-3,-3.1289384E-2,1.6056651E-2,-3.3456318E-3,2.6003797E-2,-1.8372167E-2,-2.9955262E-3,-3.43651E-3,1.1283302E-2,-2.0067636E-2,-3.3934775E-3,-3.1393822E-2,-5.45764E-3,3.1696863E-2,-2.8001714E-2,-3.3798482E-2,-6.6985135E-6,7.2385743E-4,2.6837042E-2,5.881606E-3,3.1570997E-2,-3.7845243E-2,-1.0480916E-2,-4.3227483E-2,2.069335E-2,-2.5751302E-2,1.549892E-2,2.9484887E-2,-2.9534776E-2,-2.8851146E-2,3.2694507E-2,-2.2268882E-2,1.2310375E-2,-1.2994154E-2,2.5916485E-2,3.2483991E-3,2.7269622E-2,4.4036973E-3,2.1417474E-2,1.6459918E-2,2.6739879E-2,2.1755109E-2,-3.419668E-2,2.7075369E-2,1.9928968E-2],"categories":[],"categories_nodes":[],"categories_segments":[],"categories_sizes":[],"default_left":[0,0,0,0,0,0,0,0,0,0,0,0,0,0,0,0,0,0,0,0,0,0,0,0,0,0,0,0,0,0,0,0,0,0,0,0,0,0,0,0,0,0,0,0,0,0,0,0,0,0,0,0,0,0,0,0,0,0,0,0,0,0,0,0,0,0,0,0,0,0,0,0,0,0,0,0,0,0,0,0,0,0,0,0,0,0,0,0,0,0,0,0,0,0,0,0,0,0,0,0,0,0,0,0,0,0,0,0,0,0,0,0,0,0,0,0,0],"id":6,"left_children":[1,3,5,7,9,11,13,15,17,19,21,23,25,27,29,31,33,35,37,39,41,43,45,47,49,-1,51,53,55,57,59,61,63,65,67,69,71,73,75,77,79,81,83,85,87,89,91,93,95,97,-1,99,101,103,105,107,-1,109,111,113,115,-1,-1,-1,-1,-1,-1,-1,-1,-1,-1,-1,-1,-1,-1,-1,-1,-1,-1,-1,-1,-1,-1,-1,-1,-1,-1,-1,-1,-1,-1,-1,-1,-1,-1,-1,-1,-1,-1,-1,-1,-1,-1,-1,-1,-1,-1,-1,-1,-1,-1,-1,-1,-1,-1,-1,-1],"loss_changes":[4.4394525E2,1.0363286E2,5.2426025E1,2.8700928E1,5.866881E1,9.348492E0,4.015811E1,1.6797607E1,1.5909754E1,4.8138523E1,7.1837006E0,8.22105E0,2.6227922E0,7.0752115E0,3.2241333E1,6.712596E0,1.10448E1,1.068317E1,4.2805357E0,3.8624695E1,1.3608864E1,3.2978823E0,5.2849007E0,5.0689373E0,1.8389344E0,0E0,1.046668E0,4.2058268E0,2.4449005E0,2.9068008E1,7.90683E0,4.708314E0,3.0248003E0,9.066376E0,5.100604E0,1.4235172E0,9.937458E0,1.7685828E0,2.308051E0,1.1889633E1,2.5061508E1,1.2793163E1,1.9553185E0,5.85793E-1,3.0115082E0,2.7492104E0,3.8147206E0,6.047594E0,6.2269783E-1,2.173515E0,0E0,8.320937E-1,6.370611E-1,2.7615013E0,2.2411592E0,1.4405656E0,0E0,2.02771E1,8.250702E0,1.9127791E0,4.2207947E0,0E0,0E0,0E0,0E0,0E0,0E0,0E0,0E0,0E0,0E0,0E0,0E0,0E0,0E0,0E0,0E0,0E0,0E0,0E0,0E0,0E0,0E0,0E0,0E0,0E0,0E0,0E0,0E0,0E0,0E0,0E0,0E0,0E0,0E0,0E0,0E0,0E0,0E0,0E0,0E0,0E0,0E0,0E0,0E0,0E0,0E0,0E0,0E0,0E0,0E0,0E0,0E0,0E0,0E0,0E0,0E0],"parents":[2147483647,0,0,1,1,2,2,3,3,4,4,5,5,6,6,7,7,8,8,9,9,10,10,11,11,12,12,13,13,14,14,15,15,16,16,17,17,18,18,19,19,20,20,21,21,22,22,23,23,24,24,26,26,27,27,28,28,29,29,30,30,31,31,32,32,33,33,34,34,35,35,36,36,37,37,38,38,39,39,40,40,41,41,42,42,43,43,44,44,45,45,46,46,47,47,48,48,49,49,51,51,52,52,53,53,54,54,55,55,57,57,58,58,59,59,60,60],"right_children":[2,4,6,8,10,12,14,16,18,20,22,24,26,28,30,32,34,36,38,40,42,44,46,48,50,-1,52,54,56,58,60,62,64,66,68,70,72,74,76,78,80,82,84,86,88,90,92,94,96,98,-1,100,102,104,106,108,-1,110,112,114,116,-1,-1,-1,-1,-1,-1,-1,-1,-1,-1,-1,-1,-1,-1,-1,-1,-1,-1,-1,-1,-1,-1,-1,-1,-1,-1,-1,-1,-1,-1,-1,-1,-1,-1,-1,-1,-1,-1,-1,-1,-1,-1,-1,-1,-1,-1,-1,-1,-1,-1,-1,-1,-1,-1,-1,-1],"split_conditions":[2.3033723E-2,6.8793315E-3,-1.3809E-1,1.2193053E-2,1.3456E-1,1.5873E-1,-1.3799E-1,-1.0475E-1,1.0102E-1,4.369E-2,-8.166E-2,4.6139326E-2,-1.2094E-1,4.23203E-2,1.0311E-1,3.171E-2,1.4117E-1,-1.432356E-2,-9.468E-2,-8.747086E-3,1.4994E-1,-9.182E-2,4.088034E-3,8.524E-2,1.1286E-1,-3.816264E-2,-4.001E-2,1.4473E-1,1.334E-1,5.3150924E-3,-1.7751E-1,-2.3723568E-3,-1.54E-1,1.617E-1,-6.119E-2,1.6261E-1,-1.2604E-1,1.597239E-4,-8.329E-2,3.293E-2,1.7E-2,1.497E-2,1.6166E-1,2.2096384E-2,-7.643E-2,-1.4239E-1,1.0975E-1,-2.3963E-1,2.5405E-1,-1.3473478E-2,3.3447385E-2,-1.9436E-1,-4.5834653E-2,2.6612055E-2,3.3062268E-3,7.083E-2,-4.1473832E-2,1.3538E-1,1.1636E-1,-6.022E-2,3.3140467E-3,-2.4377655E-2,3.939284E-5,-2.4738122E-2,1.6554143E-2,-2.3666548E-2,-1.357566E-3,-2.3490494E-2,9.672459E-3,-2.9282821E-2,3.1906825E-3,-2.6806781E-2,-2.3248175E-3,-3.1289384E-2,1.6056651E-2,-3.3456318E-3,2.6003797E-2,-1.8372167E-2,-2.9955262E-3,-3.43651E-3,1.1283302E-2,-2.0067636E-2,-3.3934775E-3,-3.1393822E-2,-5.45764E-3,3.1696863E-2,-2.8001714E-2,-3.3798482E-2,-6.6985135E-6,7.2385743E-4,2.6837042E-2,5.881606E-3,3.1570997E-2,-3.7845243E-2,-1.0480916E-2,-4.3227483E-2,2.069335E-2,-2.5751302E-2,1.549892E-2,2.9484887E-2,-2.9534776E-2,-2.8851146E-2,3.2694507E-2,-2.2268882E-2,1.2310375E-2,-1.2994154E-2,2.5916485E-2,3.2483991E-3,2.7269622E-2,4.4036973E-3,2.1417474E-2,1.6459918E-2,2.6739879E-2,2.1755109E-2,-3.419668E-2,2.7075369E-2,1.9928968E-2],"split_indices":[9,9,5,0,2,3,3,6,4,6,5,9,2,9,2,4,5,9,3,0,6,6,8,6,2,0,4,2,6,0,4,9,3,2,4,5,3,9,2,4,3,5,3,9,3,4,5,5,4,0,0,5,0,0,0,4,0,3,4,6,8,0,0,0,0,0,0,0,0,0,0,0,0,0,0,0,0,0,0,0,0,0,0,0,0,0,0,0,0,0,0,0,0,0,0,0,0,0,0,0,0,0,0,0,0,0,0,0,0,0,0,0,0,0,0,0,0],"split_type":[0,0,0,0,0,0,0,0,0,0,0,0,0,0,0,0,0,0,0,0,0,0,0,0,0,0,0,0,0,0,0,0,0,0,0,0,0,0,0,0,0,0,0,0,0,0,0,0,0,0,0,0,0,0,0,0,0,0,0,0,0,0,0,0,0,0,0,0,0,0,0,0,0,0,0,0,0,0,0,0,0,0,0,0,0,0,0,0,0,0,0,0,0,0,0,0,0,0,0,0,0,0,0,0,0,0,0,0,0,0,0,0,0,0,0,0,0],"sum_hessian":[3.3094E4,1.9255E4,1.3839E4,8.665E3,1.059E4,7.09E2,1.313E4,6.907E3,1.758E3,9.334E3,1.256E3,6.36E2,7.3E1,5.62E2,1.2568E4,4.97E2,6.41E3,1.506E3,2.52E2,6.776E3,2.558E3,1.69E2,1.087E3,5.53E2,8.3E1,6E0,6.7E1,4.55E2,1.07E2,8.868E3,3.7E3,3.15E2,1.82E2,6.19E3,2.2E2,2.88E2,1.218E3,3.4E1,2.18E2,2.144E3,4.632E3,1.913E3,6.45E2,2.8E1,1.41E2,7.02E2,3.85E2,4.6E2,9.3E1,5.6E1,2.7E1,8E0,5.9E1,3.97E2,5.8E1,1E2,7E0,4.659E3,4.209E3,3.5E1,3.665E3,1.54E2,1.61E2,1.9E1,1.63E2,6.002E3,1.88E2,6.5E1,1.55E2,2.74E2,1.4E1,1.97E2,1.021E3,2.3E1,1.1E1,3.1E1,1.87E2,1.338E3,8.06E2,2.407E3,2.225E3,1.142E3,7.71E2,6.14E2,3.1E1,2.7E1,1E0,3.4E1,1.07E2,4.3E1,6.59E2,3.15E2,7E1,1.04E2,3.56E2,9.2E1,1E0,1.8E1,3.8E1,3E0,5E0,1E0,5.8E1,3.73E2,2.4E1,2.6E1,3.2E1,4.7E1,5.3E1,3.801E3,8.58E2,3.168E3,1.041E3,7E0,2.8E1,2.369E3,1.296E3],"tree_param":{"num_deleted":"0","num_feature":"10","num_nodes":"117","size_leaf_vector":"1"}},{"base_weights":[-2.1247086E-5,-1.3433002E-1,8.194416E-2,-1.6168012E-1,-2.71122E-3,1.9532178E-2,1.5535745E-1,-2.6703927E-1,-1.3742985E-1,-7.394114E-2,1.5132876E-1,-2.9345624E-2,1.2167265E-1,-1.3214904E-1,1.6280463E-1,-2.7085713E-1,2.780791E-1,-2.2931124E-1,-1.0407714E-1,-1.02838114E-1,2.0718843E-1,-2.6400052E-2,2.0935757E-1,1.04949936E-1,-6.802969E-2,-1.7100349E-1,1.3741562E-1,-1.9911781E-1,1.1251014E-1,1.2891077E-1,2.1632612E-1,-2.7342674E-1,7.525328E-2,-2.4946248E-2,4.4463247E-2,2.4059315E-1,-2.3406348E-1,-6.264593E-2,-1.9441521E-1,-1.83697E-1,-1.1965038E-2,-3.1533953E-2,2.4608836E-1,-2.0722157E-1,6.0309365E-2,6.3211605E-2,2.4753015E-1,2.3223764E-1,5.132305E-2,-1.5860847E-1,-1.803793E-2,-2.282608E-1,2.2055566E-2,1.8830545E-1,6.4550795E-2,2.3002017E-1,-2.3231103E-1,1.759888E-1,-4.0349107E-2,1.691172E-1,5.886784E-2,-1.156124E-1,2.193628E-1,-2.9469868E-2,-2.4202798E-2,3.60375E-2,-3.0208228E-2,-2.4930216E-2,3.5685018E-2,-2.3738353E-2,2.7113661E-2,-2.2989912E-2,-3.987882E-3,-2.500636E-2,-1.339812E-2,-1.2807299E-2,-2.689667E-2,-1.2596905E-2,7.907785E-3,2.7750313E-2,-1.1613406E-2,3.4320604E-2,-2.571219E-2,2.7466357E-2,-1.5166624E-3,3.0662624E-2,-5.2771154E-3,1.5870007E-2,2.9039342E-2,-1.5541881E-2,2.5392089E-2,-1.3410409E-2,9.449095E-3,-2.7511045E-2,-1.2525489E-2,-9.893353E-3,4.5580845E-3,-7.5535406E-4,-2.6650295E-2,-1.4160173E-2,2.362333E-2,1.5158961E-2,2.6278377E-2,-1.2651573E-2,9.655319E-3,-2.9693777E-3,3.3687513E-2,-2.6916226E-2,8.442345E-3,-2.6401466E-2,2.5958976E-2,1.5054719E-3,1.8340029E-2,1.9512316E-3,2.0695249E-2,-3.8662072E-2,1.044264E-2,8.422989E-3,2.259942E-2],"categories":[],"categories_nodes":[],"categories_segments":[],"categories_sizes":[],"default_left":[0,0,0,0,0,0,0,0,0,0,0,0,0,0,0,0,0,0,0,0,0,0,0,0,0,0,0,0,0,0,0,0,0,0,0,0,0,0,0,0,0,0,0,0,0,0,0,0,0,0,0,0,0,0,0,0,0,0,0,0,0,0,0,0,0,0,0,0,0,0,0,0,0,0,0,0,0,0,0,0,0,0,0,0,0,0,0,0,0,0,0,0,0,0,0,0,0,0,0,0,0,0,0,0,0,0,0,0,0,0,0,0,0,0,0,0,0,0,0],"id":7,"left_children":[1,3,5,7,9,11,13,15,17,19,21,23,25,27,29,31,33,35,37,39,41,43,45,47,49,51,53,55,57,59,61,63,65,-1,-1,67,69,71,73,75,77,-1,79,81,83,85,87,89,91,93,95,97,99,101,103,105,107,109,-1,111,113,115,117,-1,-1,-1,-1,-1,-1,-1,-1,-1,-1,-1,-1,-1,-1,-1,-1,-1,-1,-1,-1,-1,-1,-1,-1,-1,-1,-1,-1,-1,-1,-1,-1,-1,-1,-1,-1,-1,-1,-1,-1,-1,-1,-1,-1,-1,-1,-1,-1,-1,-1,-1,-1,-1,-1,-1,-1],"loss_changes":[3.6434308E2,4.5151672E1,9.4168106E1,2.6496857E1,2.3700289E1,5.5469162E1,2.0242172E1,4.116974E0,2.5852722E1,1.2020149E1,7.049573E0,3.9048298E1,1.6592392E1,3.938304E0,1.6672287E1,1.7361603E0,1.341013E0,5.0763245E0,2.3182053E1,9.843982E0,2.8826313E0,2.6622362E0,2.85742E0,1.1462658E1,2.641914E1,2.038978E0,1.2643517E1,2.7313972E0,1.7742733E0,1.58704605E1,3.6218414E0,1.2077332E0,1.7226614E0,0E0,0E0,1.3989004E0,3.7979965E0,1.6174286E1,6.5177307E0,3.3283691E0,6.5696497E0,0E0,1.5001364E0,1.5989041E0,1.8647043E0,3.065226E0,1.5073929E0,4.2254753E0,9.490001E0,8.028488E0,1.9360415E1,1.1965117E0,1.5406761E0,5.453842E0,8.60321E0,3.9852715E-1,2.0653334E0,1.7974172E0,0E0,7.879387E0,1.198988E1,2.008241E0,3.149643E0,0E0,0E0,0E0,0E0,0E0,0E0,0E0,0E0,0E0,0E0,0E0,0E0,0E0,0E0,0E0,0E0,0E0,0E0,0E0,0E0,0E0,0E0,0E0,0E0,0E0,0E0,0E0,0E0,0E0,0E0,0E0,0E0,0E0,0E0,0E0,0E0,0E0,0E0,0E0,0E0,0E0,0E0,0E0,0E0,0E0,0E0,0E0,0E0,0E0,0E0,0E0,0E0,0E0,0E0,0E0,0E0],"parents":[2147483647,0,0,1,1,2,2,3,3,4,4,5,5,6,6,7,7,8,8,9,9,10,10,11,11,12,12,13,13,14,14,15,15,16,16,17,17,18,18,19,19,20,20,21,21,22,22,23,23,24,24,25,25,26,26,27,27,28,28,29,29,30,30,31,31,32,32,35,35,36,36,37,37,38,38,39,39,40,40,42,42,43,43,44,44,45,45,46,46,47,47,48,48,49,49,50,50,51,51,52,52,53,53,54,54,55,55,56,56,57,57,59,59,60,60,61,61,62,62],"right_children":[2,4,6,8,10,12,14,16,18,20,22,24,26,28,30,32,34,36,38,40,42,44,46,48,50,52,54,56,58,60,62,64,66,-1,-1,68,70,72,74,76,78,-1,80,82,84,86,88,90,92,94,96,98,100,102,104,106,108,110,-1,112,114,116,118,-1,-1,-1,-1,-1,-1,-1,-1,-1,-1,-1,-1,-1,-1,-1,-1,-1,-1,-1,-1,-1,-1,-1,-1,-1,-1,-1,-1,-1,-1,-1,-1,-1,-1,-1,-1,-1,-1,-1,-1,-1,-1,-1,-1,-1,-1,-1,-1,-1,-1,-1,-1,-1,-1,-1,-1],"split_conditions":[1.3300905E-2,8.093E-2,2.9989848E-2,-1.0775E-1,4.259E-2,9.561869E-3,-1.4706E-1,2.3806E-1,-1.502374E-2,1.1142E-1,-1.0319827E-2,-5.813E-2,-1.4379E-1,8.483E-2,4.3206457E-2,1.9637E-1,-1.6493E-1,-2.3178E-1,4.706E-2,-7.02E-3,-1.6558E-1,-4.749E-2,-3.7845871E-3,-1.5355E-1,-1.547E-2,7.845E-2,6.61E-3,-1.6507E-1,6.204E-2,3.6844618E-3,-1.7751E-1,-1.5387E-1,2.084E-2,-2.4946248E-2,4.4463247E-2,-7.4606175E-3,2.5405E-1,-1.4666E-1,-7.85E-3,3.106E-2,-2.0556382E-3,-3.1533953E-2,2.1427218E-2,-1.0907E-1,-5.416E-2,-3.387E-2,1.0609E-1,-1.3422E-1,-5.856E-2,-1.4666E-1,-1.939E-2,-7.494E-2,-2.4843696E-3,7.849E-2,-7.355E-2,3.380133E-2,4.9049597E-2,-1.0042E-1,-4.0349107E-2,-1.9466247E-2,1.2426E-1,-9.623206E-3,-1.2535E-1,-2.9469868E-2,-2.4202798E-2,3.60375E-2,-3.0208228E-2,-2.4930216E-2,3.5685018E-2,-2.3738353E-2,2.7113661E-2,-2.2989912E-2,-3.987882E-3,-2.500636E-2,-1.339812E-2,-1.2807299E-2,-2.689667E-2,-1.2596905E-2,7.907785E-3,2.7750313E-2,-1.1613406E-2,3.4320604E-2,-2.571219E-2,2.7466357E-2,-1.5166624E-3,3.0662624E-2,-5.2771154E-3,1.5870007E-2,2.9039342E-2,-1.5541881E-2,2.5392089E-2,-1.3410409E-2,9.449095E-3,-2.7511045E-2,-1.2525489E-2,-9.893353E-3,4.5580845E-3,-7.5535406E-4,-2.6650295E-2,-1.4160173E-2,2.362333E-2,1.5158961E-2,2.6278377E-2,-1.2651573E-2,9.655319E-3,-2.9693777E-3,3.3687513E-2,-2.6916226E-2,8.442345E-3,-2.6401466E-2,2.5958976E-2,1.5054719E-3,1.8340029E-2,1.9512316E-3,2.0695249E-2,-3.8662072E-2,1.044264E-2,8.422989E-3,2.259942E-2],"split_indices":[9,3,9,4,4,0,2,2,0,5,0,6,2,3,9,5,5,6,6,2,4,2,9,6,3,5,6,6,6,8,4,4,6,0,0,9,4,3,5,6,0,0,8,6,6,6,3,3,4,3,5,6,7,3,4,9,9,5,0,0,3,0,5,0,0,0,0,0,0,0,0,0,0,0,0,0,0,0,0,0,0,0,0,0,0,0,0,0,0,0,0,0,0,0,0,0,0,0,0,0,0,0,0,0,0,0,0,0,0,0,0,0,0,0,0,0,0,0,0],"split_type":[0,0,0,0,0,0,0,0,0,0,0,0,0,0,0,0,0,0,0,0,0,0,0,0,0,0,0,0,0,0,0,0,0,0,0,0,0,0,0,0,0,0,0,0,0,0,0,0,0,0,0,0,0,0,0,0,0,0,0,0,0,0,0,0,0,0,0,0,0,0,0,0,0,0,0,0,0,0,0,0,0,0,0,0,0,0,0,0,0,0,0,0,0,0,0,0,0,0,0,0,0,0,0,0,0,0,0,0,0,0,0,0,0,0,0,0,0,0,0],"sum_hessian":[3.3094E4,1.2542E4,2.0552E4,1.0384E4,2.158E3,1.1109E4,9.443E3,1.941E3,8.443E3,1.476E3,6.82E2,7.514E3,3.595E3,2.38E2,9.205E3,1.928E3,1.3E1,2.247E3,6.196E3,1.339E3,1.37E2,1.68E2,5.14E2,1.68E3,5.834E3,1.83E2,3.412E3,1.87E2,5.1E1,5.638E3,3.567E3,1.914E3,1.4E1,3E0,1E1,2.2E1,2.225E3,4.249E3,1.947E3,7.08E2,6.31E2,9E0,1.28E2,5.4E1,1.14E2,1.07E2,4.07E2,4.97E2,1.183E3,2.074E3,3.76E3,1.41E2,4.2E1,2.008E3,1.404E3,1.3E1,1.74E2,4.6E1,5E0,3.581E3,2.057E3,3.2E1,3.535E3,1.136E3,7.78E2,8E0,6E0,4E0,1.8E1,2.211E3,1.4E1,5.08E2,3.741E3,1.012E3,9.35E2,4.3E2,2.78E2,2.8E2,3.51E2,1.18E2,1E1,4E0,5E1,2.9E1,8.5E1,3.4E1,7.3E1,1.34E2,2.73E2,2.6E1,4.71E2,2.23E2,9.6E2,4.6E2,1.614E3,1.655E3,2.105E3,2.1E1,1.2E2,2.4E1,1.8E1,1.347E3,6.61E2,2.01E2,1.203E3,4E0,9E0,1.56E2,1.8E1,7E0,3.9E1,3.04E2,3.277E3,1.626E3,4.31E2,1.4E1,1.8E1,1.66E2,3.369E3],"tree_param":{"num_deleted":"0","num_feature":"10","num_nodes":"119","size_leaf_vector":"1"}},{"base_weights":[-2.0231713E-5,-1.2413131E-1,7.204694E-2,-1.3672313E-1,1.1488301E-1,1.7023824E-2,1.4068817E-1,-7.480822E-2,-1.7927024E-1,-1.6584845E-1,1.6388433E-1,-5.271771E-2,8.2980074E-2,1.5095578E-1,-5.031331E-2,-2.125661E-1,-4.42117E-2,-1.8732983E-1,3.6780454E-2,-2.1576512E-1,8.162124E-2,1.9293255E-1,-1.7948109E-1,-7.6513335E-2,1.8318121E-1,5.5839304E-2,2.4300227E-1,1.3312751E-1,2.4497885E-1,-1.4527039E-1,6.662139E-2,3.2950577E-1,-2.2132671E-1,-1.24696195E-1,1.2054676E-2,-1.9789553E-1,-4.2860087E-2,-9.1118574E-2,1.4183863E-1,-2.3791926E-1,2.4248919E-1,2.633966E-1,-2.652371E-2,3.360713E-1,1.419881E-1,-2.3105612E-1,3.5535198E-2,-2.4366964E-1,-4.6821706E-2,1.13146394E-1,2.607582E-1,-1.849284E-1,7.347679E-2,-1.4253733E-1,2.4996541E-1,6.1594546E-2,1.6302806E-1,-1.1020783E-2,2.462658E-1,-1.9495967E-1,1.734637E-1,-3.8778093E-2,9.553529E-2,-2.293945E-2,4.41772E-2,-2.703259E-2,-1.5747905E-2,-2.2213025E-2,-7.370884E-3,-3.2501798E-3,1.362571E-2,-2.044239E-2,-3.6309771E-3,-2.1170167E-2,4.3680454E-3,-1.2646808E-2,3.2748885E-2,-2.7048338E-2,2.0702744E-2,2.0648468E-2,-2.5991494E-2,-1.5339534E-2,4.255825E-2,-2.2978922E-2,3.9852556E-2,-1.35782985E-2,3.652134E-2,7.217747E-3,3.269259E-2,-2.7084846E-2,3.2347035E-2,-3.3976756E-2,-2.0681461E-2,-1.9156093E-2,-1.0944458E-3,2.5118262E-2,5.492948E-3,-1.0887889E-2,2.7369482E-2,9.444723E-3,-2.1538308E-2,-1.580938E-2,9.059039E-3,-2.7141605E-2,3.1195283E-2,2.4309477E-3,2.5903916E-2,-9.86913E-3,9.116052E-3,2.4746347E-2,1.4749556E-2,2.8065363E-2,-2.4215614E-2,2.4851577E-2,9.393687E-3,-2.2795415E-2,1.4112641E-2,2.2126984E-2,-4.2616036E-2,1.7389635E-2,-5.1495596E-3],"categories":[],"categories_nodes":[],"categories_segments":[],"categories_sizes":[],"default_left":[0,0,0,0,0,0,0,0,0,0,0,0,0,0,0,0,0,0,0,0,0,0,0,0,0,0,0,0,0,0,0,0,0,0,0,0,0,0,0,0,0,0,0,0,0,0,0,0,0,0,0,0,0,0,0,0,0,0,0,0,0,0,0,0,0,0,0,0,0,0,0,0,0,0,0,0,0,0,0,0,0,0,0,0,0,0,0,0,0,0,0,0,0,0,0,0,0,0,0,0,0,0,0,0,0,0,0,0,0,0,0,0,0,0,0,0,0,0,0,0,0],"id":8,"left_children":[1,3,5,7,9,11,13,15,17,19,21,23,25,27,29,31,33,35,37,39,41,43,45,47,49,51,53,55,57,59,61,63,65,67,69,71,73,75,77,79,81,83,-1,85,87,89,-1,91,93,95,97,99,101,103,105,107,109,111,113,115,117,-1,119,-1,-1,-1,-1,-1,-1,-1,-1,-1,-1,-1,-1,-1,-1,-1,-1,-1,-1,-1,-1,-1,-1,-1,-1,-1,-1,-1,-1,-1,-1,-1,-1,-1,-1,-1,-1,-1,-1,-1,-1,-1,-1,-1,-1,-1,-1,-1,-1,-1,-1,-1,-1,-1,-1,-1,-1,-1,-1],"loss_changes":[2.9602173E2,3.660675E1,7.907738E1,3.041275E1,8.404714E0,5.3468895E1,1.8277496E1,1.982598E1,1.1925949E1,1.1417215E0,5.211213E0,3.1729511E1,2.593227E1,1.4787277E1,5.2950764E0,4.1332207E0,1.7445559E1,1.0064377E1,3.331823E0,8.292625E-1,1.0786674E0,3.4452095E0,1.2130516E0,2.5464401E1,2.7848358E0,2.1709148E1,2.3604622E0,1.589035E1,4.6659088E-1,4.1991253E0,2.848695E0,9.79779E-1,2.5916138E0,7.8577576E0,1.2555591E1,6.479126E0,6.599097E0,1.6987438E0,3.7115111E0,7.672405E-1,3.5521758E-1,8.246576E-1,0E0,1.7684412E0,4.5596743E0,9.261155E-1,0E0,2.6709976E0,2.2638708E1,2.1880786E0,1.2013531E0,2.9897366E0,1.8882195E1,1.0218546E0,1.7361679E0,1.0401637E1,6.8383484E0,6.072922E-1,4.5682526E-1,2.5604582E0,1.1262617E0,0E0,2.336297E0,0E0,0E0,0E0,0E0,0E0,0E0,0E0,0E0,0E0,0E0,0E0,0E0,0E0,0E0,0E0,0E0,0E0,0E0,0E0,0E0,0E0,0E0,0E0,0E0,0E0,0E0,0E0,0E0,0E0,0E0,0E0,0E0,0E0,0E0,0E0,0E0,0E0,0E0,0E0,0E0,0E0,0E0,0E0,0E0,0E0,0E0,0E0,0E0,0E0,0E0,0E0,0E0,0E0,0E0,0E0,0E0,0E0,0E0],"parents":[2147483647,0,0,1,1,2,2,3,3,4,4,5,5,6,6,7,7,8,8,9,9,10,10,11,11,12,12,13,13,14,14,15,15,16,16,17,17,18,18,19,19,20,20,21,21,22,22,23,23,24,24,25,25,26,26,27,27,28,28,29,29,30,30,31,31,32,32,33,33,34,34,35,35,36,36,37,37,38,38,39,39,40,40,41,41,43,43,44,44,45,45,47,47,48,48,49,49,50,50,51,51,52,52,53,53,54,54,55,55,56,56,57,57,58,58,59,59,60,60,62,62],"right_children":[2,4,6,8,10,12,14,16,18,20,22,24,26,28,30,32,34,36,38,40,42,44,46,48,50,52,54,56,58,60,62,64,66,68,70,72,74,76,78,80,82,84,-1,86,88,90,-1,92,94,96,98,100,102,104,106,108,110,112,114,116,118,-1,120,-1,-1,-1,-1,-1,-1,-1,-1,-1,-1,-1,-1,-1,-1,-1,-1,-1,-1,-1,-1,-1,-1,-1,-1,-1,-1,-1,-1,-1,-1,-1,-1,-1,-1,-1,-1,-1,-1,-1,-1,-1,-1,-1,-1,-1,-1,-1,-1,-1,-1,-1,-1,-1,-1,-1,-1,-1,-1],"split_conditions":[1.2705535E-2,1.4117E-1,3.0224001E-2,3.7168562E-3,-1.05E-1,-1.81E-3,1.2358E-1,-9.387E-2,1.5998E-1,1.1901347E-2,1.2358E-1,1.5731E-1,1.4117E-1,1.1859E-1,4.893E-2,-1.8804E-1,-2.764E-2,2.457358E-2,-3.3250593E-3,2.6765E-1,8.762E-2,-5.813E-2,1.1405E-1,-1.3809E-1,2.0783E-1,-1.2917E-1,-2.2252E-1,-4.81E-3,-2.402E-1,1.5477E-1,-1.5629E-1,-2.963402E-2,-1.4465E-1,-3.412E-2,6.301E-2,1.5477E-1,-5.712E-2,1.6349E-1,-1.3799E-1,-1.0179E-1,-1.2921053E-2,-1.0259E-1,-2.652371E-2,-1.3799E-1,2.1648E-1,1.3722E-1,3.5535198E-2,-2.3963E-1,-5.976E-2,-4.947E-2,-1.4379E-1,-1.2434E-1,-1.2094E-1,3.0902787E-3,-1.5091E-1,-4.884E-2,-1.2044E-1,-6.4841285E-3,3.388185E-2,1.2868E-1,4.8562564E-2,-3.8778093E-2,5.011946E-3,-2.293945E-2,4.41772E-2,-2.703259E-2,-1.5747905E-2,-2.2213025E-2,-7.370884E-3,-3.2501798E-3,1.362571E-2,-2.044239E-2,-3.6309771E-3,-2.1170167E-2,4.3680454E-3,-1.2646808E-2,3.2748885E-2,-2.7048338E-2,2.0702744E-2,2.0648468E-2,-2.5991494E-2,-1.5339534E-2,4.255825E-2,-2.2978922E-2,3.9852556E-2,-1.35782985E-2,3.652134E-2,7.217747E-3,3.269259E-2,-2.7084846E-2,3.2347035E-2,-3.3976756E-2,-2.0681461E-2,-1.9156093E-2,-1.0944458E-3,2.5118262E-2,5.492948E-3,-1.0887889E-2,2.7369482E-2,9.444723E-3,-2.1538308E-2,-1.580938E-2,9.059039E-3,-2.7141605E-2,3.1195283E-2,2.4309477E-3,2.5903916E-2,-9.86913E-3,9.116052E-3,2.4746347E-2,1.4749556E-2,2.8065363E-2,-2.4215614E-2,2.4851577E-2,9.393687E-3,-2.2795415E-2,1.4112641E-2,2.2126984E-2,-4.2616036E-2,1.7389635E-2,-5.1495596E-3],"split_indices":[9,5,9,1,3,5,6,5,4,7,6,3,5,5,4,6,2,0,0,5,6,6,2,5,3,4,2,3,4,2,3,0,5,4,3,2,3,3,2,6,0,4,0,2,5,3,0,5,2,6,2,6,2,7,3,4,6,8,1,5,1,0,1,0,0,0,0,0,0,0,0,0,0,0,0,0,0,0,0,0,0,0,0,0,0,0,0,0,0,0,0,0,0,0,0,0,0,0,0,0,0,0,0,0,0,0,0,0,0,0,0,0,0,0,0,0,0,0,0,0,0],"split_type":[0,0,0,0,0,0,0,0,0,0,0,0,0,0,0,0,0,0,0,0,0,0,0,0,0,0,0,0,0,0,0,0,0,0,0,0,0,0,0,0,0,0,0,0,0,0,0,0,0,0,0,0,0,0,0,0,0,0,0,0,0,0,0,0,0,0,0,0,0,0,0,0,0,0,0,0,0,0,0,0,0,0,0,0,0,0,0,0,0,0,0,0,0,0,0,0,0,0,0,0,0,0,0,0,0,0,0,0,0,0,0,0,0,0,0,0,0,0,0,0,0],"sum_hessian":[3.3094E4,1.2157E4,2.0937E4,1.1549E4,6.08E2,1.1622E4,9.315E3,4.705E3,6.844E3,9E1,5.18E2,5.649E3,5.973E3,8.84E3,4.75E2,8.54E2,3.851E3,6.598E3,2.46E2,7.5E1,1.5E1,4.78E2,4E1,5.132E3,5.17E2,5.108E3,8.65E2,7.433E3,1.407E3,2.62E2,2.13E2,1.3E1,8.41E2,1.584E3,2.267E3,6.148E3,4.5E2,1.11E2,1.35E2,7.2E1,3E0,1E1,5E0,1.24E2,3.54E2,3.7E1,3E0,7.73E2,4.359E3,2.73E2,2.44E2,3.48E2,4.76E3,1.5E1,8.5E2,2.192E3,5.241E3,7E0,1.4E3,2.27E2,3.5E1,1.2E1,2.01E2,2E0,1.1E1,4.74E2,3.67E2,5.43E2,1.041E3,1.669E3,5.98E2,5.909E3,2.39E2,1.52E2,2.98E2,1.03E2,8E0,1.8E1,1.17E2,3E0,6.9E1,1E0,2E0,2E0,8E0,7E0,1.17E2,2.58E2,9.6E1,3.5E1,2E0,2.12E2,5.61E2,8.65E2,3.494E3,8E1,1.93E2,8E0,2.36E2,3.4E1,3.14E2,3.27E2,4.433E3,1.2E1,3E0,3.3E1,8.17E2,3.41E2,1.851E3,8.12E2,4.429E3,3E0,4E0,1.379E3,2.1E1,2.07E2,2E1,3.3E1,2E0,1.31E2,7E1],"tree_param":{"num_deleted":"0","num_feature":"10","num_nodes":"121","size_leaf_vector":"1"}},{"base_weights":[-1.6541328E-5,-7.265061E-2,1.0104138E-1,-9.454061E-2,9.571593E-2,-1.2798423E-1,1.1264755E-1,-1.17171E-1,4.376413E-2,-1.09694645E-1,1.23433635E-1,-1.7140059E-1,1.1461451E-1,1.5982431E-1,6.588153E-2,-8.189811E-2,-1.8634494E-1,-1.332644E-1,8.06825E-2,3.1479445E-1,-1.3472521E-1,1.9945052E-2,1.6575548E-1,-2.0912495E-1,6.0860515E-2,-2.4719945E-1,1.6560303E-1,-8.674325E-2,1.6671816E-1,3.6399495E-2,1.7794248E-1,-1.06757894E-1,5.8157716E-2,-2.2094965E-1,-1.4054547E-1,-1.6562068E-1,2.0089625E-1,1.0491256E-1,-2.0590906E-1,-1.2229013E-2,3.547498E-2,-2.3308465E-1,-3.91554E-2,-1.36073E-2,2.5127247E-1,2.0973438E-1,7.959716E-2,-2.5670278E-1,-5.606453E-2,-3.3624384E-1,1.2239319E-1,-3.7917297E-2,3.1910326E-2,2.0968907E-1,-1.7007746E-1,-1.9170982E-1,8.7418504E-2,-1.0176782E-1,1.7118418E-1,-2.2205552E-2,1.0391874E-1,1.5854742E-1,2.492227E-1,-1.9775074E-2,-7.851274E-3,-2.0300701E-2,8.356496E-3,-3.5145865E-3,-2.2532862E-2,-1.0238404E-2,-2.3212787E-2,-2.2541342E-2,-4.1324175E-3,-2.8491154E-2,2.857072E-2,-2.2496246E-3,1.4795742E-2,-2.4817834E-2,3.699958E-2,-6.1573624E-4,-2.621748E-2,-2.013408E-2,6.3989223E-3,-4.805534E-3,2.2885969E-2,2.9715717E-2,-1.0293802E-2,9.868796E-3,2.3709733E-2,-1.342893E-4,1.8698962E-2,-2.879314E-2,-2.3376402E-3,-2.8045619E-2,3.1711806E-3,-4.0569287E-2,1.7912323E-2,-2.4195168E-2,1.6671646E-2,-2.044695E-2,2.3417726E-2,-3.6396764E-2,2.6022226E-2,-2.2250986E-2,3.0207762E-2,-5.0955196E-3,2.9942876E-2,-2.5777075E-2,1.9530548E-3,1.9517511E-2,1.2681307E-2,-6.2857703E-3,1.0748976E-2,-5.728278E-3,1.2379793E-2,1.1119822E-2,2.0657003E-2,2.8265893E-2,2.1590741E-2],"categories":[],"categories_nodes":[],"categories_segments":[],"categories_sizes":[],"default_left":[0,0,0,0,0,0,0,0,0,0,0,0,0,0,0,0,0,0,0,0,0,0,0,0,0,0,0,0,0,0,0,0,0,0,0,0,0,0,0,0,0,0,0,0,0,0,0,0,0,0,0,0,0,0,0,0,0,0,0,0,0,0,0,0,0,0,0,0,0,0,0,0,0,0,0,0,0,0,0,0,0,0,0,0,0,0,0,0,0,0,0,0,0,0,0,0,0,0,0,0,0,0,0,0,0,0,0,0,0,0,0,0,0,0,0,0,0,0,0],"id":9,"left_children":[1,3,5,7,9,11,13,15,17,19,21,23,25,27,29,31,33,35,37,39,41,43,45,47,49,51,53,55,57,59,61,63,65,67,69,71,73,75,77,-1,-1,79,81,83,85,87,89,91,93,95,97,-1,-1,99,101,103,105,107,109,111,113,115,117,-1,-1,-1,-1,-1,-1,-1,-1,-1,-1,-1,-1,-1,-1,-1,-1,-1,-1,-1,-1,-1,-1,-1,-1,-1,-1,-1,-1,-1,-1,-1,-1,-1,-1,-1,-1,-1,-1,-1,-1,-1,-1,-1,-1,-1,-1,-1,-1,-1,-1,-1,-1,-1,-1,-1,-1],"loss_changes":[2.4293283E2,7.097789E1,3.6802658E1,5.3341583E1,1.2630356E1,7.0555277E0,2.9052643E1,3.5718018E1,1.5676597E1,2.847464E0,8.550495E0,4.9807262E0,1.9226695E0,1.1160019E1,2.1854671E1,3.3782738E1,7.8061676E0,4.509523E0,1.37987585E1,3.053403E-1,2.3409214E0,4.411996E0,5.2350693E0,3.53936E0,1.9959452E0,1.0925758E0,1.3675573E0,3.2890868E0,7.66626E0,2.0736822E1,1.8655472E0,2.1159576E1,9.724665E0,2.282425E0,7.4239006E0,2.7999916E0,1.6058687E0,1.0039585E1,3.8650012E0,0E0,0E0,8.103514E-1,2.1541383E0,4.162196E0,1.2007933E0,2.7629585E0,4.085656E0,2.7038326E0,2.3133583E0,4.663782E-1,1.1707642E0,0E0,0E0,8.592422E-1,1.0124521E0,1.770586E0,2.0101492E0,1.9919388E0,6.655014E0,1.4801091E1,7.8101845E0,2.4464111E0,2.6535606E-1,0E0,0E0,0E0,0E0,0E0,0E0,0E0,0E0,0E0,0E0,0E0,0E0,0E0,0E0,0E0,0E0,0E0,0E0,0E0,0E0,0E0,0E0,0E0,0E0,0E0,0E0,0E0,0E0,0E0,0E0,0E0,0E0,0E0,0E0,0E0,0E0,0E0,0E0,0E0,0E0,0E0,0E0,0E0,0E0,0E0,0E0,0E0,0E0,0E0,0E0,0E0,0E0,0E0,0E0,0E0,0E0],"parents":[2147483647,0,0,1,1,2,2,3,3,4,4,5,5,6,6,7,7,8,8,9,9,10,10,11,11,12,12,13,13,14,14,15,15,16,16,17,17,18,18,19,19,20,20,21,21,22,22,23,23,24,24,25,25,26,26,27,27,28,28,29,29,30,30,31,31,32,32,33,33,34,34,35,35,36,36,37,37,38,38,41,41,42,42,43,43,44,44,45,45,46,46,47,47,48,48,49,49,50,50,53,53,54,54,55,55,56,56,57,57,58,58,59,59,60,60,61,61,62,62],"right_children":[2,4,6,8,10,12,14,16,18,20,22,24,26,28,30,32,34,36,38,40,42,44,46,48,50,52,54,56,58,60,62,64,66,68,70,72,74,76,78,-1,-1,80,82,84,86,88,90,92,94,96,98,-1,-1,100,102,104,106,108,110,112,114,116,118,-1,-1,-1,-1,-1,-1,-1,-1,-1,-1,-1,-1,-1,-1,-1,-1,-1,-1,-1,-1,-1,-1,-1,-1,-1,-1,-1,-1,-1,-1,-1,-1,-1,-1,-1,-1,-1,-1,-1,-1,-1,-1,-1,-1,-1,-1,-1,-1,-1,-1,-1,-1,-1,-1,-1,-1],"split_conditions":[2.3033723E-2,1.1665E-1,-1.2094E-1,9.61E-2,-3.3538174E-3,7.615E-2,-6.104163E-3,3.819E-2,-7.952E-2,-1.4996E-1,-7.632166E-3,1.1636E-1,-8.542E-2,-1.5629E-1,1.219E-1,9.436E-2,-1.81E-3,2.2222E-1,1.3632E-1,-1.847719E-2,-1.965E-2,1.3041E-1,4.3572774E-3,7.918E-2,-2.2252E-1,1.6923E-1,1.1208E-1,7.083E-2,-1.6558E-1,3.973E-2,2.3259E-1,-1.5868207E-2,-1.4666E-1,-2.753981E-2,1.3632E-1,4.948442E-3,-1.299E-1,-1.098582E-2,1.283E-1,-1.2229013E-2,3.547498E-2,-9.076528E-3,-1.1202173E-2,2.2906E-1,1.5618893E-2,-9.658684E-3,5.054E-2,2.0231295E-2,-1.5564864E-2,4.4678215E-2,-2.6502823E-2,-3.7917297E-2,3.1910326E-2,-2.3243E-1,2.2879314E-2,2.7157191E-2,9.766133E-3,-7.0252093E-3,3.6844618E-3,1.5861664E-2,-9.188E-2,1.577E-2,3.435455E-2,-1.9775074E-2,-7.851274E-3,-2.0300701E-2,8.356496E-3,-3.5145865E-3,-2.2532862E-2,-1.0238404E-2,-2.3212787E-2,-2.2541342E-2,-4.1324175E-3,-2.8491154E-2,2.857072E-2,-2.2496246E-3,1.4795742E-2,-2.4817834E-2,3.699958E-2,-6.1573624E-4,-2.621748E-2,-2.013408E-2,6.3989223E-3,-4.805534E-3,2.2885969E-2,2.9715717E-2,-1.0293802E-2,9.868796E-3,2.3709733E-2,-1.342893E-4,1.8698962E-2,-2.879314E-2,-2.3376402E-3,-2.8045619E-2,3.1711806E-3,-4.0569287E-2,1.7912323E-2,-2.4195168E-2,1.6671646E-2,-2.044695E-2,2.3417726E-2,-3.6396764E-2,2.6022226E-2,-2.2250986E-2,3.0207762E-2,-5.0955196E-3,2.9942876E-2,-2.5777075E-2,1.9530548E-3,1.9517511E-2,1.2681307E-2,-6.2857703E-3,1.0748976E-2,-5.728278E-3,1.2379793E-2,1.1119822E-2,2.0657003E-2,2.8265893E-2,2.1590741E-2],"split_indices":[9,2,2,3,9,5,1,6,4,6,0,4,4,3,3,4,5,3,6,0,4,3,8,3,2,5,6,4,4,4,3,0,3,1,6,7,2,0,4,0,0,1,0,2,8,7,3,0,0,9,0,0,0,2,0,0,0,0,8,0,5,5,9,0,0,0,0,0,0,0,0,0,0,0,0,0,0,0,0,0,0,0,0,0,0,0,0,0,0,0,0,0,0,0,0,0,0,0,0,0,0,0,0,0,0,0,0,0,0,0,0,0,0,0,0,0,0,0,0],"split_type":[0,0,0,0,0,0,0,0,0,0,0,0,0,0,0,0,0,0,0,0,0,0,0,0,0,0,0,0,0,0,0,0,0,0,0,0,0,0,0,0,0,0,0,0,0,0,0,0,0,0,0,0,0,0,0,0,0,0,0,0,0,0,0,0,0,0,0,0,0,0,0,0,0,0,0,0,0,0,0,0,0,0,0,0,0,0,0,0,0,0,0,0,0,0,0,0,0,0,0,0,0,0,0,0,0,0,0,0,0,0,0,0,0,0,0,0,0,0,0],"sum_hessian":[3.3094E4,1.9255E4,1.3839E4,1.704E4,2.215E3,6.67E2,1.3172E4,1.4644E4,2.396E3,2.63E2,1.952E3,5.66E2,1.01E2,6.556E3,6.616E3,9.7E3,4.944E3,4.13E2,1.983E3,1.4E1,2.49E2,5.67E2,1.385E3,4.87E2,7.9E1,1.2E1,8.9E1,1.78E2,6.378E3,5.239E3,1.377E3,8.238E3,1.462E3,2.814E3,2.13E3,3.77E2,3.6E1,1.829E3,1.54E2,1E0,1.3E1,1.22E2,1.27E2,4.96E2,7.1E1,9.16E2,4.69E2,3.71E2,1.16E2,1E1,6.9E1,1E1,2E0,7.9E1,1E1,1.11E2,6.7E1,1.04E2,6.274E3,2.805E3,2.434E3,1.085E3,2.92E2,1.95E3,6.288E3,1.29E2,1.333E3,6.5E1,2.749E3,1.505E3,6.25E2,2.54E2,1.23E2,5E0,3.1E1,4.62E2,1.367E3,1.44E2,1E1,1.4E1,1.08E2,4.9E1,7.8E1,4.35E2,6.1E1,6.3E1,8E0,1.82E2,7.34E2,2.68E2,2.01E2,3.27E2,4.4E1,3.2E1,8.4E1,9E0,1E0,7E0,6.2E1,4E0,7.5E1,7E0,3E0,1.05E2,6E0,4.1E1,2.6E1,4.5E1,5.9E1,4.07E3,2.204E3,2.136E3,6.69E2,2.67E2,2.167E3,5.48E2,5.37E2,1.42E2,1.5E2],"tree_param":{"num_deleted":"0","num_feature":"10","num_nodes":"119","size_leaf_vector":"1"}},{"base_weights":[-1.471119E-5,-1.04431644E-1,5.860774E-2,-1.6501947E-1,-6.557653E-2,2.7066221E-2,1.5291843E-1,-2.1635361E-1,-1.3798459E-1,-8.3054416E-2,1.3524619E-1,-1.5802355E-3,1.4549494E-1,-1.622144E-2,1.6351195E-1,-2.1989226E-1,4.7780484E-2,-1.7548697E-1,-7.696481E-2,-1.82502E-1,-5.4077696E-2,5.0101724E-2,2.0849541E-1,1.5391531E-2,-2.1412034E-1,-1.6867138E-1,1.5517913E-1,-8.290124E-2,2.0115766E-1,6.4971573E-3,1.7215998E-1,-2.208957E-1,2.3093343E-1,-5.7219524E-2,4.162244E-2,-1.8502547E-1,-3.955209E-2,1.0010892E-1,-1.084623E-1,-1.8862975E-1,9.654849E-2,1.1411077E-1,-7.631905E-2,1.5562013E-1,-7.53927E-2,2.2762139E-1,-1.8537362E-1,-6.358712E-2,5.7291795E-2,-2.3469542E-1,1.2346294E-1,-2.4888709E-1,2.045804E-1,-1.7267412E-1,1.6169685E-1,1.864883E-2,-2.2147094E-1,2.941488E-1,6.9914654E-2,-6.2229637E-2,2.1153778E-1,1.7492573E-1,-2.044758E-1,2.8975835E-2,-2.2172758E-2,-1.4179994E-2,4.0244453E-2,-1.8123379E-2,2.2101464E-2,-1.19685205E-2,-2.0188177E-2,4.897648E-4,-3.6584336E-2,3.2486856E-2,6.200588E-5,-1.7287446E-2,-3.0262212E-3,-1.951006E-2,-5.6692184E-5,-1.8682167E-2,2.6737055E-2,-2.312535E-2,1.4099476E-2,-9.015835E-3,1.4679508E-2,-3.2439616E-3,2.558648E-2,-1.5141564E-2,3.0469203E-2,-2.632383E-2,2.3519512E-2,-3.012693E-2,3.786322E-2,1.1134512E-2,-8.644129E-3,1.1323526E-2,1.1598234E-4,-2.1244198E-2,-3.6350057E-2,-4.9162027E-3,2.5869394E-2,-3.0035257E-2,2.758543E-3,-2.4298534E-2,3.609841E-2,-2.8810466E-2,2.052608E-3,1.9681651E-2,1.0939955E-2,-2.5236702E-2,1.1139095E-2,-2.7201502E-2,1.1566431E-2,3.5766676E-2,2.2896094E-2,-1.7899454E-2,2.496417E-2,-1.1210648E-2,2.7011832E-2,1.6489477E-4,2.7323747E-2,2.001716E-2,1.3523889E-2,-3.0226558E-2,1.1161304E-2],"categories":[],"categories_nodes":[],"categories_segments":[],"categories_sizes":[],"default_left":[0,0,0,0,0,0,0,0,0,0,0,0,0,0,0,0,0,0,0,0,0,0,0,0,0,0,0,0,0,0,0,0,0,0,0,0,0,0,0,0,0,0,0,0,0,0,0,0,0,0,0,0,0,0,0,0,0,0,0,0,0,0,0,0,0,0,0,0,0,0,0,0,0,0,0,0,0,0,0,0,0,0,0,0,0,0,0,0,0,0,0,0,0,0,0,0,0,0,0,0,0,0,0,0,0,0,0,0,0,0,0,0,0,0,0,0,0,0,0,0,0,0,0,0,0],"id":10,"left_children":[1,3,5,7,9,11,13,15,17,19,21,23,25,27,29,31,33,35,37,39,41,43,45,47,49,51,53,55,57,59,61,63,65,67,-1,69,71,73,75,77,79,81,83,85,87,89,91,93,95,97,99,101,103,105,107,109,111,113,115,117,119,121,123,-1,-1,-1,-1,-1,-1,-1,-1,-1,-1,-1,-1,-1,-1,-1,-1,-1,-1,-1,-1,-1,-1,-1,-1,-1,-1,-1,-1,-1,-1,-1,-1,-1,-1,-1,-1,-1,-1,-1,-1,-1,-1,-1,-1,-1,-1,-1,-1,-1,-1,-1,-1,-1,-1,-1,-1,-1,-1,-1,-1,-1,-1],"loss_changes":[2.0258647E2,2.800351E1,6.3047638E1,6.4220886E0,2.5465435E1,5.389109E1,9.520622E0,1.5078583E0,6.9614906E0,1.9216599E1,3.6131163E0,4.6146355E1,9.439514E0,4.568042E0,6.786865E0,7.6620483E-1,8.749217E-1,2.439396E0,6.4917693E0,2.5916862E0,1.9340843E1,3.5870652E0,2.3925295E0,3.9208046E1,6.5997047E0,2.8353982E0,6.4427643E0,3.3954244E0,8.8256264E-1,3.7052114E0,4.9712677E0,7.3459625E-1,3.1277823E-1,6.611454E-1,0E0,1.9175987E0,1.8147371E0,3.9353495E0,4.966321E0,1.7924194E0,1.6473446E0,5.6406054E0,1.4108788E1,2.7795415E0,3.6291354E0,1.1697693E0,1.0945576E0,1.6429134E1,2.4308285E1,2.4795685E0,1.2966516E0,1.1039019E0,1.2777297E0,1.3216847E0,5.385597E0,3.546953E0,1.7695618E0,9.615421E-2,1.4762273E0,3.295846E0,8.5425425E-1,4.6859894E0,1.1155958E0,0E0,0E0,0E0,0E0,0E0,0E0,0E0,0E0,0E0,0E0,0E0,0E0,0E0,0E0,0E0,0E0,0E0,0E0,0E0,0E0,0E0,0E0,0E0,0E0,0E0,0E0,0E0,0E0,0E0,0E0,0E0,0E0,0E0,0E0,0E0,0E0,0E0,0E0,0E0,0E0,0E0,0E0,0E0,0E0,0E0,0E0,0E0,0E0,0E0,0E0,0E0,0E0,0E0,0E0,0E0,0E0,0E0,0E0,0E0,0E0,0E0,0E0],"parents":[2147483647,0,0,1,1,2,2,3,3,4,4,5,5,6,6,7,7,8,8,9,9,10,10,11,11,12,12,13,13,14,14,15,15,16,16,17,17,18,18,19,19,20,20,21,21,22,22,23,23,24,24,25,25,26,26,27,27,28,28,29,29,30,30,31,31,32,32,33,33,35,35,36,36,37,37,38,38,39,39,40,40,41,41,42,42,43,43,44,44,45,45,46,46,47,47,48,48,49,49,50,50,51,51,52,52,53,53,54,54,55,55,56,56,57,57,58,58,59,59,60,60,61,61,62,62],"right_children":[2,4,6,8,10,12,14,16,18,20,22,24,26,28,30,32,34,36,38,40,42,44,46,48,50,52,54,56,58,60,62,64,66,68,-1,70,72,74,76,78,80,82,84,86,88,90,92,94,96,98,100,102,104,106,108,110,112,114,116,118,120,122,124,-1,-1,-1,-1,-1,-1,-1,-1,-1,-1,-1,-1,-1,-1,-1,-1,-1,-1,-1,-1,-1,-1,-1,-1,-1,-1,-1,-1,-1,-1,-1,-1,-1,-1,-1,-1,-1,-1,-1,-1,-1,-1,-1,-1,-1,-1,-1,-1,-1,-1,-1,-1,-1,-1,-1,-1,-1,-1,-1,-1,-1,-1],"split_conditions":[1.2303889E-2,-3.468E-2,1.0311E-1,-1.4666E-1,1.1142E-1,1.1466E-1,-1.1671E-1,2.0235E-1,1.785E-2,-7.4606175E-3,5.4757097E-3,1.2677E-1,-1.6792E-1,7.184E-2,-1.2451E-1,2.6765E-1,1.3203943E-2,1.2858E-1,-6.959E-2,4.0128198E-2,-8.84E-2,1.37E-3,1.4994E-1,-5.4194834E-3,3.1566884E-2,1.28939655E-2,-1.7764E-1,6.61E-3,2.5084899E-3,2.0235E-1,2.3358E-1,-3.1817E-1,-1.2921053E-2,4.338E-2,4.162244E-2,-9.636765E-3,9.435E-2,-6.628818E-3,-2.52E-3,1.4084E-1,-1.8350847E-2,-1.4239E-1,2.7829912E-2,1.5105E-1,9.906E-2,-2.6097E-1,3.219521E-2,-2.336726E-2,-3.7766981E-3,2.5567E-1,1.52E-2,4.4678215E-2,1.3452E-1,6.8339137E-3,4.64E-3,1.3456E-1,4.5674514E-2,2.973453E-2,4.2382283E-3,1.7397616E-2,-1.3171332E-2,2.2468052E-3,3.8649634E-2,2.8975835E-2,-2.2172758E-2,-1.4179994E-2,4.0244453E-2,-1.8123379E-2,2.2101464E-2,-1.19685205E-2,-2.0188177E-2,4.897648E-4,-3.6584336E-2,3.2486856E-2,6.200588E-5,-1.7287446E-2,-3.0262212E-3,-1.951006E-2,-5.6692184E-5,-1.8682167E-2,2.6737055E-2,-2.312535E-2,1.4099476E-2,-9.015835E-3,1.4679508E-2,-3.2439616E-3,2.558648E-2,-1.5141564E-2,3.0469203E-2,-2.632383E-2,2.3519512E-2,-3.012693E-2,3.786322E-2,1.1134512E-2,-8.644129E-3,1.1323526E-2,1.1598234E-4,-2.1244198E-2,-3.6350057E-2,-4.9162027E-3,2.5869394E-2,-3.0035257E-2,2.758543E-3,-2.4298534E-2,3.609841E-2,-2.8810466E-2,2.052608E-3,1.9681651E-2,1.0939955E-2,-2.5236702E-2,1.1139095E-2,-2.7201502E-2,1.1566431E-2,3.5766676E-2,2.2896094E-2,-1.7899454E-2,2.496417E-2,-1.1210648E-2,2.7011832E-2,1.6489477E-4,2.7323747E-2,2.001716E-2,1.3523889E-2,-3.0226558E-2,1.1161304E-2],"split_indices":[9,3,2,3,5,4,4,2,4,9,0,6,5,5,3,5,7,2,6,0,6,6,6,0,0,0,2,6,1,2,6,6,0,4,0,8,6,1,2,4,9,4,0,5,2,2,1,1,1,6,5,9,4,0,6,2,9,9,0,7,0,8,9,0,0,0,0,0,0,0,0,0,0,0,0,0,0,0,0,0,0,0,0,0,0,0,0,0,0,0,0,0,0,0,0,0,0,0,0,0,0,0,0,0,0,0,0,0,0,0,0,0,0,0,0,0,0,0,0,0,0,0,0,0,0],"split_type":[0,0,0,0,0,0,0,0,0,0,0,0,0,0,0,0,0,0,0,0,0,0,0,0,0,0,0,0,0,0,0,0,0,0,0,0,0,0,0,0,0,0,0,0,0,0,0,0,0,0,0,0,0,0,0,0,0,0,0,0,0,0,0,0,0,0,0,0,0,0,0,0,0,0,0,0,0,0,0,0,0,0,0,0,0,0,0,0,0,0,0,0,0,0,0,0,0,0,0,0,0,0,0,0,0,0,0,0,0,0,0,0,0,0,0,0,0,0,0,0,0,0,0,0,0],"sum_hessian":[3.3094E4,1.1899E4,2.1195E4,4.648E3,7.251E3,1.5884E4,5.311E3,1.601E3,3.047E3,6.671E3,5.8E2,1.2791E4,3.093E3,3.13E2,4.998E3,1.58E3,2.1E1,1.886E3,1.161E3,1.504E3,5.167E3,2.69E2,3.11E2,1.1846E4,9.45E2,9.2E1,3.001E3,2.4E2,7.3E1,2.61E2,4.737E3,1.577E3,3E0,1.7E1,4E0,1.762E3,1.24E2,1.75E2,9.86E2,1.472E3,3.2E1,6.03E2,4.564E3,1.46E2,1.23E2,2.97E2,1.4E1,4.106E3,7.74E3,8.91E2,5.4E1,7.6E1,1.6E1,5.8E1,2.943E3,1.39E2,1.01E2,4.2E1,3.1E1,1.96E2,6.5E1,4.703E3,3.4E1,2E0,1.575E3,1E0,2E0,1.2E1,5E0,3.63E2,1.399E3,1.1E2,1.4E1,5.3E1,1.22E2,5.4E2,4.46E2,1.423E3,4.9E1,1.2E1,2E1,4.3E1,5.6E2,4.298E3,2.66E2,5.1E1,9.5E1,1.03E2,2E1,4E0,2.93E2,1.2E1,2E0,4.74E2,3.632E3,3.876E3,3.864E3,7.62E2,1.29E2,2.4E1,3E1,6.4E1,1.2E1,4E0,1.2E1,3.6E1,2.2E1,1.759E3,1.184E3,3.5E1,1.04E2,8.8E1,1.3E1,1.9E1,2.3E1,1.3E1,1.8E1,1.71E2,2.5E1,1.5E1,5E1,2.872E3,1.831E3,2.6E1,8E0],"tree_param":{"num_deleted":"0","num_feature":"10","num_nodes":"125","size_leaf_vector":"1"}},{"base_weights":[-9.926063E-6,-5.5840798E-2,8.992905E-2,-8.520403E-2,4.252383E-2,-1.1143762E-1,9.9820785E-2,-9.75336E-2,1.2417197E-1,-1.2648928E-1,6.884497E-2,-1.4944275E-1,1.2434631E-1,-1.654402E-2,1.1391177E-1,-1.12337045E-1,5.343023E-2,7.494166E-2,2.5715175E-1,1.826805E-2,-1.7427325E-1,-4.1234177E-3,1.2416506E-1,-1.8631287E-1,8.2191534E-2,-7.234144E-2,2.3704393E-1,-4.659717E-2,1.9597083E-1,1.2887342E-1,2.548737E-2,-1.2087057E-1,1.2136273E-1,-1.9584411E-1,8.441236E-2,2.0807675E-1,1.5701668E-2,-6.633855E-2,2.763074E-1,-7.354502E-2,2.434117E-1,4.604149E-3,-2.093412E-1,1.4446464E-1,-3.8554553E-2,6.609756E-2,1.8152604E-1,-1.2646264E-1,-3.0929136E-1,-1.9385323E-1,1.7268439E-1,3.318974E-2,-2.2737657E-1,-2.4047457E-1,2.917953E-1,-7.272378E-2,1.7307697E-1,5.5844296E-2,2.3700152E-1,-1.8313216E-1,1.3269639E-1,-3.6190902E-3,1.9394094E-1,7.2047706E-3,-1.2939696E-2,-1.9801645E-2,1.51850255E-2,9.072892E-3,-2.1742411E-2,-1.5168784E-3,1.6718859E-2,-2.2961704E-2,2.230285E-2,-2.9537843E-3,2.2835806E-2,-3.901441E-2,2.2528362E-2,2.8926129E-2,4.4801943E-3,4.6931228E-4,-2.4101807E-2,2.6721064E-2,-1.8677628E-2,-1.0290592E-2,1.7439088E-2,-2.417545E-2,-2.2716986E-3,-3.5116808E-3,1.8949302E-2,3.067768E-3,-1.0610092E-2,1.6966108E-2,9.998811E-4,1.880405E-2,-1.4925591E-2,-2.1126522E-2,7.258141E-4,-3.376854E-2,-4.2590555E-3,-3.5820454E-2,1.9455016E-2,-1.6905507E-2,2.1892382E-2,-3.5684984E-2,1.9893942E-2,-3.5902098E-2,1.7612873E-2,3.211548E-2,2.300806E-2,3.8785655E-3,-1.1725868E-2,-3.0048823E-2,1.875407E-2,-8.5806465E-3,2.1800105E-2,2.4951706E-2,2.2772276E-3,2.0527177E-2,-2.4531081E-2,1.9867333E-2,1.1893725E-2,-3.8408344E-3,1.6411433E-2,2.0195616E-2,-3.09409E-2],"categories":[],"categories_nodes":[],"categories_segments":[],"categories_sizes":[],"default_left":[0,0,0,0,0,0,0,0,0,0,0,0,0,0,0,0,0,0,0,0,0,0,0,0,0,0,0,0,0,0,0,0,0,0,0,0,0,0,0,0,0,0,0,0,0,0,0,0,0,0,0,0,0,0,0,0,0,0,0,0,0,0,0,0,0,0,0,0,0,0,0,0,0,0,0,0,0,0,0,0,0,0,0,0,0,0,0,0,0,0,0,0,0,0,0,0,0,0,0,0,0,0,0,0,0,0,0,0,0,0,0,0,0,0,0,0,0,0,0,0,0,0,0,0,0],"id":11,"left_children":[1,3,5,7,9,11,13,15,17,19,21,23,25,27,29,31,33,35,37,39,41,43,45,47,49,51,53,55,57,59,61,63,65,67,69,71,73,75,77,79,81,83,85,87,89,91,93,95,97,99,101,-1,103,105,107,109,111,113,115,117,119,121,123,-1,-1,-1,-1,-1,-1,-1,-1,-1,-1,-1,-1,-1,-1,-1,-1,-1,-1,-1,-1,-1,-1,-1,-1,-1,-1,-1,-1,-1,-1,-1,-1,-1,-1,-1,-1,-1,-1,-1,-1,-1,-1,-1,-1,-1,-1,-1,-1,-1,-1,-1,-1,-1,-1,-1,-1,-1,-1,-1,-1,-1,-1],"loss_changes":[1.6618732E2,5.8982765E1,2.5260017E1,4.060903E1,2.0894966E1,5.3414164E0,1.9814308E1,3.3197037E1,5.709035E0,4.3816957E0,1.6401287E1,4.38799E0,1.8569463E0,8.350216E0,1.4255753E1,2.6989334E1,1.026502E1,5.044363E0,1.4807434E0,3.2839403E0,2.986846E0,8.974015E0,7.685501E0,3.2141342E0,1.8070611E0,2.0182734E0,1.4558439E0,6.584132E0,9.181824E-1,1.1019394E1,7.654421E0,2.1475235E1,4.674657E0,9.288106E-1,9.737462E0,1.3404341E0,4.2782345E0,1.4098971E0,6.5579414E-1,1.4817452E0,5.2085686E-1,1.4599947E0,2.4020538E0,2.6751199E0,6.662429E0,6.679555E0,2.532013E0,3.3921533E0,1.076087E0,1.2187119E0,8.903091E-1,0E0,1.3405119E0,3.595548E-1,1.3080597E-2,5.0897937E0,8.919952E-1,8.915517E-1,3.2946682E-1,2.755204E0,8.243576E0,7.7789493E0,9.904146E-1,0E0,0E0,0E0,0E0,0E0,0E0,0E0,0E0,0E0,0E0,0E0,0E0,0E0,0E0,0E0,0E0,0E0,0E0,0E0,0E0,0E0,0E0,0E0,0E0,0E0,0E0,0E0,0E0,0E0,0E0,0E0,0E0,0E0,0E0,0E0,0E0,0E0,0E0,0E0,0E0,0E0,0E0,0E0,0E0,0E0,0E0,0E0,0E0,0E0,0E0,0E0,0E0,0E0,0E0,0E0,0E0,0E0,0E0,0E0,0E0,0E0,0E0],"parents":[2147483647,0,0,1,1,2,2,3,3,4,4,5,5,6,6,7,7,8,8,9,9,10,10,11,11,12,12,13,13,14,14,15,15,16,16,17,17,18,18,19,19,20,20,21,21,22,22,23,23,24,24,25,25,26,26,27,27,28,28,29,29,30,30,31,31,32,32,33,33,34,34,35,35,36,36,37,37,38,38,39,39,40,40,41,41,42,42,43,43,44,44,45,45,46,46,47,47,48,48,49,49,50,50,52,52,53,53,54,54,55,55,56,56,57,57,58,58,59,59,60,60,61,61,62,62],"right_children":[2,4,6,8,10,12,14,16,18,20,22,24,26,28,30,32,34,36,38,40,42,44,46,48,50,52,54,56,58,60,62,64,66,68,70,72,74,76,78,80,82,84,86,88,90,92,94,96,98,100,102,-1,104,106,108,110,112,114,116,118,120,122,124,-1,-1,-1,-1,-1,-1,-1,-1,-1,-1,-1,-1,-1,-1,-1,-1,-1,-1,-1,-1,-1,-1,-1,-1,-1,-1,-1,-1,-1,-1,-1,-1,-1,-1,-1,-1,-1,-1,-1,-1,-1,-1,-1,-1,-1,-1,-1,-1,-1,-1,-1,-1,-1,-1,-1,-1,-1,-1,-1,-1,-1,-1],"split_conditions":[2.4803057E-2,6.891E-2,-1.4465E-1,1.6166E-1,-1.0775E-1,1.4282E-1,-8.375E-2,1.2363E-1,2.3781E-1,-3.731E-2,-1.05E-3,4.7259532E-2,-1.891E-2,1.5218E-1,5.907E-2,1.5834E-1,-1.3799E-1,-3.387E-2,-2.8189212E-2,1.5477E-1,-8.445269E-3,-1.2071172E-2,2.133349E-3,7.182905E-3,-4.001E-2,-6.856E-2,-2.4951542E-2,2.7157191E-2,-1.6524E-1,-1.7751E-1,1.5477E-1,-1.5355E-1,-1.1854359E-2,-1.2859E-1,-1.868166E-3,-1.6202E-1,1.0242E-1,-1.404E-2,2.259354E-2,1.0799725E-2,2.4705723E-2,1.2858E-1,1.797599E-2,-5.528E-2,8.3197874E-4,-4.9366234E-3,2.0901E-1,2.3329735E-3,1.0413E-1,1.0888919E-2,-2.6262E-1,3.318974E-2,5.825347E-3,3.654E-2,1.509E-1,-6.4841285E-3,-1.4706E-1,6.593E-2,-8.585E-2,-1.0743E-1,-1.1767E-1,2.2394422E-2,2.5567E-1,7.2047706E-3,-1.2939696E-2,-1.9801645E-2,1.51850255E-2,9.072892E-3,-2.1742411E-2,-1.5168784E-3,1.6718859E-2,-2.2961704E-2,2.230285E-2,-2.9537843E-3,2.2835806E-2,-3.901441E-2,2.2528362E-2,2.8926129E-2,4.4801943E-3,4.6931228E-4,-2.4101807E-2,2.6721064E-2,-1.8677628E-2,-1.0290592E-2,1.7439088E-2,-2.417545E-2,-2.2716986E-3,-3.5116808E-3,1.8949302E-2,3.067768E-3,-1.0610092E-2,1.6966108E-2,9.998811E-4,1.880405E-2,-1.4925591E-2,-2.1126522E-2,7.258141E-4,-3.376854E-2,-4.2590555E-3,-3.5820454E-2,1.9455016E-2,-1.6905507E-2,2.1892382E-2,-3.5684984E-2,1.9893942E-2,-3.5902098E-2,1.7612873E-2,3.211548E-2,2.300806E-2,3.8785655E-3,-1.1725868E-2,-3.0048823E-2,1.875407E-2,-8.5806465E-3,2.1800105E-2,2.4951706E-2,2.2772276E-3,2.0527177E-2,-2.4531081E-2,1.9867333E-2,1.1893725E-2,-3.8408344E-3,1.6411433E-2,2.0195616E-2,-3.09409E-2],"split_indices":[9,2,5,3,4,4,3,4,3,6,3,9,3,4,6,5,2,6,0,2,1,1,0,1,4,6,0,0,3,4,2,6,9,6,0,5,4,2,8,1,1,2,0,5,8,1,6,7,3,7,5,0,7,2,3,8,2,2,3,6,6,0,6,0,0,0,0,0,0,0,0,0,0,0,0,0,0,0,0,0,0,0,0,0,0,0,0,0,0,0,0,0,0,0,0,0,0,0,0,0,0,0,0,0,0,0,0,0,0,0,0,0,0,0,0,0,0,0,0,0,0,0,0,0,0],"split_type":[0,0,0,0,0,0,0,0,0,0,0,0,0,0,0,0,0,0,0,0,0,0,0,0,0,0,0,0,0,0,0,0,0,0,0,0,0,0,0,0,0,0,0,0,0,0,0,0,0,0,0,0,0,0,0,0,0,0,0,0,0,0,0,0,0,0,0,0,0,0,0,0,0,0,0,0,0,0,0,0,0,0,0,0,0,0,0,0,0,0,0,0,0,0,0,0,0,0,0,0,0,0,0,0,0,0,0,0,0,0,0,0,0,0,0,0,0,0,0,0,0,0,0,0,0],"sum_hessian":[3.3094E4,2.0419E4,1.2675E4,1.5725E4,4.694E3,5.93E2,1.2082E4,1.4851E4,8.74E2,6.32E2,4.062E3,5.11E2,8.2E1,1.305E3,1.0777E4,1.3525E4,1.326E3,6.39E2,2.35E2,1.57E2,4.75E2,1.752E3,2.31E3,4.41E2,7E1,3E1,5.2E1,1.144E3,1.61E2,9.217E3,1.56E3,1.3049E4,4.76E2,1.46E2,1.18E3,1.96E2,4.43E2,1.3E1,2.22E2,1.12E2,4.5E1,7.8E1,3.97E2,3.29E2,1.423E3,1.149E3,1.161E3,2.98E2,1.43E2,1.7E1,5.3E1,8E0,2.2E1,5E0,4.7E1,1.023E3,1.21E2,3.7E1,1.24E2,1.11E2,9.106E3,1.331E3,2.29E2,5.52E2,1.2497E4,4.1E1,4.35E2,1E1,1.36E2,5.36E2,6.44E2,6E0,1.9E2,3.66E2,7.7E1,6E0,7E0,2.1E2,1.2E1,7.7E1,3.5E1,4.3E1,2E0,4.8E1,3E1,3.38E2,5.9E1,6.6E1,2.63E2,7.03E2,7.2E2,4.03E2,7.46E2,1.139E3,2.2E1,1.82E2,1.16E2,1.29E2,1.4E1,1.2E1,5E0,6E0,4.7E1,1.7E1,5E0,4E0,1E0,2.9E1,1.8E1,2.92E2,7.31E2,3E0,1.18E2,2E1,1.7E1,1.17E2,7E0,1.5E1,9.6E1,1.569E3,7.537E3,1.103E3,2.28E2,2.26E2,3E0],"tree_param":{"num_deleted":"0","num_feature":"10","num_nodes":"125","size_leaf_vector":"1"}},{"base_weights":[-7.174725E-6,-8.657424E-2,4.859389E-2,-1.901484E-1,-6.720808E-2,1.1473635E-2,1.1334977E-1,-1.9193743E-1,8.072325E-2,-1.59524E-1,-4.292309E-2,-1.6380649E-2,1.2000199E-1,8.458574E-2,1.8151288E-1,-2.874562E-3,-1.944046E-1,-1.02256134E-1,3.112419E-2,-4.90453E-5,-1.722226E-1,2.4685392E-2,-8.163983E-2,5.3520814E-2,-6.130868E-2,-9.700789E-2,1.2873216E-1,-8.5155725E-2,9.798378E-2,-2.1255116E-1,1.8368107E-1,3.067736E-1,-1.1680417E-1,-1.9530419E-1,2.6688278E-2,-2.653507E-2,1.2717612E-1,-1.9089827E-1,1.03879236E-1,-1.7587724E-1,2.7687082E-1,-6.435585E-2,6.507713E-2,-9.7038254E-2,8.232511E-2,-1.439651E-1,7.024913E-2,-2.0875782E-1,-3.841869E-2,-2.3299405E-1,5.6878757E-2,1.11686684E-1,2.1256259E-1,-1.470914E-1,4.9714066E-2,-8.633809E-2,1.084031E-1,-3.366993E-1,3.1350914E-2,-1.568632E-1,1.8615812E-1,-2.1713125E-2,4.3027963E-2,-2.1309568E-2,1.2734336E-2,-1.9831583E-2,-5.519898E-3,-1.2149612E-2,2.5056556E-2,2.0853596E-2,-2.3501242E-2,-3.149353E-2,1.5856696E-2,-2.1916296E-2,-1.5067245E-2,-2.2892227E-2,3.654786E-2,-1.2058286E-2,2.2376606E-3,-1.1465202E-2,8.71391E-3,-1.3580385E-2,-5.1053343E-3,1.0758205E-2,-3.023845E-2,-1.8129176E-2,8.305797E-3,-4.028186E-3,9.425249E-3,1.2318182E-2,-2.2270208E-2,-5.9735903E-4,-1.2805997E-2,-3.2137677E-2,3.5902702E-3,-3.1635173E-2,1.1367287E-2,1.4497961E-2,5.9901164E-3,2.2004936E-2,6.53039E-3,-2.0235866E-2,4.034487E-3,1.316193E-2,-1.2967266E-2,-1.7062146E-2,3.7807003E-3,1.1246061E-2,-2.9284308E-2,-4.08515E-2,1.907286E-2,-2.6931822E-2,2.759452E-2,1.7240686E-2,2.3124091E-2],"categories":[],"categories_nodes":[],"categories_segments":[],"categories_sizes":[],"default_left":[0,0,0,0,0,0,0,0,0,0,0,0,0,0,0,0,0,0,0,0,0,0,0,0,0,0,0,0,0,0,0,0,0,0,0,0,0,0,0,0,0,0,0,0,0,0,0,0,0,0,0,0,0,0,0,0,0,0,0,0,0,0,0,0,0,0,0,0,0,0,0,0,0,0,0,0,0,0,0,0,0,0,0,0,0,0,0,0,0,0,0,0,0,0,0,0,0,0,0,0,0,0,0,0,0,0,0,0,0,0,0,0,0,0,0],"id":12,"left_children":[1,3,5,7,9,11,13,15,17,19,21,23,25,27,29,31,33,35,-1,37,39,41,43,45,47,49,51,53,55,57,59,61,63,65,-1,-1,67,69,71,73,75,77,79,81,83,85,87,89,91,93,95,97,99,101,103,105,107,109,-1,111,113,-1,-1,-1,-1,-1,-1,-1,-1,-1,-1,-1,-1,-1,-1,-1,-1,-1,-1,-1,-1,-1,-1,-1,-1,-1,-1,-1,-1,-1,-1,-1,-1,-1,-1,-1,-1,-1,-1,-1,-1,-1,-1,-1,-1,-1,-1,-1,-1,-1,-1,-1,-1,-1,-1],"loss_changes":[1.392432E2,2.3856651E1,5.0948685E1,9.236374E-1,2.2472599E1,4.073359E1,1.5126717E1,8.679657E-1,5.801685E-1,4.2284126E0,2.07856E1,3.367924E1,5.2262497E0,1.2364086E1,1.9964905E0,9.1778475E-1,8.148346E-1,3.3309954E-1,0E0,3.0941982E0,3.222931E0,1.04053545E1,1.2755714E1,1.3872049E1,2.2024687E1,2.2523832E0,3.7572098E0,3.3319066E0,9.681049E0,9.545807E-1,1.9516449E0,5.4636496E-1,4.7381353E-1,7.6332855E-1,0E0,0E0,1.5317686E-1,1.018147E0,2.3632436E0,2.0606194E0,8.0074096E-1,4.4063635E0,7.9006977E0,8.221699E0,4.249531E0,2.7945342E0,1.0268696E1,4.0867615E0,1.6437626E1,1.3661909E0,1.1170224E0,3.7860394E0,4.773407E-1,2.836196E0,1.8683491E0,2.831559E0,7.7938843E0,4.9456882E-1,0E0,9.017321E-1,1.3630676E0,0E0,0E0,0E0,0E0,0E0,0E0,0E0,0E0,0E0,0E0,0E0,0E0,0E0,0E0,0E0,0E0,0E0,0E0,0E0,0E0,0E0,0E0,0E0,0E0,0E0,0E0,0E0,0E0,0E0,0E0,0E0,0E0,0E0,0E0,0E0,0E0,0E0,0E0,0E0,0E0,0E0,0E0,0E0,0E0,0E0,0E0,0E0,0E0,0E0,0E0,0E0,0E0,0E0,0E0],"parents":[2147483647,0,0,1,1,2,2,3,3,4,4,5,5,6,6,7,7,8,8,9,9,10,10,11,11,12,12,13,13,14,14,15,15,16,16,17,17,19,19,20,20,21,21,22,22,23,23,24,24,25,25,26,26,27,27,28,28,29,29,30,30,31,31,32,32,33,33,36,36,37,37,38,38,39,39,40,40,41,41,42,42,43,43,44,44,45,45,46,46,47,47,48,48,49,49,50,50,51,51,52,52,53,53,54,54,55,55,56,56,57,57,59,59,60,60],"right_children":[2,4,6,8,10,12,14,16,18,20,22,24,26,28,30,32,34,36,-1,38,40,42,44,46,48,50,52,54,56,58,60,62,64,66,-1,-1,68,70,72,74,76,78,80,82,84,86,88,90,92,94,96,98,100,102,104,106,108,110,-1,112,114,-1,-1,-1,-1,-1,-1,-1,-1,-1,-1,-1,-1,-1,-1,-1,-1,-1,-1,-1,-1,-1,-1,-1,-1,-1,-1,-1,-1,-1,-1,-1,-1,-1,-1,-1,-1,-1,-1,-1,-1,-1,-1,-1,-1,-1,-1,-1,-1,-1,-1,-1,-1,-1,-1],"split_conditions":[1.2303889E-2,-1.2821E-1,3.003E-2,2.3259E-1,-7.498E-2,1.1038E-1,1.3081E-1,-1.8804E-1,-1.0150708E-3,-1.0179E-1,8.7210984E-4,-7.0593497E-3,-1.6792E-1,-1.145E-1,-2.402E-1,-5.9273876E-3,2.5405E-1,-1.6667E-1,3.112419E-2,-1.4465E-1,2.2708E-1,-3.931E-2,2.457358E-2,-1.4465E-1,-8.761E-2,1.5731E-1,2.3781E-1,3.181746E-2,-1.2661E-1,9.133549E-3,-2.2252E-1,-2.4409842E-2,-1.468E-2,4.0128198E-2,2.6688278E-2,-2.653507E-2,-3.1190906E-2,-2.6469E-1,-2.6945606E-2,-1.6202E-1,-1.1718E-1,3.3062268E-3,-1.1751E-1,3.25E-3,1.5505E-1,1.4584E-1,-4.707E-2,-1.5355E-1,8.30009E-3,5.598E-2,-1.2094E-1,4.13E-3,2.3671621E-2,9.205E-2,7.513594E-3,6.4618713E-3,2.1761E-1,1.219E-1,3.1350914E-2,9.6E-2,2.308E-1,-2.1713125E-2,4.3027963E-2,-2.1309568E-2,1.2734336E-2,-1.9831583E-2,-5.519898E-3,-1.2149612E-2,2.5056556E-2,2.0853596E-2,-2.3501242E-2,-3.149353E-2,1.5856696E-2,-2.1916296E-2,-1.5067245E-2,-2.2892227E-2,3.654786E-2,-1.2058286E-2,2.2376606E-3,-1.1465202E-2,8.71391E-3,-1.3580385E-2,-5.1053343E-3,1.0758205E-2,-3.023845E-2,-1.8129176E-2,8.305797E-3,-4.028186E-3,9.425249E-3,1.2318182E-2,-2.2270208E-2,-5.9735903E-4,-1.2805997E-2,-3.2137677E-2,3.5902702E-3,-3.1635173E-2,1.1367287E-2,1.4497961E-2,5.9901164E-3,2.2004936E-2,6.53039E-3,-2.0235866E-2,4.034487E-3,1.316193E-2,-1.2967266E-2,-1.7062146E-2,3.7807003E-3,1.1246061E-2,-2.9284308E-2,-4.08515E-2,1.907286E-2,-2.6931822E-2,2.759452E-2,1.7240686E-2,2.3124091E-2],"split_indices":[9,2,5,3,5,3,5,6,1,6,1,1,5,3,4,1,4,2,0,5,4,3,0,5,4,3,3,9,4,0,2,0,3,0,0,0,0,6,0,5,3,0,4,4,6,2,2,6,8,2,2,6,8,2,8,0,6,3,0,3,5,0,0,0,0,0,0,0,0,0,0,0,0,0,0,0,0,0,0,0,0,0,0,0,0,0,0,0,0,0,0,0,0,0,0,0,0,0,0,0,0,0,0,0,0,0,0,0,0,0,0,0,0,0,0],"split_type":[0,0,0,0,0,0,0,0,0,0,0,0,0,0,0,0,0,0,0,0,0,0,0,0,0,0,0,0,0,0,0,0,0,0,0,0,0,0,0,0,0,0,0,0,0,0,0,0,0,0,0,0,0,0,0,0,0,0,0,0,0,0,0,0,0,0,0,0,0,0,0,0,0,0,0,0,0,0,0,0,0,0,0,0,0,0,0,0,0,0,0,0,0,0,0,0,0,0,0,0,0,0,0,0,0,0,0,0,0,0,0,0,0,0,0],"sum_hessian":[3.3094E4,1.1899E4,2.1195E4,1.873E3,1.0026E4,1.3473E4,7.722E3,1.861E3,1.2E1,2.087E3,7.939E3,1.0722E4,2.751E3,5.432E3,2.29E3,2.4E1,1.837E3,7E0,5E0,1.54E2,1.933E3,2.891E3,5.048E3,4.195E3,6.527E3,1.06E2,2.645E3,3.97E2,5.035E3,1.2E1,2.278E3,6E0,1.8E1,1.834E3,3E0,4E0,3E0,5.4E1,1E2,1.918E3,1.5E1,9.02E2,1.989E3,4.615E3,4.33E2,3.27E2,3.868E3,8.76E2,5.651E3,5.6E1,5E1,2.2E3,4.45E2,2.72E2,1.25E2,2.69E2,4.766E3,1E1,2E0,1.6E1,2.262E3,1E0,5E0,1.3E1,5E0,1.795E3,3.9E1,1E0,2E0,5E0,4.9E1,1.1E1,8.9E1,7.03E2,1.215E3,2E0,1.3E1,5.47E2,3.55E2,2.17E2,1.772E3,2.503E3,2.112E3,4.07E2,2.6E1,2.81E2,4.6E1,6.9E2,3.178E3,3.5E1,8.41E2,4.15E3,1.501E3,4.2E1,1.4E1,6E0,4.4E1,1.338E3,8.62E2,4.23E2,2.2E1,2.1E2,6.2E1,8.6E1,3.9E1,1.6E2,1.09E2,4.719E3,4.7E1,9E0,1E0,1.3E1,3E0,1.737E3,5.25E2],"tree_param":{"num_deleted":"0","num_feature":"10","num_nodes":"115","size_leaf_vector":"1"}},{"base_weights":[-9.028223E-6,-4.624843E-2,7.4478865E-2,1.359743E-1,-5.901229E-2,4.3087318E-3,9.701038E-2,-1.15730464E-1,1.568566E-1,-1.6094515E-1,-3.892761E-2,1.769994E-1,-1.888347E-2,4.4524793E-2,1.1969343E-1,-1.5983985E-1,3.1047082E-1,-7.0782885E-2,1.752412E-1,-2.1481146E-1,-1.4474988E-1,-6.061838E-2,6.9909245E-2,-2.45812E-1,1.8960202E-1,-3.6621977E-2,1.9313937E-1,1.481691E-2,1.3601257E-1,-1.2280002E-1,1.2364816E-1,-2.1591647E-1,4.5374878E-2,3.9381895E-2,-2.1983108E-2,-1.7314933E-1,9.610702E-2,-1.726551E-1,1.8445274E-1,-1.9398959E-1,-2.858479E-1,-1.22159906E-1,-1.9754083E-1,-1.0213749E-1,-6.4531323E-3,-1.5875964E-1,8.8944204E-2,-3.783095E-2,2.3361785E-2,-4.07229E-2,1.9413713E-1,-1.9036815E-1,-1.2843075E-2,-1.0138062E-1,2.0683122E-1,-1.2222015E-1,4.3962292E-2,1.4641452E-1,-1.3254093E-1,-2.1158278E-1,1.5138464E-1,1.3619336E-1,6.623205E-2,-2.365209E-2,3.5056185E-2,-1.0054124E-2,2.9505624E-2,3.639428E-2,-1.9883018E-2,2.1530008E-2,-2.3532493E-2,3.243346E-2,-2.3988858E-2,1.0025607E-2,2.135509E-2,-1.9548347E-2,3.227837E-2,-3.0609727E-2,2.9165242E-2,-1.3935894E-2,-1.0811065E-3,1.0080979E-2,-2.0186666E-2,-1.8631108E-2,-8.364148E-3,-1.0393946E-2,2.7447757E-3,-1.7059565E-2,1.9871032E-2,-1.1727969E-2,1.0725196E-2,1.9675696E-2,-3.6402404E-2,-1.5389927E-2,-3.3722717E-2,-4.024172E-3,1.1870469E-2,-4.3779634E-2,1.9586258E-2,2.115266E-2,-3.6612257E-2,-1.51740825E-2,2.9009283E-2,5.6253495E-3,-1.85506E-2,7.708491E-3,1.8642524E-2,2.9662845E-3,-4.1125365E-2,-2.8502285E-2,1.6548501E-2,3.1020999E-2,-1.4963946E-2,1.48742525E-2,9.716776E-3,-1.2478228E-2,8.130674E-3],"categories":[],"categories_nodes":[],"categories_segments":[],"categories_sizes":[],"default_left":[0,0,0,0,0,0,0,0,0,0,0,0,0,0,0,0,0,0,0,0,0,0,0,0,0,0,0,0,0,0,0,0,0,0,0,0,0,0,0,0,0,0,0,0,0,0,0,0,0,0,0,0,0,0,0,0,0,0,0,0,0,0,0,0,0,0,0,0,0,0,0,0,0,0,0,0,0,0,0,0,0,0,0,0,0,0,0,0,0,0,0,0,0,0,0,0,0,0,0,0,0,0,0,0,0,0,0,0,0,0,0,0,0,0,0,0,0],"id":13,"left_children":[1,3,5,7,9,11,13,15,17,19,21,23,25,27,29,31,33,35,37,39,41,43,45,47,49,51,53,55,57,59,61,63,65,-1,-1,67,69,71,73,75,77,79,81,83,85,87,89,-1,-1,-1,91,93,95,97,99,101,103,105,107,109,111,113,115,-1,-1,-1,-1,-1,-1,-1,-1,-1,-1,-1,-1,-1,-1,-1,-1,-1,-1,-1,-1,-1,-1,-1,-1,-1,-1,-1,-1,-1,-1,-1,-1,-1,-1,-1,-1,-1,-1,-1,-1,-1,-1,-1,-1,-1,-1,-1,-1,-1,-1,-1,-1,-1,-1],"loss_changes":[1.13991745E2,4.750221E1,2.004084E1,7.0456505E0,3.9064194E1,1.2346991E1,1.1417839E1,1.9859717E0,5.180956E0,2.7090454E0,3.764411E1,1.991518E0,1.0229385E1,7.8717647E0,6.4395065E0,1.0915256E0,5.2857023E-1,1.605446E0,3.6947746E0,1.0154266E0,2.8594475E0,2.989838E1,1.1548782E1,7.871356E-1,1.0399342E0,9.170246E0,8.6779785E-1,8.744239E0,2.0027761E0,2.6610599E0,4.7391815E0,9.4664025E-1,7.947484E-1,0E0,0E0,8.7235534E-1,1.4728234E0,1.0802348E0,2.7078552E0,4.9773026E-1,1.9837065E0,3.2464886E0,9.534626E-1,1.1701454E1,1.9071972E1,8.97027E-1,9.251219E0,0E0,0E0,0E0,5.8781433E-1,1.7476454E0,7.8403735E0,1.0857205E0,6.181822E-1,4.717973E0,5.1013317E0,1.8829956E0,1.2328217E0,2.3179018E0,1.3372966E0,2.6345444E0,3.4194531E0,0E0,0E0,0E0,0E0,0E0,0E0,0E0,0E0,0E0,0E0,0E0,0E0,0E0,0E0,0E0,0E0,0E0,0E0,0E0,0E0,0E0,0E0,0E0,0E0,0E0,0E0,0E0,0E0,0E0,0E0,0E0,0E0,0E0,0E0,0E0,0E0,0E0,0E0,0E0,0E0,0E0,0E0,0E0,0E0,0E0,0E0,0E0,0E0,0E0,0E0,0E0,0E0,0E0,0E0],"parents":[2147483647,0,0,1,1,2,2,3,3,4,4,5,5,6,6,7,7,8,8,9,9,10,10,11,11,12,12,13,13,14,14,15,15,16,16,17,17,18,18,19,19,20,20,21,21,22,22,23,23,24,24,25,25,26,26,27,27,28,28,29,29,30,30,31,31,32,32,35,35,36,36,37,37,38,38,39,39,40,40,41,41,42,42,43,43,44,44,45,45,46,46,50,50,51,51,52,52,53,53,54,54,55,55,56,56,57,57,58,58,59,59,60,60,61,61,62,62],"right_children":[2,4,6,8,10,12,14,16,18,20,22,24,26,28,30,32,34,36,38,40,42,44,46,48,50,52,54,56,58,60,62,64,66,-1,-1,68,70,72,74,76,78,80,82,84,86,88,90,-1,-1,-1,92,94,96,98,100,102,104,106,108,110,112,114,116,-1,-1,-1,-1,-1,-1,-1,-1,-1,-1,-1,-1,-1,-1,-1,-1,-1,-1,-1,-1,-1,-1,-1,-1,-1,-1,-1,-1,-1,-1,-1,-1,-1,-1,-1,-1,-1,-1,-1,-1,-1,-1,-1,-1,-1,-1,-1,-1,-1,-1,-1,-1,-1,-1],"split_conditions":[2.4803057E-2,-1.378E-1,-8.505684E-3,-1.4379E-1,-1.1007E-1,-1.2434E-1,-4.81E-3,2.3390476E-2,-6.8643177E-3,-2.2063E-1,1.6994461E-2,-1.4943E-1,1.2166E-1,1.1466E-1,-1.6558E-1,4.13E-2,-1.6507E-1,2.725E-2,-1.6493E-1,1.2705535E-2,6.288E-2,1.724E-2,-1.4379E-1,8.093E-2,-3.7896655E-2,-6.965E-2,-1.0259E-1,-5.932E-2,1.3632E-1,4.1092344E-2,4.706E-2,1.5105E-1,1.785E-2,3.9381895E-2,-2.1983108E-2,-3.0254055E-2,2.882586E-2,-2.5157E-1,-8.0592185E-3,2.5405E-1,1.4191E-1,9.355E-2,-3.3831887E-2,-1.4239E-1,-5.79E-2,6.2197857E-2,-1.3339E-1,-3.783095E-2,2.3361785E-2,-4.07229E-2,4.096064E-2,7.845E-2,4.7259532E-2,3.0439897E-2,3.7550755E-2,1.9302E-1,1.2677E-1,-3.0213192E-3,7.2227316E-3,1.9254558E-2,4.8181666E-3,7.663943E-3,-9.343E-2,-2.365209E-2,3.5056185E-2,-1.0054124E-2,2.9505624E-2,3.639428E-2,-1.9883018E-2,2.1530008E-2,-2.3532493E-2,3.243346E-2,-2.3988858E-2,1.0025607E-2,2.135509E-2,-1.9548347E-2,3.227837E-2,-3.0609727E-2,2.9165242E-2,-1.3935894E-2,-1.0811065E-3,1.0080979E-2,-2.0186666E-2,-1.8631108E-2,-8.364148E-3,-1.0393946E-2,2.7447757E-3,-1.7059565E-2,1.9871032E-2,-1.1727969E-2,1.0725196E-2,1.9675696E-2,-3.6402404E-2,-1.5389927E-2,-3.3722717E-2,-4.024172E-3,1.1870469E-2,-4.3779634E-2,1.9586258E-2,2.115266E-2,-3.6612257E-2,-1.51740825E-2,2.9009283E-2,5.6253495E-3,-1.85506E-2,7.708491E-3,1.8642524E-2,2.9662845E-3,-4.1125365E-2,-2.8502285E-2,1.6548501E-2,3.1020999E-2,-1.4963946E-2,1.48742525E-2,9.716776E-3,-1.2478228E-2,8.130674E-3],"split_indices":[9,6,0,2,3,6,3,7,9,3,0,4,5,4,4,3,6,4,5,9,6,4,2,3,7,2,4,5,6,9,6,5,4,0,0,1,1,6,0,4,2,2,1,4,2,0,4,0,0,0,8,6,9,9,8,2,6,7,8,0,7,8,2,0,0,0,0,0,0,0,0,0,0,0,0,0,0,0,0,0,0,0,0,0,0,0,0,0,0,0,0,0,0,0,0,0,0,0,0,0,0,0,0,0,0,0,0,0,0,0,0,0,0,0,0,0,0],"split_type":[0,0,0,0,0,0,0,0,0,0,0,0,0,0,0,0,0,0,0,0,0,0,0,0,0,0,0,0,0,0,0,0,0,0,0,0,0,0,0,0,0,0,0,0,0,0,0,0,0,0,0,0,0,0,0,0,0,0,0,0,0,0,0,0,0,0,0,0,0,0,0,0,0,0,0,0,0,0,0,0,0,0,0,0,0,0,0,0,0,0,0,0,0,0,0,0,0,0,0,0,0,0,0,0,0,0,0,0,0,0,0,0,0,0,0,0,0],"sum_hessian":[3.3094E4,2.0419E4,1.2675E4,1.336E3,1.9083E4,3.081E3,9.594E3,1.02E2,1.234E3,3.14E3,1.5943E4,3.64E2,2.717E3,2.896E3,6.698E3,9.3E1,9E0,9.2E1,1.142E3,7.23E2,2.417E3,1.3294E4,2.649E3,1E1,3.54E2,2.508E3,2.09E2,2.187E3,7.09E2,1.07E2,6.591E3,7.3E1,2E1,8E0,1E0,5.7E1,3.5E1,2.9E1,1.113E3,5.62E2,1.61E2,1.695E3,7.22E2,7.525E3,5.769E3,2.03E2,2.446E3,8E0,2E0,2E0,3.52E2,3.35E2,2.173E3,9E0,2E2,3.83E2,1.804E3,6.83E2,2.6E1,8.1E1,2.6E1,5.408E3,1.183E3,7.1E1,2E0,1.3E1,7E0,2E0,5.5E1,2.6E1,9E0,3E0,2.6E1,2.87E2,8.26E2,5.61E2,1E0,1.56E2,5E0,1.468E3,2.27E2,1E1,7.12E2,1.354E3,6.171E3,1.488E3,4.281E3,1.97E2,6E0,1.99E2,2.247E3,3.51E2,1E0,2.7E2,6.5E1,1.799E3,3.74E2,4E0,5E0,1.99E2,1E0,3.58E2,2.5E1,1.713E3,9.1E1,2.51E2,4.32E2,1.7E1,9E0,6.8E1,1.3E1,1.7E1,9E0,4.09E3,1.318E3,8.6E1,1.097E3],"tree_param":{"num_deleted":"0","num_feature":"10","num_nodes":"117","size_leaf_vector":"1"}},{"base_weights":[-1.0653703E-5,-7.166565E-2,4.0218372E-2,-1.2054874E-1,-4.0252116E-2,-1.5479599E-1,4.980108E-2,-1.6102266E-1,-9.761744E-2,-1.4045025E-1,-1.7223347E-2,-1.7752866E-1,1.5277057E-2,-5.3308588E-2,6.655109E-2,-1.6195044E-1,1.8254296E-1,1.5930268E-1,-1.04228266E-1,-1.9708475E-1,-1.04791604E-1,-6.8617E-2,3.25963E-2,-1.9251774E-1,