{"learner":{"attributes":{},"feature_names":[],"feature_types":[],"gradient_booster":{"model":{"cats":{"enc":[],"feature_segments":[],"sorted_idx":[]},"gbtree_model_param":{"num_parallel_tree":"1","num_trees":"100"},"iteration_indptr":[0,1,2,3,4,5,6,7,8,9,10,11,12,13,14,15,16,17,18,19,20,21,22,23,24,25,26,27,28,29,30,31,32,33,34,35,36,37,38,39,40,41,42,43,44,45,46,47,48,49,50,51,52,53,54,55,56,57,58,59,60,61,62,63,64,65,66,67,68,69,70,71,72,73,74,75,76,77,78,79,80,81,82,83,84,85,86,87,88,89,90,91,92,93,94,95,96,97,98,99,100],"tree_info":[0,0,0,0,0,0,0,0,0,0,0,0,0,0,0,0,0,0,0,0,0,0,0,0,0,0,0,0,0,0,0,0,0,0,0,0,0,0,0,0,0,0,0,0,0,0,0,0,0,0,0,0,0,0,0,0,0,0,0,0,0,0,0,0,0,0,0,0,0,0,0,0,0,0,0,0,0,0,0,0,0,0,0,0,0,0,0,0,0,0,0,0,0,0,0,0,0,0,0,0],"trees":[{"base_weights":[-2.2360554E-8,-1.994276E-1,2.3306936E-1,-3.5230723E-1,-8.8356964E-2,1.307401E-1,3.4626332E-1,-3.730885E-1,-4.099947E-2,-1.3345632E-1,1.8493555E-1,-1.15566306E-1,1.832912E-1,-1.9108548E-3,3.5968262E-1,-4.0795404E-1,-2.2876199E-1,-2.8077593E-1,7.475358E-2,-2.0530084E-1,1.5668716E-2,-2.4421217E-1,2.2112966E-1,-3.3789194E-1,-3.0732984E-2,4.7090076E-2,2.5793895E-1,-1.6903183E-1,2.1994805E-1,2.7596536E-1,4.042264E-1,-4.182705E-1,-1.2062226E-1,-3.3580068E-1,-9.043248E-2,-3.3900627E-1,2.1606827E-2,-1.9074403E-2,3.2224232E-1,2.1497789E-1,-2.2927068E-1,7.595427E-2,-1.814779E-1,-3.387042E-1,7.77312E-2,-2.560934E-1,2.511153E-1,-5.2733123E-2,-3.894122E-1,-1.5380892E-1,1.338267E-1,3.5892254E-1,1.5491201E-2,-3.5633232E-2,2.784952E-1,4.4077042E-2,-2.2046056E-1,1.1925044E-1,4.1555518E-1,-1.7591351E-1,2.9296342E-1,1.7552437E-2,4.0900707E-1,-4.889327E-2,-3.8931366E-2,2.0236274E-2,-2.3888184E-2,-4.4587683E-2,-2.6964966E-2,-1.6624024E-2,2.2223657E-2,-3.9398216E-2,9.6826424E-4,-3.5036407E-2,2.172616E-2,1.2329551E-2,-2.1166831E-2,3.425171E-2,-3.461064E-2,-3.3086125E-2,2.5925681E-2,-4.2133644E-2,-1.9341093E-2,-1.6094085E-3,1.8176144E-2,-4.4816654E-2,-1.2154474E-2,-4.085837E-2,-7.0782737E-3,-4.672436E-2,3.937322E-2,1.0679843E-2,-3.7476704E-2,1.5478681E-2,3.3465736E-2,-3.7097372E-2,7.4309274E-3,2.051915E-2,-4.053161E-2,8.693501E-3,-2.1645634E-2,-6.5451274E-3,2.3090744E-2,-3.0922959E-2,3.976039E-2,-3.4972604E-3,2.119285E-2,2.38051E-2,-1.334921E-2,1.9293187E-2,3.263357E-2,1.19432155E-2,-3.0727524E-2,3.729778E-2,8.973029E-4,4.6532948E-2,1.707354E-2,-3.7099686E-2,2.7797644E-3,1.3645409E-3,3.1300247E-2,3.937322E-2,-1.4687342E-2,3.479955E-2,4.357824E-2],"categories":[],"categories_nodes":[],"categories_segments":[],"categories_sizes":[],"default_left":[0,0,0,0,0,0,0,0,0,0,0,0,0,0,0,0,0,0,0,0,0,0,0,0,0,0,0,0,0,0,0,0,0,0,0,0,0,0,0,0,0,0,0,0,0,0,0,0,0,0,0,0,0,0,0,0,0,0,0,0,0,0,0,0,0,0,0,0,0,0,0,0,0,0,0,0,0,0,0,0,0,0,0,0,0,0,0,0,0,0,0,0,0,0,0,0,0,0,0,0,0,0,0,0,0,0,0,0,0,0,0,0,0,0,0,0,0,0,0,0,0,0,0,0,0],"id":0,"left_children":[1,3,5,7,9,11,13,15,17,19,21,23,25,27,29,31,33,35,37,39,41,43,45,47,49,51,53,55,57,59,61,63,65,67,69,71,73,75,77,79,81,83,85,87,89,91,93,95,97,99,101,103,105,107,109,-1,111,113,115,117,119,121,123,-1,-1,-1,-1,-1,-1,-1,-1,-1,-1,-1,-1,-1,-1,-1,-1,-1,-1,-1,-1,-1,-1,-1,-1,-1,-1,-1,-1,-1,-1,-1,-1,-1,-1,-1,-1,-1,-1,-1,-1,-1,-1,-1,-1,-1,-1,-1,-1,-1,-1,-1,-1,-1,-1,-1,-1,-1,-1,-1,-1,-1,-1],"loss_changes":[1.4932778E3,2.9395123E2,1.7154608E2,4.7114014E1,1.2363529E2,1.0074884E2,3.2860596E1,3.4270386E1,1.2704959E1,9.223845E1,2.2125847E1,2.5809805E1,6.519972E1,9.751425E0,2.5141846E1,1.6249817E1,1.967723E1,2.6308937E0,7.1815495E0,5.85793E1,3.3292046E1,3.4030685E0,1.8824509E1,5.532833E0,2.0111895E1,2.2381718E1,2.501184E1,4.8013773E0,2.1762247E0,1.8140457E1,8.15979E0,1.0670654E1,7.3819857E0,5.341011E0,1.383194E1,2.4000006E0,1.8955675E0,6.195503E0,1.2703495E0,7.6748934E0,3.7778717E1,2.089389E1,1.0430706E1,1.5811901E0,4.6614957E0,3.3991475E0,9.878784E0,2.4129395E0,3.1092567E0,8.585382E0,8.237186E0,5.524559E0,2.0467789E1,7.316598E0,1.5786621E1,0E0,4.138265E0,2.1231635E0,3.836093E-1,3.4280088E0,1.2701508E1,3.459781E0,6.977356E0,0E0,0E0,0E0,0E0,0E0,0E0,0E0,0E0,0E0,0E0,0E0,0E0,0E0,0E0,0E0,0E0,0E0,0E0,0E0,0E0,0E0,0E0,0E0,0E0,0E0,0E0,0E0,0E0,0E0,0E0,0E0,0E0,0E0,0E0,0E0,0E0,0E0,0E0,0E0,0E0,0E0,0E0,0E0,0E0,0E0,0E0,0E0,0E0,0E0,0E0,0E0,0E0,0E0,0E0,0E0,0E0,0E0,0E0,0E0,0E0,0E0,0E0],"parents":[2147483647,0,0,1,1,2,2,3,3,4,4,5,5,6,6,7,7,8,8,9,9,10,10,11,11,12,12,13,13,14,14,15,15,16,16,17,17,18,18,19,19,20,20,21,21,22,22,23,23,24,24,25,25,26,26,27,27,28,28,29,29,30,30,31,31,32,32,33,33,34,34,35,35,36,36,37,37,38,38,39,39,40,40,41,41,42,42,43,43,44,44,45,45,46,46,47,47,48,48,49,49,50,50,51,51,52,52,53,53,54,54,56,56,57,57,58,58,59,59,60,60,61,61,62,62],"right_children":[2,4,6,8,10,12,14,16,18,20,22,24,26,28,30,32,34,36,38,40,42,44,46,48,50,52,54,56,58,60,62,64,66,68,70,72,74,76,78,80,82,84,86,88,90,92,94,96,98,100,102,104,106,108,110,-1,112,114,116,118,120,122,124,-1,-1,-1,-1,-1,-1,-1,-1,-1,-1,-1,-1,-1,-1,-1,-1,-1,-1,-1,-1,-1,-1,-1,-1,-1,-1,-1,-1,-1,-1,-1,-1,-1,-1,-1,-1,-1,-1,-1,-1,-1,-1,-1,-1,-1,-1,-1,-1,-1,-1,-1,-1,-1,-1,-1,-1,-1,-1,-1,-1,-1,-1],"split_conditions":[2.1156354E-2,4.6126023E-3,3.422865E-2,1.2826E-1,1.1111E-1,-6.38E-2,-1.3448E-1,1.2414207E-2,-8.263083E-3,7.031278E-3,-1.2684E-1,-1.5175E-1,-3.4814123E-3,1.558E-2,-1.485598E-3,1.5394E-1,3.52E-3,7.193E-2,6.632E-2,-1.4973E-1,4.976E-2,5.525E-2,-1.4025E-1,-7.408E-2,4.1128127E-3,-1.326E-1,-1.0248E-1,-1.6002E-1,1.4251E-1,-1.2285E-1,-1.6933E-1,-1.1765966E-2,-2.887E-2,-1.1383E-1,8.472E-2,1.6092224E-2,-1.459E-2,1.2810124E-2,6.1066337E-2,-1.2285E-1,-1.1383E-1,2.162E-2,-1.091E-1,1.6303338E-2,-1.209E-2,-5.769E-2,1.6092E-1,-2.973E-2,-3.655721E-2,-6.109E-2,5.81E-3,-1.5023E-1,1.0654E-1,-4.03E-2,1.93E-3,4.4077042E-2,-1.8446192E-2,-1.8092027E-2,2.432094E-2,-4.124E-2,-1.2493E-1,-1.8092027E-2,3.9684445E-2,-4.889327E-2,-3.8931366E-2,2.0236274E-2,-2.3888184E-2,-4.4587683E-2,-2.6964966E-2,-1.6624024E-2,2.2223657E-2,-3.9398216E-2,9.6826424E-4,-3.5036407E-2,2.172616E-2,1.2329551E-2,-2.1166831E-2,3.425171E-2,-3.461064E-2,-3.3086125E-2,2.5925681E-2,-4.2133644E-2,-1.9341093E-2,-1.6094085E-3,1.8176144E-2,-4.4816654E-2,-1.2154474E-2,-4.085837E-2,-7.0782737E-3,-4.672436E-2,3.937322E-2,1.0679843E-2,-3.7476704E-2,1.5478681E-2,3.3465736E-2,-3.7097372E-2,7.4309274E-3,2.051915E-2,-4.053161E-2,8.693501E-3,-2.1645634E-2,-6.5451274E-3,2.3090744E-2,-3.0922959E-2,3.976039E-2,-3.4972604E-3,2.119285E-2,2.38051E-2,-1.334921E-2,1.9293187E-2,3.263357E-2,1.19432155E-2,-3.0727524E-2,3.729778E-2,8.973029E-4,4.6532948E-2,1.707354E-2,-3.7099686E-2,2.7797644E-3,1.3645409E-3,3.1300247E-2,3.937322E-2,-1.4687342E-2,3.479955E-2,4.357824E-2],"split_indices":[9,9,9,2,3,3,3,0,0,0,2,3,0,5,0,3,3,3,4,6,6,4,4,6,0,6,2,6,5,2,4,9,6,3,4,7,4,1,1,2,3,5,2,9,5,6,3,4,1,6,2,4,4,6,4,0,1,1,0,5,5,1,9,0,0,0,0,0,0,0,0,0,0,0,0,0,0,0,0,0,0,0,0,0,0,0,0,0,0,0,0,0,0,0,0,0,0,0,0,0,0,0,0,0,0,0,0,0,0,0,0,0,0,0,0,0,0,0,0,0,0,0,0,0,0],"split_type":[0,0,0,0,0,0,0,0,0,0,0,0,0,0,0,0,0,0,0,0,0,0,0,0,0,0,0,0,0,0,0,0,0,0,0,0,0,0,0,0,0,0,0,0,0,0,0,0,0,0,0,0,0,0,0,0,0,0,0,0,0,0,0,0,0,0,0,0,0,0,0,0,0,0,0,0,0,0,0,0,0,0,0,0,0,0,0,0,0,0,0,0,0,0,0,0,0,0,0,0,0,0,0,0,0,0,0,0,0,0,0,0,0,0,0,0,0,0,0,0,0,0,0,0,0],"sum_hessian":[3.2125E4,1.7312E4,1.4813E4,7.284E3,1.0028E4,7.781E3,7.032E3,6.828E3,4.56E2,8.608E3,1.42E3,1.368E3,6.413E3,2.61E2,6.771E3,5.498E3,1.33E3,1.48E2,3.08E2,5.809E3,2.799E3,1.1E2,1.31E3,3.77E2,9.91E2,2.271E3,4.142E3,1.49E2,1.12E2,2.354E3,4.417E3,5.307E3,1.91E2,7.49E2,5.81E2,1.24E2,2.4E1,2.24E2,8.4E1,3.13E2,5.496E3,2.144E3,6.55E2,8.5E1,2.5E1,7.7E1,1.233E3,5.8E1,3.19E2,5.67E2,4.24E2,2.08E2,2.063E3,2.71E2,3.871E3,1.1E1,1.38E2,7.5E1,3.7E1,8.5E1,2.269E3,5.4E1,4.363E3,1.538E3,3.769E3,5.1E1,1.4E2,2.79E2,4.7E2,4.68E2,1.13E2,1.07E2,1.7E1,8E0,1.6E1,1.29E2,9.5E1,8.2E1,2E0,2.3E1,2.9E2,8.63E2,4.633E3,1.147E3,9.97E2,1.19E2,5.36E2,6.7E1,1.8E1,9E0,1.6E1,1.9E1,5.8E1,5.74E2,6.59E2,1.6E1,4.2E1,8E0,3.11E2,1.17E2,4.5E2,1.39E2,2.85E2,1.1E1,1.97E2,1.642E3,4.21E2,7.1E1,2E2,1.39E3,2.481E3,2.8E1,1.1E2,2.2E1,5.3E1,3E1,7E0,4.3E1,4.2E1,1.52E2,2.117E3,1.6E1,3.8E1,1.335E3,3.028E3],"tree_param":{"num_deleted":"0","num_feature":"10","num_nodes":"125","size_leaf_vector":"1"}},{"base_weights":[-2.8000313E-6,-1.9594069E-1,1.9313754E-1,-3.171065E-1,-9.403756E-2,8.8139825E-2,2.9941717E-1,-3.774815E-1,-2.24843E-1,-1.3421059E-1,1.5912832E-1,-3.6267706E-3,2.1139444E-1,-4.241364E-2,3.1331533E-1,-3.8700625E-1,-1.1748361E-1,-2.5774875E-1,7.0382096E-2,1.7465407E-1,-1.6368847E-1,-2.5472337E-1,1.9495337E-1,-2.1468376E-1,4.8673004E-2,-2.0808846E-1,2.351876E-1,-1.910719E-1,1.6245008E-1,-3.149103E-3,3.2381096E-1,-3.9043105E-1,1.6260926E-1,3.374831E-1,-1.7150454E-1,-2.7671796E-1,1.5373251E-1,1.9106695E-1,-1.12292305E-1,-2.5539884E-1,2.10797E-1,-2.7652523E-1,-8.898251E-2,-3.5170063E-1,6.414892E-2,-2.3451385E-1,2.2322707E-1,-3.2727665E-1,-1.1953679E-1,8.566722E-3,2.5987163E-1,3.6201963E-1,-2.4925026E-1,-1.273681E-1,2.5377336E-1,-3.256488E-1,2.0923771E-2,7.315667E-2,3.6103144E-1,-2.802472E-1,1.13375954E-1,3.0410249E-2,3.3286685E-1,-4.285879E-2,-3.473754E-2,-9.087488E-3,4.0447846E-2,-3.1984087E-2,4.4644903E-2,-3.471228E-2,-7.1196454E-3,-3.950798E-2,-2.215985E-2,3.3393804E-2,-7.1015297E-3,-8.153426E-3,2.526388E-2,-3.3642765E-2,-3.0589462E-4,-3.87465E-2,2.0610487E-2,2.6856903E-3,2.6442146E-2,-3.3260327E-2,-1.7474294E-2,-1.53542375E-2,4.5132795E-3,1.566304E-2,-3.995606E-2,-4.0494446E-2,2.5353154E-2,1.721499E-2,-3.4313317E-2,-3.9410677E-2,2.3777623E-2,-3.9403792E-2,-1.5684113E-2,2.643049E-3,-2.2910401E-2,-1.2762065E-2,7.3996717E-3,-1.188864E-2,2.7871892E-2,-2.3931397E-2,4.320736E-2,2.8542299E-2,-2.9036378E-2,-2.6685957E-2,1.2495051E-2,-1.2648309E-2,2.685912E-2,1.7816776E-2,-3.6093343E-2,-1.4202364E-2,2.4101628E-2,1.6880542E-2,-1.6690344E-2,-2.410311E-2,3.821088E-2,-3.594734E-2,4.183031E-2,1.01460704E-4,3.419557E-2,-2.0056492E-2,1.3172793E-2,2.8349182E-2,3.748584E-2],"categories":[],"categories_nodes":[],"categories_segments":[],"categories_sizes":[],"default_left":[0,0,0,0,0,0,0,0,0,0,0,0,0,0,0,0,0,0,0,0,0,0,0,0,0,0,0,0,0,0,0,0,0,0,0,0,0,0,0,0,0,0,0,0,0,0,0,0,0,0,0,0,0,0,0,0,0,0,0,0,0,0,0,0,0,0,0,0,0,0,0,0,0,0,0,0,0,0,0,0,0,0,0,0,0,0,0,0,0,0,0,0,0,0,0,0,0,0,0,0,0,0,0,0,0,0,0,0,0,0,0,0,0,0,0,0,0,0,0,0,0,0,0,0,0,0,0],"id":1,"left_children":[1,3,5,7,9,11,13,15,17,19,21,23,25,27,29,31,33,35,37,39,41,43,45,47,49,51,53,55,57,59,61,63,65,67,69,71,73,75,77,79,81,83,85,87,89,91,93,95,97,99,101,103,105,107,109,111,113,115,117,119,121,123,125,-1,-1,-1,-1,-1,-1,-1,-1,-1,-1,-1,-1,-1,-1,-1,-1,-1,-1,-1,-1,-1,-1,-1,-1,-1,-1,-1,-1,-1,-1,-1,-1,-1,-1,-1,-1,-1,-1,-1,-1,-1,-1,-1,-1,-1,-1,-1,-1,-1,-1,-1,-1,-1,-1,-1,-1,-1,-1,-1,-1,-1,-1,-1,-1],"loss_changes":[1.2157983E3,1.9688287E2,1.8051703E2,4.0495605E1,8.813804E1,9.206952E1,3.820984E1,1.0855774E1,2.8035065E1,6.811337E1,1.7648432E1,5.1525887E1,3.4722305E1,9.624265E0,2.5662842E1,8.055786E0,3.9165823E0,2.0297745E1,6.414806E0,1.0188116E1,5.7524124E1,2.9602795E0,1.3324245E1,9.891708E0,3.168551E1,4.4785013E0,2.218811E1,5.227753E0,2.331945E0,8.071703E0,1.9858948E1,6.7840576E0,1.692127E0,1.3604332E0,2.4591331E0,1.6098602E1,4.681307E0,2.9578953E0,2.8390057E0,3.188258E0,5.9308357E0,1.5461243E1,3.558456E1,1.8385792E0,2.1459436E0,3.0627348E0,9.308907E0,4.76268E0,8.066645E0,2.8033716E1,4.294857E0,6.510365E-1,3.929779E0,5.6999464E0,1.7658936E1,2.0553274E0,2.6164021E0,2.163589E0,6.123853E-1,4.245786E0,4.5199537E0,5.291841E0,1.4933716E1,0E0,0E0,0E0,0E0,0E0,0E0,0E0,0E0,0E0,0E0,0E0,0E0,0E0,0E0,0E0,0E0,0E0,0E0,0E0,0E0,0E0,0E0,0E0,0E0,0E0,0E0,0E0,0E0,0E0,0E0,0E0,0E0,0E0,0E0,0E0,0E0,0E0,0E0,0E0,0E0,0E0,0E0,0E0,0E0,0E0,0E0,0E0,0E0,0E0,0E0,0E0,0E0,0E0,0E0,0E0,0E0,0E0,0E0,0E0,0E0,0E0,0E0,0E0,0E0],"parents":[2147483647,0,0,1,1,2,2,3,3,4,4,5,5,6,6,7,7,8,8,9,9,10,10,11,11,12,12,13,13,14,14,15,15,16,16,17,17,18,18,19,19,20,20,21,21,22,22,23,23,24,24,25,25,26,26,27,27,28,28,29,29,30,30,31,31,32,32,33,33,34,34,35,35,36,36,37,37,38,38,39,39,40,40,41,41,42,42,43,43,44,44,45,45,46,46,47,47,48,48,49,49,50,50,51,51,52,52,53,53,54,54,55,55,56,56,57,57,58,58,59,59,60,60,61,61,62,62],"right_children":[2,4,6,8,10,12,14,16,18,20,22,24,26,28,30,32,34,36,38,40,42,44,46,48,50,52,54,56,58,60,62,64,66,68,70,72,74,76,78,80,82,84,86,88,90,92,94,96,98,100,102,104,106,108,110,112,114,116,118,120,122,124,126,-1,-1,-1,-1,-1,-1,-1,-1,-1,-1,-1,-1,-1,-1,-1,-1,-1,-1,-1,-1,-1,-1,-1,-1,-1,-1,-1,-1,-1,-1,-1,-1,-1,-1,-1,-1,-1,-1,-1,-1,-1,-1,-1,-1,-1,-1,-1,-1,-1,-1,-1,-1,-1,-1,-1,-1,-1,-1,-1,-1,-1,-1,-1,-1],"split_conditions":[1.910166E-2,4.6126023E-3,3.226646E-2,1.1352451E-3,1.1111E-1,5.4217214E-3,-1.3448E-1,1.4392E-1,1.1272E-1,-1.1539E-1,-1.2684E-1,-6.38E-2,-1.4296E-1,1.558E-2,-1.2285E-1,2.1827E-1,-1.1539E-1,1.6092E-1,2.541E-2,-1.4313E-1,-2.668E-2,5.135E-2,-1.4025E-1,-1.2631E-1,1.4017E-1,-2.8284755E-2,-1.2285E-1,4.1093603E-2,1.4251E-1,-9.141449E-3,-1.3343E-1,-9.75E-3,9.92E-3,-2.1161452E-2,-7.615973E-3,-9.8756915E-3,1.927E-2,-8.099E-2,-5.885E-2,7.321E-2,-9.806379E-3,2.971E-2,9.566413E-3,-2.1550234E-2,-3.413E-2,-5.769E-2,-1.7331E-1,6.819E-2,-1.209E-2,-3.917E-2,-1.4313E-1,-3.16E-1,-1.326E-1,3.798E-2,-1.4136E-1,-9.36E-2,4.8234463E-3,1.0154379E-2,-2.4229E-1,1.1673E-1,8.004E-2,-1.0554433E-2,4.1093603E-2,-4.285879E-2,-3.473754E-2,-9.087488E-3,4.0447846E-2,-3.1984087E-2,4.4644903E-2,-3.471228E-2,-7.1196454E-3,-3.950798E-2,-2.215985E-2,3.3393804E-2,-7.1015297E-3,-8.153426E-3,2.526388E-2,-3.3642765E-2,-3.0589462E-4,-3.87465E-2,2.0610487E-2,2.6856903E-3,2.6442146E-2,-3.3260327E-2,-1.7474294E-2,-1.53542375E-2,4.5132795E-3,1.566304E-2,-3.995606E-2,-4.0494446E-2,2.5353154E-2,1.721499E-2,-3.4313317E-2,-3.9410677E-2,2.3777623E-2,-3.9403792E-2,-1.5684113E-2,2.643049E-3,-2.2910401E-2,-1.2762065E-2,7.3996717E-3,-1.188864E-2,2.7871892E-2,-2.3931397E-2,4.320736E-2,2.8542299E-2,-2.9036378E-2,-2.6685957E-2,1.2495051E-2,-1.2648309E-2,2.685912E-2,1.7816776E-2,-3.6093343E-2,-1.4202364E-2,2.4101628E-2,1.6880542E-2,-1.6690344E-2,-2.410311E-2,3.821088E-2,-3.594734E-2,4.183031E-2,1.01460704E-4,3.419557E-2,-2.0056492E-2,1.3172793E-2,2.8349182E-2,3.748584E-2],"split_indices":[9,9,9,0,3,0,3,2,2,6,2,3,3,5,2,5,6,3,6,2,5,4,4,3,3,1,2,9,5,0,4,3,4,0,9,9,6,3,3,4,0,4,0,8,5,6,5,2,6,5,2,2,6,5,5,6,0,8,4,5,3,0,9,0,0,0,0,0,0,0,0,0,0,0,0,0,0,0,0,0,0,0,0,0,0,0,0,0,0,0,0,0,0,0,0,0,0,0,0,0,0,0,0,0,0,0,0,0,0,0,0,0,0,0,0,0,0,0,0,0,0,0,0,0,0,0,0],"split_type":[0,0,0,0,0,0,0,0,0,0,0,0,0,0,0,0,0,0,0,0,0,0,0,0,0,0,0,0,0,0,0,0,0,0,0,0,0,0,0,0,0,0,0,0,0,0,0,0,0,0,0,0,0,0,0,0,0,0,0,0,0,0,0,0,0,0,0,0,0,0,0,0,0,0,0,0,0,0,0,0,0,0,0,0,0,0,0,0,0,0,0,0,0,0,0,0,0,0,0,0,0,0,0,0,0,0,0,0,0,0,0,0,0,0,0,0,0,0,0,0,0,0,0,0,0,0,0],"sum_hessian":[3.2125E4,1.5947E4,1.6178E4,7.284E3,8.663E3,8.139E3,8.039E3,4.401E3,2.883E3,7.477E3,1.186E3,4.666E3,3.473E3,3.14E2,7.725E3,4.245E3,1.56E2,2.594E3,2.89E2,6.51E2,6.826E3,9.4E1,1.092E3,9.26E2,3.74E3,1.86E2,3.287E3,1.82E2,1.32E2,2.48E2,7.477E3,4.219E3,2.6E1,1.6E1,1.4E2,2.48E3,1.14E2,1.74E2,1.15E2,5E1,6.01E2,2.718E3,4.108E3,7.2E1,2.2E1,6.7E1,1.025E3,4.23E2,5.03E2,3.144E3,5.96E2,1.2E1,1.74E2,1.6E2,3.127E3,1.11E2,7.1E1,9.2E1,4E1,7.3E1,1.75E2,2.24E2,7.253E3,2.232E3,1.987E3,1.3E1,1.3E1,2E0,1.4E1,5E1,9E1,7.86E2,1.694E3,6.3E1,5.1E1,3.2E1,1.42E2,3.7E1,7.8E1,3.9E1,1.1E1,1.36E2,4.65E2,1.751E3,9.67E2,2.773E3,1.335E3,6E0,6.6E1,6E0,1.6E1,1.4E1,5.3E1,2.3E1,1.002E3,3.03E2,1.2E2,2.16E2,2.87E2,1.02E3,2.124E3,2.8E1,5.68E2,1E0,1.1E1,1.2E1,1.62E2,1.03E2,5.7E1,1.17E2,3.01E3,7E0,1.04E2,4.1E1,3E1,6.6E1,2.6E1,1E0,3.9E1,6.6E1,7E0,1.18E2,5.7E1,6.8E1,1.56E2,3.337E3,3.916E3],"tree_param":{"num_deleted":"0","num_feature":"10","num_nodes":"127","size_leaf_vector":"1"}},{"base_weights":[-8.471234E-6,-1.9909464E-1,1.5494286E-1,-3.0038887E-1,-1.1732559E-1,5.876554E-2,2.6523978E-1,-3.3218312E-1,-1.7927778E-1,-1.471367E-1,1.9474426E-1,-2.7861435E-2,1.6759239E-1,-1.5225783E-2,2.7997532E-1,-1.1919313E-1,-3.4424204E-1,-2.3112415E-1,3.783306E-2,-2.5731423E-1,-8.037445E-2,-2.178905E-1,2.3002787E-1,2.8168502E-1,-5.7372414E-2,-2.1567851E-1,1.899234E-1,-9.137254E-2,3.2079616E-1,5.306276E-2,2.9388484E-1,-2.584888E-1,1.3719255E-1,-3.531955E-1,-1.6765732E-1,-2.5731638E-1,1.4148813E-1,-3.4771836E-1,9.9278115E-2,-2.7333575E-1,1.0241219E-1,-3.6368138E-1,-4.9789805E-2,-3.4002307E-1,1.9345248E-1,-1.7194296E-1,2.56298E-1,-1.9335386E-1,3.066721E-1,-1.6529389E-1,1.8106556E-2,-3.1823674E-1,-1.9188248E-2,-2.1518007E-1,2.0547955E-1,2.7282965E-1,-1.4155446E-1,-5.5991832E-2,3.7702957E-1,-1.3764313E-1,1.6112196E-1,2.0929709E-1,3.2058123E-1,-2.9036669E-2,3.5820194E-2,-1.4949589E-3,3.4676176E-2,-3.5987347E-2,-1.4823849E-2,-2.8327515E-2,-7.4013486E-4,-2.0223143E-2,-4.1381977E-2,-2.8501421E-2,2.3464404E-2,-3.7373867E-2,2.6848624E-2,-1.8229516E-2,1.9481974E-2,-2.8910568E-2,-1.3735822E-3,-2.471889E-3,3.2396667E-2,4.0499563E-3,-3.844821E-2,-3.4703933E-2,-2.3460225E-3,1.2952685E-2,-3.794635E-2,-2.9247714E-2,3.0839218E-2,2.2109106E-2,-2.6482824E-2,2.778311E-2,-1.8428678E-2,-4.5289952E-2,1.0393339E-2,-1.8516188E-2,3.2904305E-2,-3.7533727E-2,-1.31837865E-2,-3.0663738E-3,1.8850897E-2,3.6315996E-2,-3.4337103E-2,2.762403E-2,-1.6128436E-2,-2.8376693E-2,2.4482293E-2,-1.8277792E-2,2.1947198E-2,-4.0638507E-3,3.720584E-2,-3.841792E-2,-7.626471E-3,-3.2724198E-2,3.3495672E-2,3.9057534E-2,-4.6653408E-3,-2.1546844E-2,3.161363E-2,-4.451213E-3,2.1691365E-2,1.6112518E-2,3.459024E-2,2.806365E-2,3.5965484E-2],"categories":[],"categories_nodes":[],"categories_segments":[],"categories_sizes":[],"default_left":[0,0,0,0,0,0,0,0,0,0,0,0,0,0,0,0,0,0,0,0,0,0,0,0,0,0,0,0,0,0,0,0,0,0,0,0,0,0,0,0,0,0,0,0,0,0,0,0,0,0,0,0,0,0,0,0,0,0,0,0,0,0,0,0,0,0,0,0,0,0,0,0,0,0,0,0,0,0,0,0,0,0,0,0,0,0,0,0,0,0,0,0,0,0,0,0,0,0,0,0,0,0,0,0,0,0,0,0,0,0,0,0,0,0,0,0,0,0,0,0,0,0,0,0,0,0,0],"id":2,"left_children":[1,3,5,7,9,11,13,15,17,19,21,23,25,27,29,31,33,35,37,39,41,43,45,47,49,51,53,55,57,59,61,63,65,67,69,71,73,75,77,79,81,83,85,87,89,91,93,95,97,99,101,103,105,107,109,111,113,115,117,119,121,123,125,-1,-1,-1,-1,-1,-1,-1,-1,-1,-1,-1,-1,-1,-1,-1,-1,-1,-1,-1,-1,-1,-1,-1,-1,-1,-1,-1,-1,-1,-1,-1,-1,-1,-1,-1,-1,-1,-1,-1,-1,-1,-1,-1,-1,-1,-1,-1,-1,-1,-1,-1,-1,-1,-1,-1,-1,-1,-1,-1,-1,-1,-1,-1,-1],"loss_changes":[9.910751E2,1.1642822E2,1.9162961E2,2.4122498E1,7.242576E1,9.099736E1,3.478192E1,1.27317505E1,1.4732128E1,5.223419E1,9.935844E0,4.9116894E1,3.665564E1,1.0801431E1,2.5218628E1,9.606657E0,7.3812256E0,1.0342491E1,6.028148E0,1.5473816E1,3.8323814E1,2.7786508E0,6.654522E0,5.61438E0,3.9982586E1,4.749693E0,2.5522583E1,6.3256893E0,1.6737804E0,9.563463E0,1.6943787E1,3.52464E0,3.034193E0,6.0756226E0,4.240918E0,8.425217E0,2.848062E0,6.615281E-1,5.9270453E0,1.0500916E1,3.2471502E0,3.6390991E0,3.1258545E1,8.2695866E-1,8.162814E-1,1.4823272E0,5.6296463E0,1.8989019E0,4.957161E0,1.4145496E1,2.4015034E1,2.779296E0,3.4868517E0,4.801997E0,2.11949E1,1.3215325E0,4.770496E0,1.276105E0,4.084816E-1,6.0011244E0,3.4055662E0,1.18550415E1,8.833008E0,0E0,0E0,0E0,0E0,0E0,0E0,0E0,0E0,0E0,0E0,0E0,0E0,0E0,0E0,0E0,0E0,0E0,0E0,0E0,0E0,0E0,0E0,0E0,0E0,0E0,0E0,0E0,0E0,0E0,0E0,0E0,0E0,0E0,0E0,0E0,0E0,0E0,0E0,0E0,0E0,0E0,0E0,0E0,0E0,0E0,0E0,0E0,0E0,0E0,0E0,0E0,0E0,0E0,0E0,0E0,0E0,0E0,0E0,0E0,0E0,0E0,0E0,0E0,0E0],"parents":[2147483647,0,0,1,1,2,2,3,3,4,4,5,5,6,6,7,7,8,8,9,9,10,10,11,11,12,12,13,13,14,14,15,15,16,16,17,17,18,18,19,19,20,20,21,21,22,22,23,23,24,24,25,25,26,26,27,27,28,28,29,29,30,30,31,31,32,32,33,33,34,34,35,35,36,36,37,37,38,38,39,39,40,40,41,41,42,42,43,43,44,44,45,45,46,46,47,47,48,48,49,49,50,50,51,51,52,52,53,53,54,54,55,55,56,56,57,57,58,58,59,59,60,60,61,61,62,62],"right_children":[2,4,6,8,10,12,14,16,18,20,22,24,26,28,30,32,34,36,38,40,42,44,46,48,50,52,54,56,58,60,62,64,66,68,70,72,74,76,78,80,82,84,86,88,90,92,94,96,98,100,102,104,106,108,110,112,114,116,118,120,122,124,126,-1,-1,-1,-1,-1,-1,-1,-1,-1,-1,-1,-1,-1,-1,-1,-1,-1,-1,-1,-1,-1,-1,-1,-1,-1,-1,-1,-1,-1,-1,-1,-1,-1,-1,-1,-1,-1,-1,-1,-1,-1,-1,-1,-1,-1,-1,-1,-1,-1,-1,-1,-1,-1,-1,-1,-1,-1,-1,-1,-1,-1,-1,-1,-1],"split_conditions":[1.6303338E-2,2.515524E-3,3.1560052E-2,1.1736463E-2,1.4152E-1,4.1128127E-3,-1.3006E-1,-1.1539E-1,6.566E-2,-6.7792013E-3,-1.3506E-1,-1.2916E-1,-1.4296E-1,1.5897E-1,-1.1478E-1,2.825E-2,1.3412E-1,1.3631E-1,-1.6339092E-2,1.6527E-1,-1.3506E-1,5.387E-2,-1.4345E-1,-1.5023E-1,-4.58E-3,3.5304609E-3,-1.5963E-1,-9.984E-2,-8.321E-2,-2.5353832E-3,-7.2348295E-3,1.4251E-1,1.041E-2,1.3875E-1,8.3E-3,7.495E-2,-1.4313E-1,5.677389E-2,-6.38E-2,1.4933E-1,4.682E-2,-1.3959E-1,-1.5034E-1,-2.2610988E-2,-2.4124531E-2,-4.502E-2,1.3448E-1,-6.5664006E-3,-1.2285E-1,-9.765E-2,9.082E-2,-2.7648147E-2,-4.069E-2,1.1993E-1,-1.4651E-1,-2.2484E-1,-5.535E-2,7.859414E-3,1.7222E-1,1.5525E-1,-2.757E-2,1.1923E-1,4.1483026E-2,-2.9036669E-2,3.5820194E-2,-1.4949589E-3,3.4676176E-2,-3.5987347E-2,-1.4823849E-2,-2.8327515E-2,-7.4013486E-4,-2.0223143E-2,-4.1381977E-2,-2.8501421E-2,2.3464404E-2,-3.7373867E-2,2.6848624E-2,-1.8229516E-2,1.9481974E-2,-2.8910568E-2,-1.3735822E-3,-2.471889E-3,3.2396667E-2,4.0499563E-3,-3.844821E-2,-3.4703933E-2,-2.3460225E-3,1.2952685E-2,-3.794635E-2,-2.9247714E-2,3.0839218E-2,2.2109106E-2,-2.6482824E-2,2.778311E-2,-1.8428678E-2,-4.5289952E-2,1.0393339E-2,-1.8516188E-2,3.2904305E-2,-3.7533727E-2,-1.31837865E-2,-3.0663738E-3,1.8850897E-2,3.6315996E-2,-3.4337103E-2,2.762403E-2,-1.6128436E-2,-2.8376693E-2,2.4482293E-2,-1.8277792E-2,2.1947198E-2,-4.0638507E-3,3.720584E-2,-3.841792E-2,-7.626471E-3,-3.2724198E-2,3.3495672E-2,3.9057534E-2,-4.6653408E-3,-2.1546844E-2,3.161363E-2,-4.451213E-3,2.1691365E-2,1.6112518E-2,3.459024E-2,2.806365E-2,3.5965484E-2],"split_indices":[9,9,9,0,3,0,5,6,2,0,2,6,3,2,3,4,4,4,9,4,2,4,4,4,3,7,5,6,4,0,0,5,3,5,3,6,2,0,3,2,2,6,3,8,0,2,6,0,2,2,2,1,6,4,2,5,4,0,6,4,4,2,9,0,0,0,0,0,0,0,0,0,0,0,0,0,0,0,0,0,0,0,0,0,0,0,0,0,0,0,0,0,0,0,0,0,0,0,0,0,0,0,0,0,0,0,0,0,0,0,0,0,0,0,0,0,0,0,0,0,0,0,0,0,0,0,0],"split_type":[0,0,0,0,0,0,0,0,0,0,0,0,0,0,0,0,0,0,0,0,0,0,0,0,0,0,0,0,0,0,0,0,0,0,0,0,0,0,0,0,0,0,0,0,0,0,0,0,0,0,0,0,0,0,0,0,0,0,0,0,0,0,0,0,0,0,0,0,0,0,0,0,0,0,0,0,0,0,0,0,0,0,0,0,0,0,0,0,0,0,0,0,0,0,0,0,0,0,0,0,0,0,0,0,0,0,0,0,0,0,0,0,0,0,0,0,0,0,0,0,0,0,0,0,0,0,0],"sum_hessian":[3.2125E4,1.406E4,1.8065E4,6.279E3,7.781E3,9.651E3,8.414E3,4.972E3,1.307E3,7.103E3,6.78E2,5.374E3,4.277E3,4.2E2,7.994E3,2.67E2,4.705E3,1.055E3,2.52E2,2.679E3,4.424E3,5.3E1,6.25E2,4.67E2,4.907E3,2.35E2,4.042E3,3.43E2,7.7E1,4.62E2,7.532E3,1.73E2,9.4E1,4.477E3,2.28E2,9.86E2,6.9E1,3.4E1,2.18E2,2.565E3,1.14E2,4.3E2,3.994E3,4.1E1,1.2E1,3.8E1,5.87E2,2.3E1,4.44E2,2.019E3,2.888E3,1.54E2,8.1E1,1.49E2,3.893E3,4.1E1,3.02E2,1E1,6.7E1,1.67E2,2.95E2,1.809E3,5.723E3,1.65E2,8E0,5.5E1,3.9E1,4.335E3,1.42E2,1.32E2,9.6E1,7.31E2,2.55E2,1.2E1,5.7E1,3.3E1,1E0,5.5E1,1.63E2,2.418E3,1.47E2,7.3E1,4.1E1,2.1E1,4.09E2,3.24E2,3.67E3,3E0,3.8E1,2E0,1E1,7E0,3.1E1,5.6E2,2.7E1,1.2E1,1.1E1,1.9E1,4.25E2,2.76E2,1.743E3,2.246E3,6.42E2,5E0,1.49E2,2.6E1,5.5E1,1.3E2,1.9E1,1.35E2,3.758E3,1E1,3.1E1,6.3E1,2.39E2,6E0,4E0,6.5E1,2E0,1.43E2,2.4E1,6.3E1,2.32E2,1.339E3,4.7E2,2.834E3,2.889E3],"tree_param":{"num_deleted":"0","num_feature":"10","num_nodes":"127","size_leaf_vector":"1"}},{"base_weights":[-1.0242188E-5,-1.4557421E-1,1.7270888E-1,-2.3689207E-1,-4.4309508E-2,1.1010042E-1,2.6942766E-1,-2.5293636E-1,6.945046E-2,-1.5565053E-1,2.5487218E-2,-1.7584155E-1,1.352259E-1,7.063237E-2,2.8166115E-1,-2.6768732E-1,2.3632377E-2,-1.5674452E-1,1.4160663E-1,5.322788E-2,-1.911863E-1,-8.442695E-3,2.7663863E-1,-2.1123591E-1,9.147659E-2,8.382873E-2,2.5382644E-1,-2.2939406E-1,1.4207019E-1,-5.718307E-2,2.8647453E-1,9.759694E-3,-2.806094E-1,1.5654285E-1,-1.2394749E-1,-2.2938432E-1,1.3115488E-1,2.340447E-1,-3.2980524E-2,-1.3758102E-1,1.3865858E-1,-2.1417795E-1,8.63984E-2,-3.534991E-2,2.565454E-1,3.3291754E-1,1.6437997E-1,-2.3624177E-1,9.365565E-2,-1.2602478E-1,2.3192985E-1,-2.4052419E-1,1.048092E-1,-3.799532E-2,2.679092E-1,-2.9476926E-1,1.1833584E-1,-4.1799694E-2,2.4422549E-1,-2.1292895E-1,2.5650802E-1,2.3254941E-1,3.119214E-1,-9.71363E-3,2.0703107E-2,-3.2130875E-2,-2.162753E-2,-2.0152977E-2,2.3179898E-2,-3.4774616E-2,2.9610033E-4,-2.8158769E-2,1.2905294E-2,-2.5235211E-2,3.147112E-2,9.497377E-3,3.4086537E-2,-1.3412279E-2,2.0955324E-2,2.6143653E-2,-1.9305138E-2,-2.4289673E-2,1.8922351E-2,-2.434892E-2,-4.1959947E-3,3.2278623E-2,-4.3706177E-4,-1.6853126E-2,1.5260149E-3,-1.8880151E-2,2.7731767E-2,-3.6022153E-2,3.372838E-2,2.298521E-2,-1.6974105E-2,-6.9130547E-3,-2.753347E-2,-4.8240735E-3,3.89332E-2,9.470813E-3,-2.8527323E-2,1.6053021E-4,3.6449235E-2,3.2026783E-4,-2.8238704E-2,6.5389215E-3,2.595748E-2,-3.1827915E-2,1.3381694E-2,2.2497695E-2,3.4142498E-2,-3.5848442E-2,2.7797455E-3,-3.5987318E-2,2.6459042E-2,-1.5844872E-2,2.2788642E-2,3.9815824E-3,2.8288981E-2,-3.0159703E-2,1.8963672E-2,3.6205143E-2,-4.1449357E-2,2.4697674E-2,-4.83796E-3,2.3285273E-2,3.2249644E-2],"categories":[],"categories_nodes":[],"categories_segments":[],"categories_sizes":[],"default_left":[0,0,0,0,0,0,0,0,0,0,0,0,0,0,0,0,0,0,0,0,0,0,0,0,0,0,0,0,0,0,0,0,0,0,0,0,0,0,0,0,0,0,0,0,0,0,0,0,0,0,0,0,0,0,0,0,0,0,0,0,0,0,0,0,0,0,0,0,0,0,0,0,0,0,0,0,0,0,0,0,0,0,0,0,0,0,0,0,0,0,0,0,0,0,0,0,0,0,0,0,0,0,0,0,0,0,0,0,0,0,0,0,0,0,0,0,0,0,0,0,0,0,0,0,0,0,0],"id":3,"left_children":[1,3,5,7,9,11,13,15,17,19,21,23,25,27,29,31,33,35,37,39,41,43,45,47,49,51,53,55,57,59,61,63,65,67,69,71,73,75,77,79,81,83,85,87,89,91,93,95,97,99,101,103,105,107,109,111,113,115,117,119,121,123,125,-1,-1,-1,-1,-1,-1,-1,-1,-1,-1,-1,-1,-1,-1,-1,-1,-1,-1,-1,-1,-1,-1,-1,-1,-1,-1,-1,-1,-1,-1,-1,-1,-1,-1,-1,-1,-1,-1,-1,-1,-1,-1,-1,-1,-1,-1,-1,-1,-1,-1,-1,-1,-1,-1,-1,-1,-1,-1,-1,-1,-1,-1,-1,-1],"loss_changes":[8.077268E2,1.6120657E2,8.8942535E1,4.507373E1,6.425657E1,6.411608E1,1.4019806E1,3.554419E1,7.4810596E0,2.3658752E1,4.3317352E1,6.8411026E0,4.9969833E1,7.2341566E0,8.885651E0,2.9652222E1,8.689193E0,2.3514228E0,5.607778E0,7.5827117E0,1.7397057E1,3.1944748E1,3.7675438E0,4.878662E0,2.625875E0,3.897066E1,1.0197998E1,1.5125206E0,5.1192613E0,3.8165371E0,7.2853394E0,7.801405E0,2.0620789E1,6.3254027E0,5.96544E0,1.7016745E0,1.6985061E0,3.339859E0,2.9962857E0,3.2377152E0,6.2391176E0,1.2685303E1,4.485859E0,2.7415436E1,3.8729668E0,1.3381119E0,4.501641E0,3.828827E0,2.0745966E0,1.2221644E0,1.5870991E0,3.5515862E0,3.278123E1,5.5805545E0,7.3875732E0,1.1403465E0,8.645618E-1,3.1190534E0,1.3718252E0,1.9133198E0,1.9913827E0,6.995369E0,2.9685059E0,0E0,0E0,0E0,0E0,0E0,0E0,0E0,0E0,0E0,0E0,0E0,0E0,0E0,0E0,0E0,0E0,0E0,0E0,0E0,0E0,0E0,0E0,0E0,0E0,0E0,0E0,0E0,0E0,0E0,0E0,0E0,0E0,0E0,0E0,0E0,0E0,0E0,0E0,0E0,0E0,0E0,0E0,0E0,0E0,0E0,0E0,0E0,0E0,0E0,0E0,0E0,0E0,0E0,0E0,0E0,0E0,0E0,0E0,0E0,0E0,0E0,0E0,0E0,0E0],"parents":[2147483647,0,0,1,1,2,2,3,3,4,4,5,5,6,6,7,7,8,8,9,9,10,10,11,11,12,12,13,13,14,14,15,15,16,16,17,17,18,18,19,19,20,20,21,21,22,22,23,23,24,24,25,25,26,26,27,27,28,28,29,29,30,30,31,31,32,32,33,33,34,34,35,35,36,36,37,37,38,38,39,39,40,40,41,41,42,42,43,43,44,44,45,45,46,46,47,47,48,48,49,49,50,50,51,51,52,52,53,53,54,54,55,55,56,56,57,57,58,58,59,59,60,60,61,61,62,62],"right_children":[2,4,6,8,10,12,14,16,18,20,22,24,26,28,30,32,34,36,38,40,42,44,46,48,50,52,54,56,58,60,62,64,66,68,70,72,74,76,78,80,82,84,86,88,90,92,94,96,98,100,102,104,106,108,110,112,114,116,118,120,122,124,126,-1,-1,-1,-1,-1,-1,-1,-1,-1,-1,-1,-1,-1,-1,-1,-1,-1,-1,-1,-1,-1,-1,-1,-1,-1,-1,-1,-1,-1,-1,-1,-1,-1,-1,-1,-1,-1,-1,-1,-1,-1,-1,-1,-1,-1,-1,-1,-1,-1,-1,-1,-1,-1,-1,-1,-1,-1,-1,-1,-1,-1,-1,-1,-1],"split_conditions":[2.1345487E-2,8.432755E-3,3.704082E-2,1.4392E-1,-2.293E-2,-1.22E-1,-1.1961E-1,1.4719E-1,-1.2463516E-2,-7.408E-2,1.4126E-1,1.4392E-1,4.557E-2,-3.799E-2,-1.6772E-1,-1.4647E-1,1.927E-2,7.108E-2,2.541E-2,-4.502E-2,1.3853E-1,1.5188E-1,1.49E-2,1.0554E-1,-4.4611553E-3,-1.2285E-1,-1.2234E-1,1.4933E-1,-6.8E-3,9.566413E-3,-2.2009437E-3,3.619E-2,1.1352451E-3,-8.762E-2,-6E-2,1.6092224E-2,-1.459E-2,-1.058E-2,6.590508E-3,-2.234875E-2,-1.5963E-1,9.835E-2,-5.363182E-3,-3.799E-2,-1.4025E-1,-2.5655E-1,1.2625866E-2,-5.971E-2,-1.4877E-1,-8.4E-3,-1.6052E-1,-7.408E-2,1.1427E-1,-2.16E-3,1.2809E-1,1.7402876E-2,-5.769E-2,1.013E-1,-3.917E-2,1E-1,4.741E-2,1.2533E-1,-6.19E-2,-9.71363E-3,2.0703107E-2,-3.2130875E-2,-2.162753E-2,-2.0152977E-2,2.3179898E-2,-3.4774616E-2,2.9610033E-4,-2.8158769E-2,1.2905294E-2,-2.5235211E-2,3.147112E-2,9.497377E-3,3.4086537E-2,-1.3412279E-2,2.0955324E-2,2.6143653E-2,-1.9305138E-2,-2.4289673E-2,1.8922351E-2,-2.434892E-2,-4.1959947E-3,3.2278623E-2,-4.3706177E-4,-1.6853126E-2,1.5260149E-3,-1.8880151E-2,2.7731767E-2,-3.6022153E-2,3.372838E-2,2.298521E-2,-1.6974105E-2,-6.9130547E-3,-2.753347E-2,-4.8240735E-3,3.89332E-2,9.470813E-3,-2.8527323E-2,1.6053021E-4,3.6449235E-2,3.2026783E-4,-2.8238704E-2,6.5389215E-3,2.595748E-2,-3.1827915E-2,1.3381694E-2,2.2497695E-2,3.4142498E-2,-3.5848442E-2,2.7797455E-3,-3.5987318E-2,2.6459042E-2,-1.5844872E-2,2.2788642E-2,3.9815824E-3,2.8288981E-2,-3.0159703E-2,1.8963672E-2,3.6205143E-2,-4.1449357E-2,2.4697674E-2,-4.83796E-3,2.3285273E-2,3.2249644E-2],"split_indices":[9,9,9,2,5,3,5,3,0,6,2,2,5,4,4,6,6,3,6,2,4,3,6,5,0,2,4,2,3,0,0,4,0,4,2,7,4,4,7,1,5,3,1,4,4,4,8,6,3,6,3,6,4,2,5,7,6,2,2,3,6,6,3,0,0,0,0,0,0,0,0,0,0,0,0,0,0,0,0,0,0,0,0,0,0,0,0,0,0,0,0,0,0,0,0,0,0,0,0,0,0,0,0,0,0,0,0,0,0,0,0,0,0,0,0,0,0,0,0,0,0,0,0,0,0,0,0],"split_type":[0,0,0,0,0,0,0,0,0,0,0,0,0,0,0,0,0,0,0,0,0,0,0,0,0,0,0,0,0,0,0,0,0,0,0,0,0,0,0,0,0,0,0,0,0,0,0,0,0,0,0,0,0,0,0,0,0,0,0,0,0,0,0,0,0,0,0,0,0,0,0,0,0,0,0,0,0,0,0,0,0,0,0,0,0,0,0,0,0,0,0,0,0,0,0,0,0,0,0,0,0,0,0,0,0,0,0,0,0,0,0,0,0,0,0,0,0,0,0,0,0,0,0,0,0,0,0],"sum_hessian":[3.2125E4,1.7433E4,1.4692E4,9.166E3,8.267E3,8.92E3,5.772E3,8.71E3,4.56E2,3.185E3,5.082E3,7.2E2,8.2E3,3.35E2,5.437E3,8.269E3,4.41E2,1.1E2,3.46E2,4.63E2,2.722E3,4.478E3,6.04E2,6.36E2,8.4E1,5.722E3,2.478E3,6.4E1,2.71E2,7.6E1,5.361E3,3.68E2,7.901E3,2.32E2,2.09E2,8.8E1,2.2E1,2.26E2,1.2E2,1.43E2,3.2E2,2.514E3,2.08E2,4.066E3,4.12E2,4.01E2,2.03E2,5.88E2,4.8E1,3.3E1,5.1E1,3.47E2,5.375E3,1.14E2,2.364E3,5.4E1,1E1,9.7E1,1.74E2,5.1E1,2.5E1,1.722E3,3.639E3,2.39E2,1.29E2,4.837E3,3.064E3,4E1,1.92E2,7.5E1,1.34E2,7.7E1,1.1E1,7E0,1.5E1,9.9E1,1.27E2,8.5E1,3.5E1,1.7E1,1.26E2,3.7E1,2.83E2,2.148E3,3.66E2,5.7E1,1.51E2,1.119E3,2.947E3,1.8E1,3.94E2,2E0,3.99E2,1.7E2,3.3E1,1.12E2,4.76E2,3.3E1,1.5E1,1.4E1,1.9E1,1.9E1,3.2E1,5.1E1,2.96E2,4.285E3,1.09E3,4.3E1,7.1E1,1.495E3,8.69E2,4.5E1,9E0,2E0,8E0,6.8E1,2.9E1,2.8E1,1.46E2,4.2E1,9E0,2.2E1,3E0,1.638E3,8.4E1,4.32E2,3.207E3],"tree_param":{"num_deleted":"0","num_feature":"10","num_nodes":"127","size_leaf_vector":"1"}},{"base_weights":[-6.5559516E-6,-1.8346208E-1,1.1197028E-1,-2.025649E-1,7.361259E-2,2.2308746E-2,2.026238E-1,-2.182251E-1,6.523046E-2,-2.3484682E-1,1.25134E-1,-3.8231023E-2,1.4794698E-1,-9.409231E-2,2.145496E-1,-2.978843E-1,-1.7431521E-1,-1.7757736E-1,1.2971716E-1,-2.8362146E-1,1.2873545E-1,-2.1594451E-1,1.6029894E-1,2.3835406E-1,-6.330821E-2,-2.2747678E-1,1.684055E-1,-2.1360125E-1,7.6367505E-2,-8.474605E-2,2.2391175E-1,-3.2788172E-1,-2.5357124E-1,-2.2503598E-1,-6.9602415E-2,-2.2464593E-1,1.7771007E-1,-1.9429687E-1,1.6327037E-1,1.4054369E-2,-3.5221425E-1,-2.0824412E-1,4.496231E-2,-2.6626033E-1,3.483623E-2,4.038496E-2,2.6311356E-1,-1.8408212E-1,2.6247633E-1,-8.897391E-2,1.9120477E-1,-3.0899733E-1,-2.7277907E-2,-9.696198E-2,1.9015129E-1,-2.5853112E-1,1.1335049E-1,-1.8498397E-1,1.5162787E-1,-1.9469427E-1,1.10826455E-1,1.3982987E-1,2.5227556E-1,-6.852275E-3,-3.326323E-2,-3.1702388E-2,-1.9569457E-2,-5.7907677E-3,-2.4578176E-2,-1.6041177E-3,-2.405106E-2,-2.5493855E-2,1.6719194E-2,-3.1051576E-2,3.142634E-2,-3.0026335E-2,7.6928656E-3,2.6626667E-2,6.4471834E-3,-2.8675282E-2,2.6355583E-2,-3.6191586E-2,2.4106232E-2,-3.27006E-2,3.1154448E-2,8.425136E-3,-3.3398427E-2,2.2658765E-2,-5.0642625E-3,2.0018566E-2,3.7629254E-2,-4.213352E-2,-5.1040854E-3,6.676146E-3,2.979128E-2,-2.8817773E-2,-6.0226875E-3,1.2628764E-2,3.1314835E-2,-3.2256976E-2,3.2785024E-2,-1.4492258E-2,4.5779306E-2,-1.632588E-2,1.6472055E-2,1.17613E-2,2.5847027E-2,-8.417619E-3,-3.1804413E-2,-1.3025894E-2,3.662641E-2,-3.854864E-2,1.21418545E-2,5.1382678E-3,3.2647204E-2,7.359302E-3,-2.9387042E-2,1.915803E-2,-4.2775787E-2,-1.5687434E-2,1.5911346E-2,2.583006E-2,-2.043901E-4],"categories":[],"categories_nodes":[],"categories_segments":[],"categories_sizes":[],"default_left":[0,0,0,0,0,0,0,0,0,0,0,0,0,0,0,0,0,0,0,0,0,0,0,0,0,0,0,0,0,0,0,0,0,0,0,0,0,0,0,0,0,0,0,0,0,0,0,0,0,0,0,0,0,0,0,0,0,0,0,0,0,0,0,0,0,0,0,0,0,0,0,0,0,0,0,0,0,0,0,0,0,0,0,0,0,0,0,0,0,0,0,0,0,0,0,0,0,0,0,0,0,0,0,0,0,0,0,0,0,0,0,0,0,0,0,0,0,0,0,0,0,0,0],"id":4,"left_children":[1,3,5,7,9,11,13,15,17,19,21,23,25,27,29,31,33,35,37,39,41,43,45,47,49,51,53,55,57,59,61,63,65,67,69,71,73,75,77,79,81,83,-1,85,-1,87,89,91,93,95,97,99,101,103,105,107,109,111,113,115,117,119,121,-1,-1,-1,-1,-1,-1,-1,-1,-1,-1,-1,-1,-1,-1,-1,-1,-1,-1,-1,-1,-1,-1,-1,-1,-1,-1,-1,-1,-1,-1,-1,-1,-1,-1,-1,-1,-1,-1,-1,-1,-1,-1,-1,-1,-1,-1,-1,-1,-1,-1,-1,-1,-1,-1,-1,-1,-1,-1,-1,-1],"loss_changes":[6.5997754E2,5.9814392E1,1.6215173E2,4.755014E1,1.3426565E1,7.6302536E1,3.5122864E1,3.740631E1,9.840522E0,2.1822777E0,8.7062845E0,4.6971645E1,2.5092476E1,7.838956E0,2.6742157E1,4.9734497E0,3.6662857E1,2.2473402E0,5.4240913E0,2.1897202E0,1.71562E0,2.0235171E0,8.077139E0,5.785351E0,4.0569244E1,2.7497053E0,1.787275E1,3.3492231E0,3.1554844E0,6.257404E0,2.2020142E1,2.7679138E0,5.5934906E0,1.611522E1,2.0638535E1,1.4313893E0,1.1642857E0,1.3739171E0,4.561982E0,1.6516638E0,5.879946E-1,5.957254E-1,0E0,1.5236349E0,0E0,5.164148E0,2.4387798E0,9.5699286E-1,3.6767082E0,3.2280216E1,4.4647846E0,1.1429825E0,2.9196453E0,4.1038404E0,1.4143005E1,2.0381298E0,1.7728491E0,2.2584453E0,2.1566086E0,4.9706593E0,4.6486897E0,1.3384705E1,1.0594757E1,0E0,0E0,0E0,0E0,0E0,0E0,0E0,0E0,0E0,0E0,0E0,0E0,0E0,0E0,0E0,0E0,0E0,0E0,0E0,0E0,0E0,0E0,0E0,0E0,0E0,0E0,0E0,0E0,0E0,0E0,0E0,0E0,0E0,0E0,0E0,0E0,0E0,0E0,0E0,0E0,0E0,0E0,0E0,0E0,0E0,0E0,0E0,0E0,0E0,0E0,0E0,0E0,0E0,0E0,0E0,0E0,0E0,0E0,0E0,0E0],"parents":[2147483647,0,0,1,1,2,2,3,3,4,4,5,5,6,6,7,7,8,8,9,9,10,10,11,11,12,12,13,13,14,14,15,15,16,16,17,17,18,18,19,19,20,20,21,21,22,22,23,23,24,24,25,25,26,26,27,27,28,28,29,29,30,30,31,31,32,32,33,33,34,34,35,35,36,36,37,37,38,38,39,39,40,40,41,41,43,43,45,45,46,46,47,47,48,48,49,49,50,50,51,51,52,52,53,53,54,54,55,55,56,56,57,57,58,58,59,59,60,60,61,61,62,62],"right_children":[2,4,6,8,10,12,14,16,18,20,22,24,26,28,30,32,34,36,38,40,42,44,46,48,50,52,54,56,58,60,62,64,66,68,70,72,74,76,78,80,82,84,-1,86,-1,88,90,92,94,96,98,100,102,104,106,108,110,112,114,116,118,120,122,-1,-1,-1,-1,-1,-1,-1,-1,-1,-1,-1,-1,-1,-1,-1,-1,-1,-1,-1,-1,-1,-1,-1,-1,-1,-1,-1,-1,-1,-1,-1,-1,-1,-1,-1,-1,-1,-1,-1,-1,-1,-1,-1,-1,-1,-1,-1,-1,-1,-1,-1,-1,-1,-1,-1,-1,-1,-1,-1,-1],"split_conditions":[1.3441302E-2,1.3631E-1,2.8900547E-2,1.4392E-1,-1.0321E-1,9.566413E-3,-1.2285E-1,-3.1140344E-3,-1.4525628E-2,2.4061E-1,-1.3506E-1,-1.2916E-1,-1.4651E-1,3.897693E-3,-1.5034E-1,5.03E-3,5.644919E-3,2.6378E-1,-1.7559519E-2,-8.657174E-3,-5.433254E-3,1.582E-1,1.6959552E-3,-1.5023E-1,1.5188E-1,5.82339E-3,-1.0749E-1,1.151E-1,-5.476E-2,7.515E-2,-7.2348295E-3,-1.7664E-1,-1.1765966E-2,-8.223E-2,6.424E-2,1.4152E-1,-3.782725E-2,1.4254901E-2,-1.806E-2,-2.16E-3,2.0964E-1,5.524E-2,4.496231E-2,-1.0467E-1,3.483623E-2,-4.8297355E-3,7.147E-2,-4.502E-2,-6.275E-2,-9.515E-2,2.3061E-1,2.0169E-1,9.835E-2,1.1027E-1,2.831E-2,-4.353E-2,-1.1048628E-2,5.161509E-3,8.004E-2,-8.066529E-3,1.0772E-1,-1.1837E-1,1.6475E-1,-6.852275E-3,-3.326323E-2,-3.1702388E-2,-1.9569457E-2,-5.7907677E-3,-2.4578176E-2,-1.6041177E-3,-2.405106E-2,-2.5493855E-2,1.6719194E-2,-3.1051576E-2,3.142634E-2,-3.0026335E-2,7.6928656E-3,2.6626667E-2,6.4471834E-3,-2.8675282E-2,2.6355583E-2,-3.6191586E-2,2.4106232E-2,-3.27006E-2,3.1154448E-2,8.425136E-3,-3.3398427E-2,2.2658765E-2,-5.0642625E-3,2.0018566E-2,3.7629254E-2,-4.213352E-2,-5.1040854E-3,6.676146E-3,2.979128E-2,-2.8817773E-2,-6.0226875E-3,1.2628764E-2,3.1314835E-2,-3.2256976E-2,3.2785024E-2,-1.4492258E-2,4.5779306E-2,-1.632588E-2,1.6472055E-2,1.17613E-2,2.5847027E-2,-8.417619E-3,-3.1804413E-2,-1.3025894E-2,3.662641E-2,-3.854864E-2,1.21418545E-2,5.1382678E-3,3.2647204E-2,7.359302E-3,-2.9387042E-2,1.915803E-2,-4.2775787E-2,-1.5687434E-2,1.5911346E-2,2.583006E-2,-2.043901E-4],"split_indices":[9,4,9,2,3,0,2,9,0,4,2,6,2,0,3,5,0,2,7,8,0,3,0,4,3,7,5,3,5,4,0,6,9,6,6,3,0,0,6,2,5,5,0,6,0,1,3,2,3,2,3,4,3,3,3,6,0,7,3,8,6,4,6,0,0,0,0,0,0,0,0,0,0,0,0,0,0,0,0,0,0,0,0,0,0,0,0,0,0,0,0,0,0,0,0,0,0,0,0,0,0,0,0,0,0,0,0,0,0,0,0,0,0,0,0,0,0,0,0,0,0,0,0],"split_type":[0,0,0,0,0,0,0,0,0,0,0,0,0,0,0,0,0,0,0,0,0,0,0,0,0,0,0,0,0,0,0,0,0,0,0,0,0,0,0,0,0,0,0,0,0,0,0,0,0,0,0,0,0,0,0,0,0,0,0,0,0,0,0,0,0,0,0,0,0,0,0,0,0,0,0,0,0,0,0,0,0,0,0,0,0,0,0,0,0,0,0,0,0,0,0,0,0,0,0,0,0,0,0,0,0,0,0,0,0,0,0,0,0,0,0,0,0,0,0,0,0,0,0],"sum_hessian":[3.2125E4,1.2176E4,1.9949E4,1.1334E4,8.42E2,1.003E4,9.919E3,1.0708E4,6.26E2,1.2E2,7.22E2,6.769E3,3.261E3,3.83E2,9.536E3,3.803E3,6.905E3,1.31E2,4.95E2,1.06E2,1.4E1,6.7E1,6.55E2,5.62E2,6.207E3,1.68E2,3.093E3,2.25E2,1.58E2,2.89E2,9.247E3,2.264E3,1.539E3,4.651E3,2.254E3,1.16E2,1.5E1,4.6E1,4.49E2,2E1,8.6E1,7E0,7E0,6.2E1,5E0,3.03E2,3.52E2,3E1,5.32E2,5.639E3,5.68E2,1.19E2,4.9E1,2.34E2,2.859E3,1.98E2,2.7E1,3.5E1,1.23E2,1.85E2,1.04E2,2.334E3,6.913E3,4.1E1,2.223E3,7.32E2,8.07E2,5.14E2,4.137E3,1.717E3,5.37E2,1.08E2,8E0,3E0,1.2E1,3.3E1,1.3E1,2.19E2,2.3E2,9E0,1.1E1,8.5E1,1E0,6E0,1E0,1E1,5.2E1,9.9E1,2.04E2,2.28E2,1.24E2,1E1,2E1,8.2E1,4.5E2,7.1E2,4.929E3,3.72E2,1.96E2,1.17E2,2E0,4E1,9E0,1.87E2,4.7E1,1.388E3,1.471E3,5.1E1,1.47E2,1.4E1,1.3E1,2.1E1,1.4E1,7.9E1,4.4E1,5E1,1.35E2,9.1E1,1.3E1,1.42E2,2.192E3,6.753E3,1.6E2],"tree_param":{"num_deleted":"0","num_feature":"10","num_nodes":"123","size_leaf_vector":"1"}},{"base_weights":[-5.5261553E-6,-1.1149382E-1,1.5023686E-1,-1.9288094E-1,-3.1051029E-2,-1.21010214E-1,1.6632915E-1,-2.0530005E-1,1.392657E-1,-2.1388507E-1,4.1052196E-3,-2.0447715E-1,4.738017E-2,1.3043715E-1,2.6307186E-1,4.08403E-2,-2.1746431E-1,-6.469608E-2,2.9284912E-1,-2.4546383E-1,-1.9333802E-2,1.8915424E-1,-2.89699E-2,-2.3116457E-1,2.1792619E-1,-2.2828455E-1,1.0280836E-1,-1.6052224E-1,1.447714E-1,7.423596E-2,2.6999605E-1,-1.9731134E-1,1.1364661E-1,-2.8855324E-1,-1.7959774E-1,2.776708E-1,-1.3607822E-1,5.5797186E-2,3.5411066E-1,-2.5879693E-1,8.9572884E-2,1.08221784E-1,-2.1976474E-1,1.3162516E-1,3.0852515E-1,-1.2391881E-1,3.484964E-2,-2.8459916E-1,-3.8434006E-2,-3.198785E-2,2.6604646E-1,-3.290422E-1,3.9306944E-3,2.2075447E-1,-3.7850406E-2,-1.9333075E-1,1.8429746E-1,2.100374E-1,9.1816366E-2,-8.647757E-2,2.0592342E-1,2.867032E-1,2.0234175E-1,-3.654767E-2,-1.1404864E-2,1.6147711E-3,2.6561573E-2,-2.9144092E-2,8.8464655E-3,-2.9489858E-2,-1.47295315E-2,4.0357243E-2,-1.8827984E-2,-3.4744862E-2,-5.4339133E-3,-3.3560388E-2,1.6413508E-2,3.6456984E-2,-2.799115E-2,-2.230229E-2,-3.457673E-2,-2.9377703E-2,1.9275479E-2,2.1618672E-2,-6.6686547E-3,-2.7182752E-2,3.7688326E-2,-3.7840083E-3,2.0285582E-2,-1.6500479E-2,3.177797E-2,-2.505452E-2,-8.213409E-3,-2.6591927E-2,5.594536E-3,3.2957774E-2,-2.9539121E-2,-1.021733E-2,3.550626E-2,-1.8228995E-2,3.450719E-2,1.1163786E-2,-3.821414E-2,3.0633489E-2,-1.4766447E-2,-1.9444138E-2,2.4120873E-2,-1.3378351E-2,2.8079158E-2,8.032482E-3,-2.3210004E-2,-4.2126115E-2,2.6554018E-2,-9.117078E-3,2.1924205E-2,2.8931617E-3,1.722216E-2,-2.2418845E-2,3.1405877E-2,-2.804072E-2,2.4016542E-2,2.6071122E-2,3.052613E-2,1.5263376E-2,2.969878E-2],"categories":[],"categories_nodes":[],"categories_segments":[],"categories_sizes":[],"default_left":[0,0,0,0,0,0,0,0,0,0,0,0,0,0,0,0,0,0,0,0,0,0,0,0,0,0,0,0,0,0,0,0,0,0,0,0,0,0,0,0,0,0,0,0,0,0,0,0,0,0,0,0,0,0,0,0,0,0,0,0,0,0,0,0,0,0,0,0,0,0,0,0,0,0,0,0,0,0,0,0,0,0,0,0,0,0,0,0,0,0,0,0,0,0,0,0,0,0,0,0,0,0,0,0,0,0,0,0,0,0,0,0,0,0,0,0,0,0,0,0,0,0,0,0,0],"id":5,"left_children":[1,3,5,7,9,11,13,15,17,19,21,23,25,27,29,31,33,35,37,39,41,43,45,47,49,51,53,55,57,59,61,63,65,67,69,71,73,75,77,79,81,83,85,87,89,91,93,95,97,-1,99,101,103,105,107,109,111,113,115,117,119,121,123,-1,-1,-1,-1,-1,-1,-1,-1,-1,-1,-1,-1,-1,-1,-1,-1,-1,-1,-1,-1,-1,-1,-1,-1,-1,-1,-1,-1,-1,-1,-1,-1,-1,-1,-1,-1,-1,-1,-1,-1,-1,-1,-1,-1,-1,-1,-1,-1,-1,-1,-1,-1,-1,-1,-1,-1,-1,-1,-1,-1,-1,-1],"loss_changes":[5.381358E2,1.2073393E2,5.9754944E1,3.7842133E1,5.9624767E1,1.0789897E1,4.482419E1,2.6467896E1,1.0387569E1,9.186218E0,4.762924E1,5.833353E0,3.919766E0,3.933194E1,4.5498047E0,7.252763E0,2.2616577E1,3.532545E0,2.7249298E0,5.7723083E0,5.392661E0,8.062805E0,4.000977E1,4.9632244E0,8.8736093E-1,1.0073838E0,3.5420585E0,5.0472984E0,3.1027435E1,2.6633024E0,3.7522583E0,1.3305044E0,4.7370934E0,3.2102356E0,2.04301E1,1.5425835E0,2.0371096E0,1.7512267E0,1.0967484E0,3.7746506E0,2.0343657E0,2.4504485E0,2.6496255E0,9.64043E0,1.7308578E0,1.4021862E1,2.5071033E1,2.6028214E0,2.694885E0,0E0,1.0903723E0,7.446542E-1,6.8703693E-1,1.032033E0,3.0332599E0,4.315464E0,2.0305538E0,1.1173813E1,2.5079144E1,3.2144265E0,1.2163963E0,1.2232666E0,3.1115017E0,0E0,0E0,0E0,0E0,0E0,0E0,0E0,0E0,0E0,0E0,0E0,0E0,0E0,0E0,0E0,0E0,0E0,0E0,0E0,0E0,0E0,0E0,0E0,0E0,0E0,0E0,0E0,0E0,0E0,0E0,0E0,0E0,0E0,0E0,0E0,0E0,0E0,0E0,0E0,0E0,0E0,0E0,0E0,0E0,0E0,0E0,0E0,0E0,0E0,0E0,0E0,0E0,0E0,0E0,0E0,0E0,0E0,0E0,0E0,0E0,0E0,0E0],"parents":[2147483647,0,0,1,1,2,2,3,3,4,4,5,5,6,6,7,7,8,8,9,9,10,10,11,11,12,12,13,13,14,14,15,15,16,16,17,17,18,18,19,19,20,20,21,21,22,22,23,23,24,24,25,25,26,26,27,27,28,28,29,29,30,30,31,31,32,32,33,33,34,34,35,35,36,36,37,37,38,38,39,39,40,40,41,41,42,42,43,43,44,44,45,45,46,46,47,47,48,48,50,50,51,51,52,52,53,53,54,54,55,55,56,56,57,57,58,58,59,59,60,60,61,61,62,62],"right_children":[2,4,6,8,10,12,14,16,18,20,22,24,26,28,30,32,34,36,38,40,42,44,46,48,50,52,54,56,58,60,62,64,66,68,70,72,74,76,78,80,82,84,86,88,90,92,94,96,98,-1,100,102,104,106,108,110,112,114,116,118,120,122,124,-1,-1,-1,-1,-1,-1,-1,-1,-1,-1,-1,-1,-1,-1,-1,-1,-1,-1,-1,-1,-1,-1,-1,-1,-1,-1,-1,-1,-1,-1,-1,-1,-1,-1,-1,-1,-1,-1,-1,-1,-1,-1,-1,-1,-1,-1,-1,-1,-1,-1,-1,-1,-1,-1,-1,-1,-1,-1,-1,-1,-1,-1],"split_conditions":[2.2876883E-2,8.432755E-3,-1.3006E-1,1.5564E-1,-9.217E-2,3.802187E-2,1.0104E-1,-1.4647E-1,-1.047E-2,1.0586E-1,-8.457E-2,1.66E-1,-5.809E-2,-1.2285E-1,-1.1837E-1,-8.145548E-3,-5.75E-2,-6.031E-2,-5.566189E-3,1.686E-1,9.065265E-3,6.871E-2,-4.0607587E-3,1.2627013E-2,-1.7606E-1,7.859414E-3,-5.89E-3,1.2348E-1,-7.76124E-3,3.226646E-2,3.931E-2,-5.885E-2,4.325E-2,2.4402E-1,-1.0243E-1,1.2368094E-2,-1.1765966E-2,-8.762E-2,4.465317E-2,4.976E-2,-1.6406E-1,5.0083096E-3,2.7040113E-2,-3.775E-2,-1.8753E-1,-4.911E-2,-1.4651E-1,-1.9501E-1,1.4392E-1,-3.198785E-2,-2.5036E-1,-2.123121E-2,4.302852E-3,-1.4892E-1,1.4392E-1,-1.127E-1,-2.2345E-1,-1.4345E-1,5.286E-2,1.8586E-1,-2.568769E-2,1.582E-1,9.439E-2,-3.654767E-2,-1.1404864E-2,1.6147711E-3,2.6561573E-2,-2.9144092E-2,8.8464655E-3,-2.9489858E-2,-1.47295315E-2,4.0357243E-2,-1.8827984E-2,-3.4744862E-2,-5.4339133E-3,-3.3560388E-2,1.6413508E-2,3.6456984E-2,-2.799115E-2,-2.230229E-2,-3.457673E-2,-2.9377703E-2,1.9275479E-2,2.1618672E-2,-6.6686547E-3,-2.7182752E-2,3.7688326E-2,-3.7840083E-3,2.0285582E-2,-1.6500479E-2,3.177797E-2,-2.505452E-2,-8.213409E-3,-2.6591927E-2,5.594536E-3,3.2957774E-2,-2.9539121E-2,-1.021733E-2,3.550626E-2,-1.8228995E-2,3.450719E-2,1.1163786E-2,-3.821414E-2,3.0633489E-2,-1.4766447E-2,-1.9444138E-2,2.4120873E-2,-1.3378351E-2,2.8079158E-2,8.032482E-3,-2.3210004E-2,-4.2126115E-2,2.6554018E-2,-9.117078E-3,2.1924205E-2,2.8931617E-3,1.722216E-2,-2.2418845E-2,3.1405877E-2,-2.804072E-2,2.4016542E-2,2.6071122E-2,3.052613E-2,1.5263376E-2,2.969878E-2],"split_indices":[9,9,5,5,3,9,3,6,3,2,6,3,4,2,4,9,2,6,9,4,1,4,0,0,4,0,6,5,1,9,6,4,4,3,3,8,9,4,1,6,3,8,0,2,5,2,2,6,2,0,5,1,8,2,2,6,2,4,4,3,7,3,2,0,0,0,0,0,0,0,0,0,0,0,0,0,0,0,0,0,0,0,0,0,0,0,0,0,0,0,0,0,0,0,0,0,0,0,0,0,0,0,0,0,0,0,0,0,0,0,0,0,0,0,0,0,0,0,0,0,0,0,0,0,0],"split_type":[0,0,0,0,0,0,0,0,0,0,0,0,0,0,0,0,0,0,0,0,0,0,0,0,0,0,0,0,0,0,0,0,0,0,0,0,0,0,0,0,0,0,0,0,0,0,0,0,0,0,0,0,0,0,0,0,0,0,0,0,0,0,0,0,0,0,0,0,0,0,0,0,0,0,0,0,0,0,0,0,0,0,0,0,0,0,0,0,0,0,0,0,0,0,0,0,0,0,0,0,0,0,0,0,0,0,0,0,0,0,0,0,0,0,0,0,0,0,0,0,0,0,0,0,0],"sum_hessian":[3.2125E4,1.8441E4,1.3684E4,9.166E3,9.275E3,7.66E2,1.2918E4,8.836E3,3.3E2,1.495E3,7.78E3,5.12E2,2.54E2,9.424E3,3.494E3,4.16E2,8.42E3,1.42E2,1.88E2,1.286E3,2.09E2,1.179E3,6.601E3,4.82E2,3E1,4.2E1,2.12E2,4.42E2,8.982E3,1.24E2,3.37E3,9.7E1,3.19E2,2.924E3,5.496E3,2.4E1,1.18E2,3.9E1,1.49E2,1.237E3,4.9E1,1.28E2,8.1E1,7.97E2,3.82E2,2.653E3,3.948E3,3.77E2,1.05E2,2E0,2.8E1,2.9E1,1.3E1,1.15E2,9.7E1,4.04E2,3.8E1,4.022E3,4.96E3,5.6E1,6.8E1,2.7E3,6.7E2,3.1E1,6.6E1,1.95E2,1.24E2,2.902E3,2.2E1,1.201E3,4.295E3,1.9E1,5E0,3.2E1,8.6E1,8E0,3.1E1,1.47E2,2E0,8.79E2,3.58E2,1E1,3.9E1,7.9E1,4.9E1,7.5E1,6E0,2.36E2,5.61E2,7E0,3.75E2,6.57E2,1.996E3,2.58E2,3.69E3,6E0,3.71E2,9.1E1,1.4E1,4E0,2.4E1,3E0,2.6E1,4E0,9E0,5E0,1.1E2,7.5E1,2.2E1,5E1,3.54E2,4E0,3.4E1,1.19E2,3.903E3,2.784E3,2.176E3,4.2E1,1.4E1,4E0,6.4E1,1.131E3,1.569E3,4.41E2,2.29E2],"tree_param":{"num_deleted":"0","num_feature":"10","num_nodes":"125","size_leaf_vector":"1"}},{"base_weights":[-6.3982475E-6,-1.494641E-1,9.121899E-2,-1.6550435E-1,1.0046516E-1,2.7404435E-2,1.7869058E-1,-2.4503738E-1,-1.244304E-1,3.1166423E-2,2.5640276E-1,-5.2756798E-2,9.808201E-2,-9.262425E-2,1.8745512E-1,-2.653158E-1,-1.7260227E-1,-2.708407E-1,-9.30418E-2,-9.548588E-2,1.477027E-1,2.7997535E-1,-1.8730694E-1,-9.168309E-2,1.0881903E-1,-1.2276136E-1,1.2170758E-1,-1.9514133E-1,8.3018385E-2,1.5953848E-1,2.5631163E-1,-2.9879445E-1,-2.343116E-1,-2.2680967E-1,-6.620919E-2,-2.778201E-1,1.5738034E-1,-2.5619128E-1,-6.360272E-2,-1.3246341E-1,2.6718688E-1,3.130062E-1,4.132682E-2,2.946263E-1,-8.810423E-2,3.201203E-2,-3.2080442E-1,-1.1773429E-1,1.3476087E-1,2.185151E-1,4.1522175E-2,-1.7205845E-1,4.9033515E-2,9.0193674E-2,2.6276076E-1,4.2517778E-2,-2.7533492E-1,1.502082E-1,-4.1102603E-2,-1.287986E-1,1.6980042E-1,-4.0763464E-2,2.5926542E-1,-7.566443E-3,-3.013725E-2,-2.5133342E-2,-1.1526402E-2,1.0587469E-2,-2.3793045E-2,-9.457744E-3,3.4338932E-2,-2.8382896E-2,1.4571823E-2,3.684943E-2,-1.32805845E-2,-1.2664995E-2,-2.7077377E-2,1.0053109E-2,-9.476192E-3,2.0027481E-2,-1.7359905E-2,3.297774E-2,-2.6000911E-2,-2.6359973E-2,3.2689653E-2,-4.241255E-2,9.4873505E-3,2.1871056E-2,3.621906E-2,-3.7385862E-2,3.625534E-2,2.6390543E-2,-4.15095E-2,-1.620075E-2,5.4796005E-4,2.1817222E-2,-5.219969E-4,2.354369E-2,-1.3231233E-2,-1.7434297E-2,8.233903E-3,-3.9655097E-2,-1.3747965E-2,1.7072057E-2,-2.0963056E-2,-2.804245E-3,1.3597577E-2,-4.536143E-2,2.6964799E-2,-3.4542546E-2,1.5536821E-2,-3.0369869E-2,2.4618236E-2,-7.394952E-4,2.7841484E-2,-2.760757E-2,1.7887368E-4,1.979771E-2,9.122478E-3,2.8176887E-2,-2.196402E-2,2.2742404E-2,2.7829695E-2],"categories":[],"categories_nodes":[],"categories_segments":[],"categories_sizes":[],"default_left":[0,0,0,0,0,0,0,0,0,0,0,0,0,0,0,0,0,0,0,0,0,0,0,0,0,0,0,0,0,0,0,0,0,0,0,0,0,0,0,0,0,0,0,0,0,0,0,0,0,0,0,0,0,0,0,0,0,0,0,0,0,0,0,0,0,0,0,0,0,0,0,0,0,0,0,0,0,0,0,0,0,0,0,0,0,0,0,0,0,0,0,0,0,0,0,0,0,0,0,0,0,0,0,0,0,0,0,0,0,0,0,0,0,0,0,0,0,0,0,0,0,0,0],"id":6,"left_children":[1,3,5,7,9,11,13,15,17,19,21,23,25,27,29,31,33,35,37,39,41,43,45,47,49,51,53,55,57,59,61,63,65,67,69,71,73,75,77,79,81,83,85,87,89,-1,91,93,95,97,99,101,103,105,107,109,111,113,-1,115,117,119,121,-1,-1,-1,-1,-1,-1,-1,-1,-1,-1,-1,-1,-1,-1,-1,-1,-1,-1,-1,-1,-1,-1,-1,-1,-1,-1,-1,-1,-1,-1,-1,-1,-1,-1,-1,-1,-1,-1,-1,-1,-1,-1,-1,-1,-1,-1,-1,-1,-1,-1,-1,-1,-1,-1,-1,-1,-1,-1,-1,-1],"loss_changes":[4.3803033E2,4.8833344E1,1.1135521E2,3.735077E1,7.9346223E0,6.5363556E1,2.0027802E1,5.6769257E0,3.4662506E1,7.541493E0,2.4162674E0,3.4011272E1,3.200375E1,4.769882E0,1.5629211E1,3.0875244E0,4.9160194E0,4.024719E0,2.9843777E1,3.321024E0,4.6644893E0,1.1853886E0,9.1557896E-1,2.571841E1,7.742238E0,5.030546E0,2.4597916E1,3.1945167E0,3.3148255E0,1.7192337E1,2.0726929E0,8.164673E-1,3.1808548E0,2.1192284E0,3.4021578E0,3.3778152E0,1.3967102E0,1.7602882E0,2.6951542E1,3.087057E0,8.4468734E-1,9.191303E-1,4.102757E0,9.825268E-1,1.2945404E0,0E0,6.608722E-1,2.1319305E1,5.255335E0,2.399866E0,5.7590857E0,3.5240784E0,4.222106E0,2.4519726E1,5.1104126E0,1.9361892E0,1.9237881E0,1.759961E0,0E0,3.8469982E0,1.2389206E1,1.4465322E0,1.3468475E0,0E0,0E0,0E0,0E0,0E0,0E0,0E0,0E0,0E0,0E0,0E0,0E0,0E0,0E0,0E0,0E0,0E0,0E0,0E0,0E0,0E0,0E0,0E0,0E0,0E0,0E0,0E0,0E0,0E0,0E0,0E0,0E0,0E0,0E0,0E0,0E0,0E0,0E0,0E0,0E0,0E0,0E0,0E0,0E0,0E0,0E0,0E0,0E0,0E0,0E0,0E0,0E0,0E0,0E0,0E0,0E0,0E0,0E0,0E0,0E0],"parents":[2147483647,0,0,1,1,2,2,3,3,4,4,5,5,6,6,7,7,8,8,9,9,10,10,11,11,12,12,13,13,14,14,15,15,16,16,17,17,18,18,19,19,20,20,21,21,22,22,23,23,24,24,25,25,26,26,27,27,28,28,29,29,30,30,31,31,32,32,33,33,34,34,35,35,36,36,37,37,38,38,39,39,40,40,41,41,42,42,43,43,44,44,46,46,47,47,48,48,49,49,50,50,51,51,52,52,53,53,54,54,55,55,56,56,57,57,59,59,60,60,61,61,62,62],"right_children":[2,4,6,8,10,12,14,16,18,20,22,24,26,28,30,32,34,36,38,40,42,44,46,48,50,52,54,56,58,60,62,64,66,68,70,72,74,76,78,80,82,84,86,88,90,-1,92,94,96,98,100,102,104,106,108,110,112,114,-1,116,118,120,122,-1,-1,-1,-1,-1,-1,-1,-1,-1,-1,-1,-1,-1,-1,-1,-1,-1,-1,-1,-1,-1,-1,-1,-1,-1,-1,-1,-1,-1,-1,-1,-1,-1,-1,-1,-1,-1,-1,-1,-1,-1,-1,-1,-1,-1,-1,-1,-1,-1,-1,-1,-1,-1,-1,-1,-1,-1,-1,-1,-1],"split_conditions":[1.3441302E-2,1.4719E-1,3.1560052E-2,-1.08030215E-2,7.44E-2,-2.27E-3,-1.5034E-1,5.387E-2,-1.0782E-1,9.615697E-4,3.7335884E-2,9.769E-2,-1.0436E-1,7.321E-2,1.1923E-1,-2.2785336E-2,6.432456E-3,1.9454E-1,-1.2631E-1,1.361E-1,-1.421E-2,1.5116E-1,7.667E-2,1.3412E-1,-3.266E-2,9.171E-2,1.2809E-1,-8.066529E-3,1.0772E-1,-1.3155E-1,-3.782725E-2,-3.655721E-2,8.4E-2,-1.653E-1,1.3724E-1,1.8693E-1,7.7065005E-4,-1.43029E-2,-7.408E-2,-9.853E-2,3.689E-2,-2.6174E-1,-1.0216E-1,1.564E-2,1.6756946E-2,3.201203E-2,-1.7331E-1,7.283E-2,1.577E-2,3.1319074E-2,-1.2392E-1,-2.3368E-1,6.159375E-3,-2.631E-2,-2.0655E-1,-1.5178E-1,5.2429322E-2,4.1963477E-2,-4.1102603E-2,-2.0327521E-3,7.68025E-3,-6.738E-2,-2.27E-3,-7.566443E-3,-3.013725E-2,-2.5133342E-2,-1.1526402E-2,1.0587469E-2,-2.3793045E-2,-9.457744E-3,3.4338932E-2,-2.8382896E-2,1.4571823E-2,3.684943E-2,-1.32805845E-2,-1.2664995E-2,-2.7077377E-2,1.0053109E-2,-9.476192E-3,2.0027481E-2,-1.7359905E-2,3.297774E-2,-2.6000911E-2,-2.6359973E-2,3.2689653E-2,-4.241255E-2,9.4873505E-3,2.1871056E-2,3.621906E-2,-3.7385862E-2,3.625534E-2,2.6390543E-2,-4.15095E-2,-1.620075E-2,5.4796005E-4,2.1817222E-2,-5.219969E-4,2.354369E-2,-1.3231233E-2,-1.7434297E-2,8.233903E-3,-3.9655097E-2,-1.3747965E-2,1.7072057E-2,-2.0963056E-2,-2.804245E-3,1.3597577E-2,-4.536143E-2,2.6964799E-2,-3.4542546E-2,1.5536821E-2,-3.0369869E-2,2.4618236E-2,-7.394952E-4,2.7841484E-2,-2.760757E-2,1.7887368E-4,1.979771E-2,9.122478E-3,2.8176887E-2,-2.196402E-2,2.2742404E-2,2.7829695E-2],"split_indices":[9,3,9,0,4,5,3,4,4,0,1,3,3,4,2,0,9,2,3,5,6,6,4,4,6,2,5,8,6,4,0,1,2,6,2,5,8,1,6,6,6,2,5,2,1,0,5,2,6,1,5,3,8,4,4,5,9,9,0,0,8,6,5,0,0,0,0,0,0,0,0,0,0,0,0,0,0,0,0,0,0,0,0,0,0,0,0,0,0,0,0,0,0,0,0,0,0,0,0,0,0,0,0,0,0,0,0,0,0,0,0,0,0,0,0,0,0,0,0,0,0,0,0],"split_type":[0,0,0,0,0,0,0,0,0,0,0,0,0,0,0,0,0,0,0,0,0,0,0,0,0,0,0,0,0,0,0,0,0,0,0,0,0,0,0,0,0,0,0,0,0,0,0,0,0,0,0,0,0,0,0,0,0,0,0,0,0,0,0,0,0,0,0,0,0,0,0,0,0,0,0,0,0,0,0,0,0,0,0,0,0,0,0,0,0,0,0,0,0,0,0,0,0,0,0,0,0,0,0,0,0,0,0,0,0,0,0,0,0,0,0,0,0,0,0,0,0,0,0],"sum_hessian":[3.2125E4,1.2176E4,1.9949E4,1.1442E4,7.34E2,1.1535E4,8.414E3,3.895E3,7.547E3,5.09E2,2.25E2,5.405E3,6.13E3,2.63E2,8.151E3,3.041E3,8.54E2,1.331E3,6.216E3,2.44E2,2.65E2,2.14E2,1.1E1,4.356E3,1.049E3,5.92E2,5.538E3,1.66E2,9.7E1,5.802E3,2.349E3,1.458E3,1.583E3,5.65E2,2.89E2,1.31E3,2.1E1,9.49E2,5.267E3,2.22E2,2.2E1,1.03E2,1.62E2,2.06E2,8E0,2E0,9E0,3.907E3,4.49E2,3.98E2,6.51E2,4.6E2,1.32E2,4.528E3,1.01E3,4.2E1,1.24E2,8.6E1,1.1E1,1.99E2,5.603E3,2.3E1,2.326E3,1.7E1,1.441E3,1.384E3,1.99E2,1.8E1,5.47E2,2.71E2,1.8E1,1.292E3,1.8E1,1.2E1,9E0,9.7E1,8.52E2,8.4E2,4.427E3,2.4E1,1.98E2,2E1,2E0,2E0,1.01E2,1.6E1,1.46E2,9.9E1,1.07E2,5E0,3E0,1E0,8E0,2.874E3,1.033E3,2.81E2,1.68E2,3.8E2,1.8E1,1.03E2,5.48E2,6E1,4E2,9E1,4.2E1,1.264E3,3.264E3,9E0,1.001E3,9E0,3.3E1,1.18E2,6E0,3.9E1,4.7E1,9.3E1,1.06E2,4.123E3,1.48E3,8E0,1.5E1,8.75E2,1.451E3],"tree_param":{"num_deleted":"0","num_feature":"10","num_nodes":"123","size_leaf_vector":"1"}},{"base_weights":[-8.052517E-6,-8.488163E-2,1.3226685E-1,-1.0622309E-1,1.4850771E-1,5.1721092E-2,1.6967787E-1,-1.5559615E-1,-2.2202956E-2,-1.0273521E-1,1.748009E-1,-9.583907E-3,1.5511514E-1,-6.679818E-2,1.7885391E-1,-1.6862549E-1,5.8372766E-2,-1.7378731E-1,1.5312792E-2,4.7109004E-2,-2.6519507E-1,9.39149E-2,2.3628952E-1,2.2044754E-1,-3.727812E-2,1.6815199E-1,-1.6808562E-1,-1.370952E-1,1.331719E-1,-6.485992E-2,1.855981E-1,-1.0714918E-1,-2.0688544E-1,-3.237845E-1,9.012192E-2,-2.9657042E-1,-1.3648947E-1,-3.4563165E-2,1.312547E-1,-3.714509E-2,1.17188014E-1,-2.9988143E-1,1.8367828E-1,-8.624776E-2,1.5180324E-1,1.7469543E-1,2.874386E-1,-4.8650388E-2,2.519139E-1,-7.9802126E-2,1.1188826E-1,-1.9428037E-1,1.763453E-1,-3.2338876E-1,1.2094315E-1,-1.9579333E-1,1.4971766E-1,-1.1926012E-1,2.4838729E-1,-1.533708E-1,1.837698E-1,1.2185197E-1,2.068407E-1,-2.4979763E-2,-7.5993943E-3,-2.1869492E-2,-6.8112365E-3,2.248858E-2,-3.3957135E-2,-4.5066435E-4,2.1643361E-2,-3.0885829E-2,-1.8219783E-3,-6.6198297E-3,-2.2808546E-2,3.8450423E-3,-1.0712806E-2,1.5360673E-2,-1.6727906E-2,-1.7534405E-2,2.1252856E-2,-3.2284882E-2,3.2067373E-2,3.4208387E-2,-3.0417481E-2,2.922498E-2,-1.2244719E-2,2.364077E-2,3.6055848E-4,5.2736155E-3,2.4495577E-2,2.93571E-2,-2.2448499E-2,-2.2615131E-2,3.1121647E-2,2.588652E-2,-3.85846E-2,-2.5244156E-2,-4.6920073E-3,-2.9226333E-2,1.303713E-2,-2.9992849E-2,3.135163E-2,1.5168208E-2,2.6472999E-2,-4.682135E-2,-9.499142E-3,2.326905E-2,-1.9720696E-2,-4.521077E-3,-3.287359E-2,3.779645E-2,3.0247204E-3,-2.7859455E-2,2.939835E-2,-1.3526355E-2,3.124767E-2,1.5214517E-2,-2.1424817E-2,2.4758771E-2,-3.2150449E-4,2.7437022E-2,9.3346005E-3,2.0884316E-2,-3.488679E-2],"categories":[],"categories_nodes":[],"categories_segments":[],"categories_sizes":[],"default_left":[0,0,0,0,0,0,0,0,0,0,0,0,0,0,0,0,0,0,0,0,0,0,0,0,0,0,0,0,0,0,0,0,0,0,0,0,0,0,0,0,0,0,0,0,0,0,0,0,0,0,0,0,0,0,0,0,0,0,0,0,0,0,0,0,0,0,0,0,0,0,0,0,0,0,0,0,0,0,0,0,0,0,0,0,0,0,0,0,0,0,0,0,0,0,0,0,0,0,0,0,0,0,0,0,0,0,0,0,0,0,0,0,0,0,0,0,0,0,0,0,0,0,0,0,0],"id":7,"left_children":[1,3,5,7,9,11,13,15,17,19,21,23,25,27,29,31,33,35,37,39,41,43,45,47,49,51,53,55,57,59,61,63,65,67,69,71,73,75,77,-1,79,81,83,85,87,89,91,93,95,97,99,101,103,105,107,109,111,113,115,117,119,121,123,-1,-1,-1,-1,-1,-1,-1,-1,-1,-1,-1,-1,-1,-1,-1,-1,-1,-1,-1,-1,-1,-1,-1,-1,-1,-1,-1,-1,-1,-1,-1,-1,-1,-1,-1,-1,-1,-1,-1,-1,-1,-1,-1,-1,-1,-1,-1,-1,-1,-1,-1,-1,-1,-1,-1,-1,-1,-1,-1,-1,-1,-1],"loss_changes":[3.606784E2,9.749138E1,3.7829224E1,7.438028E1,1.0851765E1,2.5254362E1,1.8616806E1,3.1496063E1,3.775164E1,3.8101058E0,7.363552E0,1.5947309E1,6.276905E0,4.53065E0,1.3578735E1,2.5018066E1,7.9036064E0,5.99078E0,3.0780138E1,2.4487753E0,1.2228155E0,6.719144E0,2.6056442E0,2.290022E0,1.4179531E1,4.2688065E0,2.642562E0,4.0361342E0,2.472683E0,4.9356203E0,1.0851227E1,1.814021E1,1.0737518E1,5.094538E-1,7.1725907E0,1.0409946E0,6.500555E0,1.9724106E1,1.0708906E1,0E0,2.0174675E0,1.1012077E0,5.6772524E-1,2.1869044E0,6.105242E0,3.286108E0,1.5068436E0,1.9228063E0,1.1682997E0,9.860004E0,3.7431984E0,1.8107611E0,3.0007362E0,1.212472E0,7.924892E-1,3.9488668E0,1.1065863E0,1.8596885E0,1.468368E0,3.1014323E0,7.04842E-1,8.713226E0,6.775116E0,0E0,0E0,0E0,0E0,0E0,0E0,0E0,0E0,0E0,0E0,0E0,0E0,0E0,0E0,0E0,0E0,0E0,0E0,0E0,0E0,0E0,0E0,0E0,0E0,0E0,0E0,0E0,0E0,0E0,0E0,0E0,0E0,0E0,0E0,0E0,0E0,0E0,0E0,0E0,0E0,0E0,0E0,0E0,0E0,0E0,0E0,0E0,0E0,0E0,0E0,0E0,0E0,0E0,0E0,0E0,0E0,0E0,0E0,0E0,0E0,0E0,0E0],"parents":[2147483647,0,0,1,1,2,2,3,3,4,4,5,5,6,6,7,7,8,8,9,9,10,10,11,11,12,12,13,13,14,14,15,15,16,16,17,17,18,18,19,19,20,20,21,21,22,22,23,23,24,24,25,25,26,26,27,27,28,28,29,29,30,30,31,31,32,32,33,33,34,34,35,35,36,36,37,37,38,38,40,40,41,41,42,42,43,43,44,44,45,45,46,46,47,47,48,48,49,49,50,50,51,51,52,52,53,53,54,54,55,55,56,56,57,57,58,58,59,59,60,60,61,61,62,62],"right_children":[2,4,6,8,10,12,14,16,18,20,22,24,26,28,30,32,34,36,38,40,42,44,46,48,50,52,54,56,58,60,62,64,66,68,70,72,74,76,78,-1,80,82,84,86,88,90,92,94,96,98,100,102,104,106,108,110,112,114,116,118,120,122,124,-1,-1,-1,-1,-1,-1,-1,-1,-1,-1,-1,-1,-1,-1,-1,-1,-1,-1,-1,-1,-1,-1,-1,-1,-1,-1,-1,-1,-1,-1,-1,-1,-1,-1,-1,-1,-1,-1,-1,-1,-1,-1,-1,-1,-1,-1,-1,-1,-1,-1,-1,-1,-1,-1,-1,-1,-1,-1,-1,-1,-1,-1],"split_conditions":[2.4601758E-2,1.4126E-1,-4.58E-3,2.994E-2,-1.2234E-1,9.566413E-3,-1.2285E-1,1.4654E-1,-7.654E-2,1.02E-3,2.33E-3,-1.2493E-1,1.4723E-1,1.151E-1,-1.5023E-1,1.1520254E-3,-1.6202E-1,-7.032E-2,1.0618886E-2,-8.677824E-3,2.1725807E-2,-1.1276783E-2,2.137E-2,-7.654E-2,4.855E-2,-1.7032E-1,1.1188E-1,1.1026E-1,-7.951181E-3,1.2846868E-2,-7.2348295E-3,-9.583E-2,2.3354923E-2,-4.0658824E-2,4.1128127E-3,2.6187604E-2,1.0490613E-2,3.7732474E-3,1.4199E-1,-3.714509E-2,-5.324E-2,2.8832E-1,1.0078671E-2,-1.1955E-1,2.106E-2,-1.29E-2,2.1982E-1,8.485E-2,4.185659E-2,-6.455E-2,-1.4025E-1,4.1963477E-2,1.4933E-1,6.7266314E-3,2.1982E-1,-2.9640545E-3,-4.6963855E-3,1.89E-2,-1.5388747E-2,-2.1935815E-2,6.769511E-3,-1.127E-1,2.5739E-1,-2.4979763E-2,-7.5993943E-3,-2.1869492E-2,-6.8112365E-3,2.248858E-2,-3.3957135E-2,-4.5066435E-4,2.1643361E-2,-3.0885829E-2,-1.8219783E-3,-6.6198297E-3,-2.2808546E-2,3.8450423E-3,-1.0712806E-2,1.5360673E-2,-1.6727906E-2,-1.7534405E-2,2.1252856E-2,-3.2284882E-2,3.2067373E-2,3.4208387E-2,-3.0417481E-2,2.922498E-2,-1.2244719E-2,2.364077E-2,3.6055848E-4,5.2736155E-3,2.4495577E-2,2.93571E-2,-2.2448499E-2,-2.2615131E-2,3.1121647E-2,2.588652E-2,-3.85846E-2,-2.5244156E-2,-4.6920073E-3,-2.9226333E-2,1.303713E-2,-2.9992849E-2,3.135163E-2,1.5168208E-2,2.6472999E-2,-4.682135E-2,-9.499142E-3,2.326905E-2,-1.9720696E-2,-4.521077E-3,-3.287359E-2,3.779645E-2,3.0247204E-3,-2.7859455E-2,2.939835E-2,-1.3526355E-2,3.124767E-2,1.5214517E-2,-2.1424817E-2,2.4758771E-2,-3.2150449E-4,2.7437022E-2,9.3346005E-3,2.0884316E-2,-3.488679E-2],"split_indices":[9,2,3,3,4,0,2,4,4,6,3,6,6,3,4,1,2,5,0,9,9,0,4,4,5,2,2,4,7,0,0,5,0,1,0,7,1,1,6,0,5,2,7,6,6,5,6,2,8,4,4,9,2,7,6,1,8,5,0,1,8,6,6,0,0,0,0,0,0,0,0,0,0,0,0,0,0,0,0,0,0,0,0,0,0,0,0,0,0,0,0,0,0,0,0,0,0,0,0,0,0,0,0,0,0,0,0,0,0,0,0,0,0,0,0,0,0,0,0,0,0,0,0,0,0],"split_type":[0,0,0,0,0,0,0,0,0,0,0,0,0,0,0,0,0,0,0,0,0,0,0,0,0,0,0,0,0,0,0,0,0,0,0,0,0,0,0,0,0,0,0,0,0,0,0,0,0,0,0,0,0,0,0,0,0,0,0,0,0,0,0,0,0,0,0,0,0,0,0,0,0,0,0,0,0,0,0,0,0,0,0,0,0,0,0,0,0,0,0,0,0,0,0,0,0,0,0,0,0,0,0,0,0,0,0,0,0,0,0,0,0,0,0,0,0,0,0,0,0,0,0,0,0],"sum_hessian":[3.2125E4,1.9569E4,1.2556E4,1.793E4,1.639E3,3.983E3,8.573E3,1.1293E4,6.637E3,1.55E2,1.484E3,2.501E3,1.482E3,3.2E2,8.253E3,1.0645E4,6.48E2,1.316E3,5.321E3,8.1E1,7.4E1,6.42E2,8.42E2,2.68E2,2.233E3,1.425E3,5.7E1,2.37E2,8.3E1,2.22E2,8.031E3,4.085E3,6.56E3,4.9E1,5.99E2,3.05E2,1.011E3,3.721E3,1.6E3,1.1E1,7E1,6.9E1,5E0,1.56E2,4.86E2,3.84E2,4.58E2,2.8E1,2.4E2,1.738E3,4.95E2,3.1E1,1.394E3,3.7E1,2E1,1.97E2,4E1,2.6E1,5.7E1,1.64E2,5.8E1,2.009E3,6.022E3,7.31E2,3.354E3,6.045E3,5.15E2,1E0,4.8E1,3.43E2,2.56E2,2.92E2,1.3E1,5.73E2,4.38E2,1.855E3,1.866E3,1.489E3,1.11E2,1.7E1,5.3E1,6.7E1,2E0,4E0,1E0,1.3E1,1.43E2,3.09E2,1.77E2,1.41E2,2.43E2,4.53E2,5E0,1.9E1,9E0,2.38E2,2E0,2.77E2,1.461E3,2.1E1,4.74E2,2.6E1,5E0,1.092E3,3.02E2,2.2E1,1.5E1,1.5E1,5E0,9.3E1,1.04E2,1.3E1,2.7E1,1.9E1,7E0,8E0,4.9E1,2.7E1,1.37E2,4.3E1,1.5E1,3.15E2,1.694E3,6.001E3,2.1E1],"tree_param":{"num_deleted":"0","num_feature":"10","num_nodes":"125","size_leaf_vector":"1"}},{"base_weights":[-9.4467005E-6,-1.2697123E-1,7.3712714E-2,-1.392247E-1,1.4516549E-1,2.4233835E-2,1.4931269E-1,-2.0431982E-1,-1.01136334E-1,-1.6517853E-2,2.5073326E-1,4.1186184E-2,-2.4814402E-1,-4.4902712E-2,1.5874058E-1,-2.5495005E-1,-1.7016603E-1,7.900752E-3,-1.3471536E-1,3.4381002E-1,-7.8906976E-2,2.992952E-2,2.8644884E-1,-4.320252E-2,9.565485E-2,-2.6400858E-1,1.8547204E-1,2.2390962E-1,-8.6247504E-2,1.3014585E-1,2.1265122E-1,-2.08668E-1,-2.7211583E-1,7.9443656E-2,-1.8216558E-1,-1.3173689E-1,6.293808E-2,-1.4920731E-1,6.578124E-2,4.1938743E-1,-1.1795456E-1,-1.8473925E-2,-3.0837515E-1,-2.1913917E-1,1.8008089E-1,2.942166E-1,-2.9395172E-2,-6.602297E-2,1.4763726E-1,-1.10291794E-1,1.1541595E-1,-2.834306E-1,2.2830395E-2,-4.300339E-2,2.8445256E-1,-2.3918416E-2,2.7168443E-2,-4.1744918E-1,-5.2273616E-2,1.6065359E-1,3.3918485E-2,8.926176E-2,2.1754412E-1,-4.7435793E-3,-2.4011703E-2,-2.7334804E-2,1.70814E-2,-1.2783319E-2,2.0500945E-2,-1.9343546E-2,5.6501715E-3,2.0341298E-2,-1.6218243E-2,2.0377448E-2,1.1130907E-3,-1.8958688E-2,-8.8005E-3,1.5837237E-2,-1.6457016E-2,4.5462206E-2,1.8047761E-2,-2.4644498E-2,1.9800356E-2,-2.243494E-2,5.6387517E-3,-3.334821E-2,7.896182E-3,-3.1759452E-2,8.067255E-3,-2.6667614E-2,3.1404536E-2,9.493689E-3,3.1576887E-2,1.8692667E-2,-8.262518E-3,2.0886106E-2,-2.4668445E-5,-2.354515E-2,-5.088389E-3,-1.590396E-2,1.2750091E-2,-3.4077015E-2,-2.027892E-2,-3.936168E-2,1.0990269E-2,-3.2833412E-2,3.2723077E-2,-4.298617E-2,2.5069684E-2,-4.3994073E-2,1.1740277E-2,5.348285E-3,-1.562597E-2,1.8987298E-2,1.093243E-2,-4.5912337E-4,2.315729E-2,-1.062073E-2,1.7489716E-2,2.2566158E-2,1.59757E-2],"categories":[],"categories_nodes":[],"categories_segments":[],"categories_sizes":[],"default_left":[0,0,0,0,0,0,0,0,0,0,0,0,0,0,0,0,0,0,0,0,0,0,0,0,0,0,0,0,0,0,0,0,0,0,0,0,0,0,0,0,0,0,0,0,0,0,0,0,0,0,0,0,0,0,0,0,0,0,0,0,0,0,0,0,0,0,0,0,0,0,0,0,0,0,0,0,0,0,0,0,0,0,0,0,0,0,0,0,0,0,0,0,0,0,0,0,0,0,0,0,0,0,0,0,0,0,0,0,0,0,0,0,0,0,0,0,0,0,0,0,0],"id":8,"left_children":[1,3,5,7,9,11,13,15,17,19,21,23,25,27,29,31,33,35,37,39,41,43,45,47,49,51,53,55,57,59,61,63,65,67,69,71,73,75,77,79,81,83,85,87,89,91,-1,93,95,97,99,101,103,-1,105,107,-1,109,111,113,115,117,119,-1,-1,-1,-1,-1,-1,-1,-1,-1,-1,-1,-1,-1,-1,-1,-1,-1,-1,-1,-1,-1,-1,-1,-1,-1,-1,-1,-1,-1,-1,-1,-1,-1,-1,-1,-1,-1,-1,-1,-1,-1,-1,-1,-1,-1,-1,-1,-1,-1,-1,-1,-1,-1,-1,-1,-1,-1,-1],"loss_changes":[3.007054E2,3.9375366E1,7.6024124E1,2.7981293E1,8.692032E0,5.674014E1,1.4728683E1,7.163986E0,2.6095573E1,4.5681973E0,2.4203548E0,5.3172318E1,5.0019417E0,4.16483E0,1.1793015E1,1.2755356E0,7.4785233E0,1.2911881E1,1.5842346E1,1.0964382E0,2.393374E0,1.6849749E0,1.2812157E0,1.977296E1,2.8622948E1,3.878315E0,1.7063246E0,5.984957E-1,3.6238935E0,1.4711121E1,1.5840988E0,2.3109417E0,7.125473E-1,3.0192983E0,6.4071655E0,4.8798046E0,8.789816E0,1.254258E1,7.874949E0,1.3681602E-1,2.5178498E-1,2.1395252E0,3.7642646E-1,5.274283E-1,1.759536E0,1.095295E0,0E0,1.7040306E1,4.3912497E0,4.5682735E0,2.129744E1,2.9410782E0,1.6750048E0,0E0,7.1036136E-1,1.111069E0,0E0,4.1254044E-1,3.2525315E0,5.6875305E0,9.195896E0,1.7426996E0,1.1619873E0,0E0,0E0,0E0,0E0,0E0,0E0,0E0,0E0,0E0,0E0,0E0,0E0,0E0,0E0,0E0,0E0,0E0,0E0,0E0,0E0,0E0,0E0,0E0,0E0,0E0,0E0,0E0,0E0,0E0,0E0,0E0,0E0,0E0,0E0,0E0,0E0,0E0,0E0,0E0,0E0,0E0,0E0,0E0,0E0,0E0,0E0,0E0,0E0,0E0,0E0,0E0,0E0,0E0,0E0,0E0,0E0,0E0,0E0],"parents":[2147483647,0,0,1,1,2,2,3,3,4,4,5,5,6,6,7,7,8,8,9,9,10,10,11,11,12,12,13,13,14,14,15,15,16,16,17,17,18,18,19,19,20,20,21,21,22,22,23,23,24,24,25,25,26,26,27,27,28,28,29,29,30,30,31,31,32,32,33,33,34,34,35,35,36,36,37,37,38,38,39,39,40,40,41,41,42,42,43,43,44,44,45,45,47,47,48,48,49,49,50,50,51,51,52,52,54,54,55,55,57,57,58,58,59,59,60,60,61,61,62,62],"right_children":[2,4,6,8,10,12,14,16,18,20,22,24,26,28,30,32,34,36,38,40,42,44,46,48,50,52,54,56,58,60,62,64,66,68,70,72,74,76,78,80,82,84,86,88,90,92,-1,94,96,98,100,102,104,-1,106,108,-1,110,112,114,116,118,120,-1,-1,-1,-1,-1,-1,-1,-1,-1,-1,-1,-1,-1,-1,-1,-1,-1,-1,-1,-1,-1,-1,-1,-1,-1,-1,-1,-1,-1,-1,-1,-1,-1,-1,-1,-1,-1,-1,-1,-1,-1,-1,-1,-1,-1,-1,-1,-1,-1,-1,-1,-1,-1,-1,-1,-1,-1,-1],"split_conditions":[1.2822929E-2,1.514E-1,3.226646E-2,-4.313E-2,-1.047E-2,1.4723E-1,-1.3306E-1,-1.3506E-1,-5.7483865E-3,-8.223E-2,-5.566189E-3,-3.4814123E-3,1.8981E-1,-1.1955E-1,4.6490327E-2,-1.971E-2,-1.5788E-1,-1.1048628E-2,2.6385676E-2,1.50619345E-2,1.2208E-1,3.114E-2,4.672198E-2,1.3631E-1,-1.1383E-1,1.4128E-1,-1.7450646E-2,-2.4033E-1,-2.6355E-1,8.609563E-3,-1.0507E-1,-1.3618002E-2,6.1848767E-2,-6.0331174E-3,2.9250016E-2,-1.2493E-1,-6.109E-2,1.691E-2,5.16E-2,-1.478E-2,1.4776784E-2,-8.677824E-3,1.5897E-1,2.1827E-1,-8.762E-2,-2.0802643E-2,-2.9395172E-2,-1.5313E-1,9.275916E-3,-2.634E-2,-1.5023E-1,1.4424569E-3,-2.3653468E-2,-4.300339E-2,-1.0465E-1,1.632E-2,2.7168443E-2,1.7079E-1,-2.0758028E-3,7.09E-3,1.4152E-1,-1.0036206E-2,1.6204119E-2,-4.7435793E-3,-2.4011703E-2,-2.7334804E-2,1.70814E-2,-1.2783319E-2,2.0500945E-2,-1.9343546E-2,5.6501715E-3,2.0341298E-2,-1.6218243E-2,2.0377448E-2,1.1130907E-3,-1.8958688E-2,-8.8005E-3,1.5837237E-2,-1.6457016E-2,4.5462206E-2,1.8047761E-2,-2.4644498E-2,1.9800356E-2,-2.243494E-2,5.6387517E-3,-3.334821E-2,7.896182E-3,-3.1759452E-2,8.067255E-3,-2.6667614E-2,3.1404536E-2,9.493689E-3,3.1576887E-2,1.8692667E-2,-8.262518E-3,2.0886106E-2,-2.4668445E-5,-2.354515E-2,-5.088389E-3,-1.590396E-2,1.2750091E-2,-3.4077015E-2,-2.027892E-2,-3.936168E-2,1.0990269E-2,-3.2833412E-2,3.2723077E-2,-4.298617E-2,2.5069684E-2,-4.3994073E-2,1.1740277E-2,5.348285E-3,-1.562597E-2,1.8987298E-2,1.093243E-2,-4.5912337E-4,2.315729E-2,-1.062073E-2,1.7489716E-2,2.2566158E-2,1.59757E-2],"split_indices":[9,5,9,2,3,6,5,2,1,6,9,0,3,6,9,6,6,0,0,8,6,3,1,4,3,4,0,5,5,8,4,8,0,0,0,6,6,4,6,3,0,9,2,5,4,7,0,6,1,2,4,7,0,0,5,3,0,2,1,6,3,0,8,0,0,0,0,0,0,0,0,0,0,0,0,0,0,0,0,0,0,0,0,0,0,0,0,0,0,0,0,0,0,0,0,0,0,0,0,0,0,0,0,0,0,0,0,0,0,0,0,0,0,0,0,0,0,0,0,0,0],"split_type":[0,0,0,0,0,0,0,0,0,0,0,0,0,0,0,0,0,0,0,0,0,0,0,0,0,0,0,0,0,0,0,0,0,0,0,0,0,0,0,0,0,0,0,0,0,0,0,0,0,0,0,0,0,0,0,0,0,0,0,0,0,0,0,0,0,0,0,0,0,0,0,0,0,0,0,0,0,0,0,0,0,0,0,0,0,0,0,0,0,0,0,0,0,0,0,0,0,0,0,0,0,0,0,0,0,0,0,0,0,0,0,0,0,0,0,0,0,0,0,0,0],"sum_hessian":[3.2125E4,1.1801E4,2.0324E4,1.1293E4,5.08E2,1.2285E4,8.039E3,4.167E3,7.126E3,2.01E2,3.07E2,1.1566E4,7.19E2,3.72E2,7.667E3,1.676E3,2.491E3,1.678E3,5.448E3,2.9E1,1.72E2,4.3E1,2.64E2,4.537E3,7.029E3,6.94E2,2.5E1,4.9E1,3.23E2,5.012E3,2.655E3,4.57E2,1.219E3,1.14E2,2.377E3,4.74E2,1.204E3,5.081E3,3.67E2,2.5E1,4E0,1.37E2,3.5E1,1.6E1,2.7E1,2.61E2,3E0,4.053E3,4.84E2,6.15E2,6.414E3,6.5E2,4.4E1,3E0,2.2E1,8E0,4.1E1,2.9E1,2.94E2,3.805E3,1.207E3,1.02E2,2.553E3,7.5E1,3.82E2,1.216E3,3E0,4.3E1,7.1E1,2.27E3,1.07E2,3.9E1,4.35E2,3.23E2,8.81E2,3.06E3,2.021E3,2.62E2,1.05E2,2.1E1,4E0,3E0,1E0,3.6E1,1.01E2,3.3E1,2E0,1.2E1,4E0,6E0,2.1E1,2.6E1,2.35E2,2.49E2,3.804E3,3.42E2,1.42E2,1.97E2,4.18E2,2.7E2,6.144E3,3.78E2,2.72E2,7E0,3.7E1,1E0,2.1E1,3E0,5E0,2.8E1,1E0,1.46E2,1.48E2,2.423E3,1.382E3,1.011E3,1.96E2,3.1E1,7.1E1,2.236E3,3.17E2],"tree_param":{"num_deleted":"0","num_feature":"10","num_nodes":"121","size_leaf_vector":"1"}},{"base_weights":[-1.1619402E-5,-1.07907504E-1,7.033958E-2,-1.1968181E-1,1.4524356E-1,2.5073849E-2,1.4296024E-1,-1.3101587E-1,1.0396835E-1,-6.2029E-2,1.9789045E-1,-7.25642E-3,1.4969504E-1,1.7516118E-1,7.0725575E-2,-1.0208567E-1,-2.0737287E-1,-9.181799E-2,1.5103546E-1,-1.0657685E-1,3.6883953E-1,2.3004906E-1,-1.4691046E-1,1.13031445E-2,-2.3953065E-1,-7.653248E-2,1.6374551E-1,-3.3902392E-1,1.7903908E-1,-1.4251485E-3,1.4887927E-1,-2.1404006E-1,-7.785392E-2,-1.8228143E-1,-2.532818E-1,1.6965488E-1,-1.7892143E-1,-1.4676815E-1,1.8046458E-1,1.7590876E-1,-1.5933728E-1,-1.5283315E-2,4.3629013E-2,2.3771103E-1,-3.280292E-2,-3.159565E-1,1.158405E-1,-1.6138723E-1,3.4359653E-2,-2.634625E-1,-2.2455523E-2,-1.9684388E-1,1.5599605E-1,2.011229E-1,1.02296375E-1,-4.1172633E-1,-8.70143E-2,-7.720123E-2,1.8572211E-1,-7.706355E-2,1.0593547E-1,-2.0487155E-1,1.602901E-1,-2.41617E-2,-1.8545905E-2,-1.4768334E-2,-3.1140957E-3,-1.9378861E-2,-2.613735E-3,-2.5645558E-2,6.03428E-3,-1.1664155E-2,3.2647625E-2,2.7696982E-2,-2.1048224E-2,-3.3837542E-2,5.151039E-3,-3.7773082E-3,2.1459242E-2,-1.806983E-2,3.8684882E-2,-1.9371709E-2,2.1297276E-2,-2.3152927E-2,2.4530945E-2,-3.488168E-2,2.199152E-2,-2.4797304E-2,3.037533E-2,-1.807466E-2,7.590858E-3,-1.3568946E-3,1.0952669E-2,-1.6598789E-2,-2.9939253E-2,-1.5644975E-2,1.8890882E-2,-2.4021616E-2,3.1027824E-2,2.2286858E-2,-3.715472E-2,-2.7403742E-2,2.0396087E-2,5.1582684E-3,2.238884E-2,-1.8099723E-2,-4.4026166E-2,-2.5229413E-2,2.2397896E-2,-2.4694985E-2,4.8892493E-3,-2.1745411E-3,1.9210428E-2,5.5483E-3,-1.6950076E-2,-8.618439E-3,1.3718243E-2,3.6779486E-2,-3.3603683E-2,1.6605636E-2,-4.1098673E-2],"categories":[],"categories_nodes":[],"categories_segments":[],"categories_sizes":[],"default_left":[0,0,0,0,0,0,0,0,0,0,0,0,0,0,0,0,0,0,0,0,0,0,0,0,0,0,0,0,0,0,0,0,0,0,0,0,0,0,0,0,0,0,0,0,0,0,0,0,0,0,0,0,0,0,0,0,0,0,0,0,0,0,0,0,0,0,0,0,0,0,0,0,0,0,0,0,0,0,0,0,0,0,0,0,0,0,0,0,0,0,0,0,0,0,0,0,0,0,0,0,0,0,0,0,0,0,0,0,0,0,0,0,0,0,0,0,0,0,0,0,0],"id":9,"left_children":[1,3,5,7,9,11,13,15,17,19,21,23,25,27,29,31,33,35,37,39,41,43,45,47,49,51,53,55,57,59,61,63,65,67,69,71,73,75,77,79,81,-1,-1,83,-1,85,87,89,91,93,95,97,99,101,103,105,107,109,111,113,115,117,119,-1,-1,-1,-1,-1,-1,-1,-1,-1,-1,-1,-1,-1,-1,-1,-1,-1,-1,-1,-1,-1,-1,-1,-1,-1,-1,-1,-1,-1,-1,-1,-1,-1,-1,-1,-1,-1,-1,-1,-1,-1,-1,-1,-1,-1,-1,-1,-1,-1,-1,-1,-1,-1,-1,-1,-1,-1,-1],"loss_changes":[2.4386337E2,3.7812393E1,6.392311E1,3.0728577E1,6.166788E0,4.8272976E1,1.7356033E1,2.545549E1,5.4047003E0,2.2466507E0,5.0235386E0,4.1016693E1,7.8573227E0,1.0357468E1,1.2992116E1,2.2679047E1,3.603119E0,2.626726E0,4.1631393E0,1.5929555E0,4.5373797E-1,1.8396778E0,1.7688639E0,3.5087753E1,3.651371E0,4.0872025E0,5.317211E0,6.7872E-1,8.792419E0,9.744745E0,4.497303E0,1.1279907E0,2.243428E1,3.6819077E0,1.1273117E0,1.340105E0,1.2956913E0,1.6510689E0,3.2107372E0,1.348689E0,1.1804514E0,0E0,0E0,1.5079517E0,0E0,4.9932408E-1,1.169166E0,4.782181E0,2.8008493E1,2.1707382E0,2.0403883E0,2.1860578E0,1.8467133E0,2.003109E0,5.421032E0,1.17832184E-1,5.705176E-1,2.8160288E0,6.6193542E0,8.634976E0,2.9893909E0,2.7525811E0,3.5995483E0,0E0,0E0,0E0,0E0,0E0,0E0,0E0,0E0,0E0,0E0,0E0,0E0,0E0,0E0,0E0,0E0,0E0,0E0,0E0,0E0,0E0,0E0,0E0,0E0,0E0,0E0,0E0,0E0,0E0,0E0,0E0,0E0,0E0,0E0,0E0,0E0,0E0,0E0,0E0,0E0,0E0,0E0,0E0,0E0,0E0,0E0,0E0,0E0,0E0,0E0,0E0,0E0,0E0,0E0,0E0,0E0,0E0,0E0],"parents":[2147483647,0,0,1,1,2,2,3,3,4,4,5,5,6,6,7,7,8,8,9,9,10,10,11,11,12,12,13,13,14,14,15,15,16,16,17,17,18,18,19,19,20,20,21,21,22,22,23,23,24,24,25,25,26,26,27,27,28,28,29,29,30,30,31,31,32,32,33,33,34,34,35,35,36,36,37,37,38,38,39,39,40,40,43,43,45,45,46,46,47,47,48,48,49,49,50,50,51,51,52,52,53,53,54,54,55,55,56,56,57,57,58,58,59,59,60,60,61,61,62,62],"right_children":[2,4,6,8,10,12,14,16,18,20,22,24,26,28,30,32,34,36,38,40,42,44,46,48,50,52,54,56,58,60,62,64,66,68,70,72,74,76,78,80,82,-1,-1,84,-1,86,88,90,92,94,96,98,100,102,104,106,108,110,112,114,116,118,120,-1,-1,-1,-1,-1,-1,-1,-1,-1,-1,-1,-1,-1,-1,-1,-1,-1,-1,-1,-1,-1,-1,-1,-1,-1,-1,-1,-1,-1,-1,-1,-1,-1,-1,-1,-1,-1,-1,-1,-1,-1,-1,-1,-1,-1,-1,-1,-1,-1,-1,-1,-1,-1,-1,-1,-1,-1,-1],"split_conditions":[1.41991675E-2,1.514E-1,6.384E-2,1.6033E-1,-5.566189E-3,1.1207E-1,5.57817E-3,6.355E-2,-4.3171174E-3,4.1807234E-2,1.2208E-1,1.2699E-1,-1.2631E-1,-2.2123E-1,3.726E-2,-9.8756915E-3,1.5562E-1,-2.344E-2,-2.242331E-2,-5.063E-2,-2.6174E-1,4.9156632E-2,1.9240502E-2,-9.868E-2,2.3354923E-2,1.022673E-2,1.132E-2,7.0042005E-3,-3.430796E-2,1.4126E-1,-1.5469E-1,-1.7361686E-2,-6.7792013E-3,1.2354E-1,2.1198E-1,-5.636713E-3,-1.656255E-2,5.81E-3,-9.273E-2,-7.796E-2,9.835E-2,-1.5283315E-2,4.3629013E-2,-1.8571E-1,-3.280292E-2,3.0506993E-2,-2.071E-2,1.6033E-1,5.916E-2,-6.3139712E-3,5.675943E-3,2.5192386E-2,7.123E-2,-2.5036E-1,4.557E-2,-1.5666697E-2,1.3884E-1,-9.75E-3,-1.5034E-1,-5.56712E-3,-5.535E-2,-6.893E-2,1.9507E-1,-2.41617E-2,-1.8545905E-2,-1.4768334E-2,-3.1140957E-3,-1.9378861E-2,-2.613735E-3,-2.5645558E-2,6.03428E-3,-1.1664155E-2,3.2647625E-2,2.7696982E-2,-2.1048224E-2,-3.3837542E-2,5.151039E-3,-3.7773082E-3,2.1459242E-2,-1.806983E-2,3.8684882E-2,-1.9371709E-2,2.1297276E-2,-2.3152927E-2,2.4530945E-2,-3.488168E-2,2.199152E-2,-2.4797304E-2,3.037533E-2,-1.807466E-2,7.590858E-3,-1.3568946E-3,1.0952669E-2,-1.6598789E-2,-2.9939253E-2,-1.5644975E-2,1.8890882E-2,-2.4021616E-2,3.1027824E-2,2.2286858E-2,-3.715472E-2,-2.7403742E-2,2.0396087E-2,5.1582684E-3,2.238884E-2,-1.8099723E-2,-4.4026166E-2,-2.5229413E-2,2.2397896E-2,-2.4694985E-2,4.8892493E-3,-2.1745411E-3,1.9210428E-2,5.5483E-3,-1.6950076E-2,-8.618439E-3,1.3718243E-2,3.6779486E-2,-3.3603683E-2,1.6605636E-2,-4.1098673E-2],"split_indices":[9,5,2,3,9,4,8,6,9,0,6,6,3,4,3,9,6,6,0,6,2,1,1,5,0,0,6,7,0,2,4,9,0,2,4,0,1,2,4,2,3,0,0,4,0,0,3,3,3,1,7,7,6,5,5,1,2,3,3,1,4,6,6,0,0,0,0,0,0,0,0,0,0,0,0,0,0,0,0,0,0,0,0,0,0,0,0,0,0,0,0,0,0,0,0,0,0,0,0,0,0,0,0,0,0,0,0,0,0,0,0,0,0,0,0,0,0,0,0,0,0],"split_type":[0,0,0,0,0,0,0,0,0,0,0,0,0,0,0,0,0,0,0,0,0,0,0,0,0,0,0,0,0,0,0,0,0,0,0,0,0,0,0,0,0,0,0,0,0,0,0,0,0,0,0,0,0,0,0,0,0,0,0,0,0,0,0,0,0,0,0,0,0,0,0,0,0,0,0,0,0,0,0,0,0,0,0,0,0,0,0,0,0,0,0,0,0,0,0,0,0,0,0,0,0,0,0,0,0,0,0,0,0,0,0,0,0,0,0,0,0,0,0,0,0],"sum_hessian":[3.2125E4,1.2679E4,1.9446E4,1.2116E4,5.63E2,1.198E4,7.466E3,1.1532E4,5.84E2,1.14E2,4.49E2,9.513E3,2.467E3,5.163E3,2.303E3,8.365E3,3.167E3,1.13E2,4.71E2,1.04E2,1E1,4.11E2,3.8E1,8.81E3,7.03E2,1.44E2,2.323E3,3.8E1,5.125E3,1.198E3,1.105E3,1.487E3,6.878E3,2.051E3,1.116E3,2.8E1,8.5E1,4.2E1,4.29E2,1.6E1,8.8E1,1E0,9E0,4.06E2,5E0,2.3E1,1.5E1,1.037E3,7.773E3,6.33E2,7E1,9.5E1,4.9E1,1.443E3,8.8E2,2.9E1,9E0,1.3E2,4.995E3,7.03E2,4.95E2,3.4E1,1.071E3,7.53E2,7.34E2,2.756E3,4.122E3,1.91E3,1.41E2,1.105E3,1.1E1,1E1,1.8E1,5E0,8E1,2.1E1,2.1E1,5.8E1,3.71E2,6E0,1E1,8.1E1,7E0,6E0,4E2,2.2E1,1E0,5E0,1E1,9.59E2,7.8E1,4.747E3,3.026E3,1.72E2,4.61E2,4.3E1,2.7E1,8.8E1,7E0,4.4E1,5E0,8E0,1.435E3,6.22E2,2.58E2,4E0,2.5E1,6E0,3E0,5.5E1,7.5E1,1.49E2,4.846E3,2.89E2,4.14E2,6.9E1,4.26E2,6E0,2.8E1,1.061E3,1E1],"tree_param":{"num_deleted":"0","num_feature":"10","num_nodes":"121","size_leaf_vector":"1"}},{"base_weights":[-1.6688093E-5,-6.3840486E-2,9.945227E-2,-8.12521E-2,1.2656899E-1,-1.1863084E-1,1.09508805E-1,-1.753337E-1,-4.9408004E-2,-8.097031E-2,1.4828587E-1,-1.5920381E-1,1.07109465E-1,3.2785103E-2,1.325207E-1,-2.2451372E-1,-1.4097826E-1,-7.735551E-2,7.044166E-2,4.715768E-2,-2.199773E-1,-1.5759577E-1,1.6038312E-1,-1.936115E-1,5.8161236E-2,-2.4382542E-1,1.5715179E-1,1.4722692E-3,1.8491073E-1,1.4050832E-1,-3.215124E-2,2.3549521E-1,-2.2587839E-1,-2.1043146E-1,-1.0260246E-1,-1.6467409E-1,-4.4486497E-2,-6.326915E-3,1.349497E-1,1.4071763E-1,-1.8480878E-1,1.4840792E-1,-2.5416163E-1,-2.6845035E-1,3.303826E-1,2.0340359E-1,8.636436E-2,-2.1451727E-1,1.4807682E-1,-1.6034956E-1,1.9873923E-1,-4.336531E-2,1.9678634E-2,-1.8589774E-1,1.9519949E-1,1.9710691E-1,-2.7088977E-2,-1.7014311E-1,1.9452198E-1,1.6934885E-1,1.0235681E-1,-9.008554E-2,1.9596004E-1,3.584697E-2,-1.8968862E-2,-2.2993127E-2,-6.482066E-3,1.0099416E-3,-2.1812981E-2,-2.2750746E-2,-7.1165785E-3,-2.6489615E-2,-1.342409E-2,2.1250218E-3,-9.241878E-3,1.6897969E-2,-3.8977352E-3,-1.6888702E-2,1.5406981E-2,-1.4274304E-2,2.3207745E-2,-3.1883698E-2,1.2310228E-2,-2.4033202E-2,3.519703E-2,-2.7611623E-2,1.716294E-2,3.2293092E-2,-3.1611115E-2,4.1785117E-2,7.284978E-3,9.028482E-3,2.2782657E-2,-3.4594785E-3,1.6104959E-2,-2.3700496E-2,6.8160086E-3,5.438444E-3,3.6784627E-2,2.2222538E-2,-2.6202101E-2,-3.3693176E-2,2.3579907E-2,-3.662272E-2,2.3672711E-2,7.778411E-3,2.5747646E-2,-2.5049148E-2,2.0733716E-2,-1.3759494E-2,1.9463137E-3,3.268749E-2,-2.9022593E-2,2.029871E-2,-1.7023146E-2,1.858371E-3,1.745717E-2,7.1284655E-3,1.7517926E-2,-1.7002722E-2,6.9190855E-3,-3.921078E-2,2.1440998E-2],"categories":[],"categories_nodes":[],"categories_segments":[],"categories_sizes":[],"default_left":[0,0,0,0,0,0,0,0,0,0,0,0,0,0,0,0,0,0,0,0,0,0,0,0,0,0,0,0,0,0,0,0,0,0,0,0,0,0,0,0,0,0,0,0,0,0,0,0,0,0,0,0,0,0,0,0,0,0,0,0,0,0,0,0,0,0,0,0,0,0,0,0,0,0,0,0,0,0,0,0,0,0,0,0,0,0,0,0,0,0,0,0,0,0,0,0,0,0,0,0,0,0,0,0,0,0,0,0,0,0,0,0,0,0,0,0,0,0,0,0,0,0,0],"id":10,"left_children":[1,3,5,7,9,11,13,15,17,19,21,23,25,27,29,31,33,35,37,39,41,43,45,47,49,51,53,55,57,59,61,63,65,67,69,71,73,75,77,79,81,83,85,87,89,91,93,95,97,99,101,-1,-1,103,105,107,109,111,113,115,117,119,121,-1,-1,-1,-1,-1,-1,-1,-1,-1,-1,-1,-1,-1,-1,-1,-1,-1,-1,-1,-1,-1,-1,-1,-1,-1,-1,-1,-1,-1,-1,-1,-1,-1,-1,-1,-1,-1,-1,-1,-1,-1,-1,-1,-1,-1,-1,-1,-1,-1,-1,-1,-1,-1,-1,-1,-1,-1,-1,-1,-1],"loss_changes":[2.0395781E2,6.4891426E1,2.7552505E1,5.3711586E1,7.40366E0,5.091112E0,2.1189407E1,7.629013E0,4.488204E1,2.7888408E0,5.520256E0,3.5264044E0,1.5310532E0,1.3199345E1,1.215036E1,1.222702E0,7.1001472E0,3.1176048E1,1.2549705E1,1.8056331E0,9.821949E-1,3.1720862E0,4.532833E0,2.9319267E0,2.028525E0,1.0053804E0,1.015206E0,1.2851161E1,1.6472149E0,9.673096E0,5.673873E0,3.817182E-1,1.1978989E0,1.6150398E0,6.749338E0,9.026222E0,2.4878399E1,6.63479E0,8.025555E0,1.5610454E0,1.0297E0,6.385195E-1,6.924062E-1,1.4268103E0,2.1734583E-1,2.474144E0,4.7664165E0,2.4507923E0,4.7417217E-1,1.0695482E0,8.7352324E-1,0E0,0E0,6.9638956E-1,4.7720695E-1,1.3935957E0,1.032726E1,8.707508E-1,1.4579735E0,3.9449005E0,8.572388E0,4.3663893E0,1.0280051E0,0E0,0E0,0E0,0E0,0E0,0E0,0E0,0E0,0E0,0E0,0E0,0E0,0E0,0E0,0E0,0E0,0E0,0E0,0E0,0E0,0E0,0E0,0E0,0E0,0E0,0E0,0E0,0E0,0E0,0E0,0E0,0E0,0E0,0E0,0E0,0E0,0E0,0E0,0E0,0E0,0E0,0E0,0E0,0E0,0E0,0E0,0E0,0E0,0E0,0E0,0E0,0E0,0E0,0E0,0E0,0E0,0E0,0E0,0E0,0E0],"parents":[2147483647,0,0,1,1,2,2,3,3,4,4,5,5,6,6,7,7,8,8,9,9,10,10,11,11,12,12,13,13,14,14,15,15,16,16,17,17,18,18,19,19,20,20,21,21,22,22,23,23,24,24,25,25,26,26,27,27,28,28,29,29,30,30,31,31,32,32,33,33,34,34,35,35,36,36,37,37,38,38,39,39,40,40,41,41,42,42,43,43,44,44,45,45,46,46,47,47,48,48,49,49,50,50,53,53,54,54,55,55,56,56,57,57,58,58,59,59,60,60,61,61,62,62],"right_children":[2,4,6,8,10,12,14,16,18,20,22,24,26,28,30,32,34,36,38,40,42,44,46,48,50,52,54,56,58,60,62,64,66,68,70,72,74,76,78,80,82,84,86,88,90,92,94,96,98,100,102,-1,-1,104,106,108,110,112,114,116,118,120,122,-1,-1,-1,-1,-1,-1,-1,-1,-1,-1,-1,-1,-1,-1,-1,-1,-1,-1,-1,-1,-1,-1,-1,-1,-1,-1,-1,-1,-1,-1,-1,-1,-1,-1,-1,-1,-1,-1,-1,-1,-1,-1,-1,-1,-1,-1,-1,-1,-1,-1,-1,-1,-1,-1,-1,-1,-1,-1,-1,-1],"split_conditions":[2.4601758E-2,1.4126E-1,-1.2285E-1,-6.763E-2,-1.2234E-1,8.164E-2,-9.141449E-3,-1.5175E-1,8.482E-2,1.02E-3,-1.5963E-1,1.151E-1,-2.2345E-1,4.8245247E-2,1.2699E-1,-2.6784E-1,-4.732E-2,-5.187E-2,-1.2906058E-3,8.267051E-3,-2.234875E-2,2.003393E-2,1.49E-2,1.6527E-1,-6.0621654E-3,6.421E-2,-8.548E-2,-1.127E-1,-1.6166E-1,1.0030105E-3,1.3003E-1,1.6138427E-2,3.7283383E-2,-1.4647E-1,-8.985E-2,-1.6539E-1,1.1520254E-3,-1.5666697E-2,-1.6202E-1,-5.324E-2,2.1671E-1,-2.0655E-1,1.6033E-1,-1.9336844E-2,2.066E-2,-1.2463516E-2,-9.75E-3,2.5237417E-2,1.2810124E-2,-8.457E-2,-2.2345E-1,-4.336531E-2,1.9678634E-2,1.129722E-2,3.897693E-3,-1.5023E-1,-1.555E-2,-3.655721E-2,2.9301167E-2,-1.4055E-1,6.817E-2,3.802187E-2,-1.2392E-1,3.584697E-2,-1.8968862E-2,-2.2993127E-2,-6.482066E-3,1.0099416E-3,-2.1812981E-2,-2.2750746E-2,-7.1165785E-3,-2.6489615E-2,-1.342409E-2,2.1250218E-3,-9.241878E-3,1.6897969E-2,-3.8977352E-3,-1.6888702E-2,1.5406981E-2,-1.4274304E-2,2.3207745E-2,-3.1883698E-2,1.2310228E-2,-2.4033202E-2,3.519703E-2,-2.7611623E-2,1.716294E-2,3.2293092E-2,-3.1611115E-2,4.1785117E-2,7.284978E-3,9.028482E-3,2.2782657E-2,-3.4594785E-3,1.6104959E-2,-2.3700496E-2,6.8160086E-3,5.438444E-3,3.6784627E-2,2.2222538E-2,-2.6202101E-2,-3.3693176E-2,2.3579907E-2,-3.662272E-2,2.3672711E-2,7.778411E-3,2.5747646E-2,-2.5049148E-2,2.0733716E-2,-1.3759494E-2,1.9463137E-3,3.268749E-2,-2.9022593E-2,2.029871E-2,-1.7023146E-2,1.858371E-3,1.745717E-2,7.1284655E-3,1.7517926E-2,-1.7002722E-2,6.9190855E-3,-3.921078E-2,2.1440998E-2],"split_indices":[9,2,2,3,4,5,0,3,4,6,5,3,2,9,6,6,5,5,0,1,1,0,6,4,7,3,4,6,4,8,3,1,0,6,4,5,1,1,2,5,2,4,3,8,3,0,3,0,1,6,2,0,0,0,0,4,3,1,8,3,5,9,5,0,0,0,0,0,0,0,0,0,0,0,0,0,0,0,0,0,0,0,0,0,0,0,0,0,0,0,0,0,0,0,0,0,0,0,0,0,0,0,0,0,0,0,0,0,0,0,0,0,0,0,0,0,0,0,0,0,0,0,0],"split_type":[0,0,0,0,0,0,0,0,0,0,0,0,0,0,0,0,0,0,0,0,0,0,0,0,0,0,0,0,0,0,0,0,0,0,0,0,0,0,0,0,0,0,0,0,0,0,0,0,0,0,0,0,0,0,0,0,0,0,0,0,0,0,0,0,0,0,0,0,0,0,0,0,0,0,0,0,0,0,0,0,0,0,0,0,0,0,0,0,0,0,0,0,0,0,0,0,0,0,0,0,0,0,0,0,0,0,0,0,0,0,0,0,0,0,0,0,0,0,0,0,0,0,0],"sum_hessian":[3.2125E4,1.9569E4,1.2556E4,1.793E4,1.639E3,5.53E2,1.2003E4,4.533E3,1.3397E4,1.55E2,1.484E3,4.69E2,8.4E1,2.77E3,9.233E3,1.862E3,2.671E3,1.0864E4,2.533E3,8.1E1,7.4E1,5.6E1,1.428E3,4.05E2,6.4E1,1E1,7.4E1,2.298E3,4.72E2,8.806E3,4.27E2,5E0,1.857E3,9.49E2,1.722E3,2.97E3,7.894E3,1.157E3,1.376E3,5.8E1,2.3E1,6E0,6.8E1,4.6E1,1E1,9.02E2,5.26E2,3.82E2,2.3E1,2.5E1,3.9E1,7E0,3E0,7E0,6.7E1,2.92E2,2.006E3,1.2E1,4.6E2,5.013E3,3.793E3,3.41E2,8.6E1,4E0,1E0,1.811E3,4.6E1,3.2E1,9.17E2,3.45E2,1.377E3,6.9E2,2.28E3,3.329E3,4.565E3,1.81E2,9.76E2,8.1E1,1.295E3,1.4E1,4.4E1,1.6E1,7E0,2E0,4E0,6.5E1,3E0,3E0,4.3E1,7E0,3E0,1.61E2,7.41E2,2.01E2,3.25E2,3.54E2,2.8E1,1.7E1,6E0,5E0,2E1,2E0,3.7E1,5E0,2E0,2.4E1,4.3E1,6E0,2.86E2,5.94E2,1.412E3,2E0,1E1,4.5E2,1E1,1.68E2,4.845E3,2.66E3,1.133E3,2.27E2,1.14E2,2E0,8.4E1],"tree_param":{"num_deleted":"0","num_feature":"10","num_nodes":"123","size_leaf_vector":"1"}},{"base_weights":[-1.5006067E-5,-9.891409E-2,5.2726764E-2,-1.0911789E-1,1.04202494E-1,-1.510305E-1,6.5958574E-2,-1.6341878E-1,-7.663023E-2,-1.27762E-2,1.938125E-1,-1.7395087E-1,1.14933245E-1,-1.2826061E-1,7.847917E-2,-1.9713666E-1,-1.2725012E-1,-1.0188245E-1,3.31548E-2,4.306936E-2,-2.4704362E-1,1.6127126E-2,2.2637142E-1,-1.9991973E-1,-1.569657E-2,1.7206E-1,-2.564392E-1,-3.2899222E-1,-8.7702125E-2,4.0544566E-2,1.3527311E-1,-1.292962E-1,-2.0555533E-1,3.3804245E-2,-1.485986E-1,-7.283358E-2,-1.6968985E-1,6.457624E-2,-1.6210406E-1,-3.8584427E-3,3.0211443E-1,-2.7021194E-2,-5.1414263E-2,2.913131E-1,-9.440805E-2,-1.5310794E-1,2.4081849E-1,-2.1578357E-1,-2.4558453E-2,-1.5958732E-1,7.078737E-2,-2.775439E-2,2.0790538E-1,-3.081412E-2,2.0784339E-2,-3.4287092E-1,1.7689797E-1,-1.256396E-1,1.1979908E-1,1.9672212E-1,2.1243837E-2,-5.6967024E-2,1.4200088E-1,-1.52957905E-2,1.7616851E-2,7.7293476E-4,-2.0803554E-2,-9.296912E-3,1.2153648E-2,-2.1550572E-2,-1.2410066E-2,-9.498419E-3,4.563467E-3,-1.7270235E-2,3.897418E-2,-8.351173E-3,1.1007707E-2,-1.9356271E-2,3.7002843E-2,-6.2507936E-3,1.6932318E-2,-1.947283E-2,3.4612976E-2,-1.7195037E-2,2.756331E-2,-3.1124849E-2,3.616062E-2,-2.5166253E-2,1.5944956E-2,-3.1417545E-2,3.2744147E-2,5.9189228E-5,2.6430467E-2,-2.332807E-2,-7.951337E-3,-1.7053388E-2,2.1063114E-2,-2.0703828E-2,2.4959715E-2,1.2529633E-2,-2.9247055E-2,-9.504701E-3,2.3705952E-2,-3.8171973E-2,-1.9226171E-2,-2.2580763E-2,3.0260062E-2,-1.6312197E-2,4.372968E-3,1.9720051E-2,-1.393834E-2,-8.297997E-3,2.0004064E-2,-1.1660613E-3,1.1084768E-2,-1.1131386E-2,1.8765073E-2,1.4482026E-2,-1.9940097E-2],"categories":[],"categories_nodes":[],"categories_segments":[],"categories_sizes":[],"default_left":[0,0,0,0,0,0,0,0,0,0,0,0,0,0,0,0,0,0,0,0,0,0,0,0,0,0,0,0,0,0,0,0,0,0,0,0,0,0,0,0,0,0,0,0,0,0,0,0,0,0,0,0,0,0,0,0,0,0,0,0,0,0,0,0,0,0,0,0,0,0,0,0,0,0,0,0,0,0,0,0,0,0,0,0,0,0,0,0,0,0,0,0,0,0,0,0,0,0,0,0,0,0,0,0,0,0,0,0,0,0,0,0,0,0,0,0,0,0,0],"id":11,"left_children":[1,3,5,7,9,11,13,15,17,19,21,23,25,27,29,31,33,35,37,39,41,43,45,47,49,51,53,55,57,59,61,63,65,67,69,71,73,75,77,79,81,-1,83,85,87,89,91,93,95,97,99,-1,101,-1,-1,103,105,107,109,111,113,115,117,-1,-1,-1,-1,-1,-1,-1,-1,-1,-1,-1,-1,-1,-1,-1,-1,-1,-1,-1,-1,-1,-1,-1,-1,-1,-1,-1,-1,-1,-1,-1,-1,-1,-1,-1,-1,-1,-1,-1,-1,-1,-1,-1,-1,-1,-1,-1,-1,-1,-1,-1,-1,-1,-1,-1,-1],"loss_changes":[1.6757805E2,2.3170181E1,5.6500866E1,1.8757607E1,5.610593E0,7.8106613E0,4.7857002E1,4.831085E0,1.846423E1,3.0589314E0,1.7492781E0,4.8339615E0,2.2080836E0,9.675659E0,3.981964E1,1.1493683E0,6.6202393E0,1.0651749E1,7.655069E0,2.2987282E0,1.9006515E-1,1.4875534E0,1.4403553E0,2.807209E0,2.0894847E0,1.4920471E0,4.001059E-1,1.4648762E0,7.8320193E0,3.340677E1,9.581436E0,1.6893435E0,9.696655E-1,2.5248961E0,2.7580643E0,9.95509E0,2.8025322E0,7.2459397E0,2.9676738E0,1.6458632E0,7.0159316E-1,0E0,2.839213E-1,7.055321E-1,1.437336E0,8.7688315E-1,1.3934183E0,2.1917305E0,2.9541311E0,1.2748961E0,2.11573E0,0E0,7.5561357E-1,0E0,0E0,1.0675526E0,3.7205648E-1,5.339756E0,3.1168954E0,1.1480713E0,2.9089865E1,3.3577332E0,6.9130096E0,0E0,0E0,0E0,0E0,0E0,0E0,0E0,0E0,0E0,0E0,0E0,0E0,0E0,0E0,0E0,0E0,0E0,0E0,0E0,0E0,0E0,0E0,0E0,0E0,0E0,0E0,0E0,0E0,0E0,0E0,0E0,0E0,0E0,0E0,0E0,0E0,0E0,0E0,0E0,0E0,0E0,0E0,0E0,0E0,0E0,0E0,0E0,0E0,0E0,0E0,0E0,0E0,0E0,0E0,0E0,0E0],"parents":[2147483647,0,0,1,1,2,2,3,3,4,4,5,5,6,6,7,7,8,8,9,9,10,10,11,11,12,12,13,13,14,14,15,15,16,16,17,17,18,18,19,19,20,20,21,21,22,22,23,23,24,24,25,25,26,26,27,27,28,28,29,29,30,30,31,31,32,32,33,33,34,34,35,35,36,36,37,37,38,38,39,39,40,40,42,42,43,43,44,44,45,45,46,46,47,47,48,48,49,49,50,50,52,52,55,55,56,56,57,57,58,58,59,59,60,60,61,61,62,62],"right_children":[2,4,6,8,10,12,14,16,18,20,22,24,26,28,30,32,34,36,38,40,42,44,46,48,50,52,54,56,58,60,62,64,66,68,70,72,74,76,78,80,82,-1,84,86,88,90,92,94,96,98,100,-1,102,-1,-1,104,106,108,110,112,114,116,118,-1,-1,-1,-1,-1,-1,-1,-1,-1,-1,-1,-1,-1,-1,-1,-1,-1,-1,-1,-1,-1,-1,-1,-1,-1,-1,-1,-1,-1,-1,-1,-1,-1,-1,-1,-1,-1,-1,-1,-1,-1,-1,-1,-1,-1,-1,-1,-1,-1,-1,-1,-1,-1,-1,-1,-1],"split_conditions":[1.1746858E-2,1.4251E-1,-1.2285E-1,-4.313E-2,-4.98E-3,1.2067E-1,-1.2234E-1,-1.353E-2,7.356E-2,1.0554E-1,1.5564E-1,1.1026E-1,1.1038E-1,-2.2123E-1,8.502011E-3,-1.5746705E-2,-8.312E-2,4.976E-2,2.9886374E-2,8.795E-2,5.927E-2,-8.691E-2,-1.6166E-1,1.4017E-1,-1.7841E-1,-1.6951E-1,2.9816454E-2,1.8586E-1,1.9708943E-2,-1.2916E-1,-1.4884E-1,8.967E-2,-1.8872E-1,-5.0306832E-3,-1.6646E-1,1.5248669E-2,2.7333E-1,-9.86342E-3,1.6527E-1,1.162231E-2,-9.806379E-3,-2.7021194E-2,1.38E-2,-1.8092027E-2,9.344356E-3,6.8016173E-3,-2.0802643E-2,2.003393E-2,1.5950337E-3,3.8293384E-2,1.3448E-1,-2.775439E-2,-8.548E-2,-3.081412E-2,2.0784339E-2,3.34957E-2,-1.8384082E-2,1.3288E-1,1.1632872E-2,-2.3368E-1,8.806E-2,1.3884E-1,2.1982E-1,-1.52957905E-2,1.7616851E-2,7.7293476E-4,-2.0803554E-2,-9.296912E-3,1.2153648E-2,-2.1550572E-2,-1.2410066E-2,-9.498419E-3,4.563467E-3,-1.7270235E-2,3.897418E-2,-8.351173E-3,1.1007707E-2,-1.9356271E-2,3.7002843E-2,-6.2507936E-3,1.6932318E-2,-1.947283E-2,3.4612976E-2,-1.7195037E-2,2.756331E-2,-3.1124849E-2,3.616062E-2,-2.5166253E-2,1.5944956E-2,-3.1417545E-2,3.2744147E-2,5.9189228E-5,2.6430467E-2,-2.332807E-2,-7.951337E-3,-1.7053388E-2,2.1063114E-2,-2.0703828E-2,2.4959715E-2,1.2529633E-2,-2.9247055E-2,-9.504701E-3,2.3705952E-2,-3.8171973E-2,-1.9226171E-2,-2.2580763E-2,3.0260062E-2,-1.6312197E-2,4.372968E-3,1.9720051E-2,-1.393834E-2,-8.297997E-3,2.0004064E-2,-1.1660613E-3,1.1084768E-2,-1.1131386E-2,1.8765073E-2,1.4482026E-2,-1.9940097E-2],"split_indices":[9,5,2,2,3,5,4,4,3,6,5,4,6,4,0,8,6,6,1,4,4,6,4,3,2,3,0,3,0,6,5,5,6,0,2,0,2,7,4,7,0,0,2,1,7,0,7,0,7,9,6,0,4,0,0,9,0,2,1,3,3,2,6,0,0,0,0,0,0,0,0,0,0,0,0,0,0,0,0,0,0,0,0,0,0,0,0,0,0,0,0,0,0,0,0,0,0,0,0,0,0,0,0,0,0,0,0,0,0,0,0,0,0,0,0,0,0,0,0],"split_type":[0,0,0,0,0,0,0,0,0,0,0,0,0,0,0,0,0,0,0,0,0,0,0,0,0,0,0,0,0,0,0,0,0,0,0,0,0,0,0,0,0,0,0,0,0,0,0,0,0,0,0,0,0,0,0,0,0,0,0,0,0,0,0,0,0,0,0,0,0,0,0,0,0,0,0,0,0,0,0,0,0,0,0,0,0,0,0,0,0,0,0,0,0,0,0,0,0,0,0,0,0,0,0,0,0,0,0,0,0,0,0,0,0,0,0,0,0,0,0],"sum_hessian":[3.2125E4,1.1173E4,2.0952E4,1.0639E4,5.34E2,1.277E3,1.9675E4,3.981E3,6.658E3,2.32E2,3.02E2,1.176E3,1.01E2,1.191E3,1.8484E4,2.058E3,1.923E3,5.413E3,1.245E3,1.88E2,4.4E1,4.7E1,2.55E2,1.01E3,1.66E2,8.8E1,1.3E1,1.99E2,9.92E2,1.1083E4,7.401E3,2.29E2,1.829E3,2.25E2,1.698E3,3.791E3,1.622E3,1.073E3,1.72E2,1.6E2,2.8E1,3.9E1,5E0,1.3E1,3.4E1,9E0,2.46E2,9.26E2,8.4E1,6.2E1,1.04E2,6E0,8.2E1,1.2E1,1E0,1.94E2,5E0,8.39E2,1.53E2,1.218E3,9.865E3,2.5E2,7.151E3,2.13E2,1.6E1,2.1E1,1.808E3,9.2E1,1.33E2,4.53E2,1.245E3,3.194E3,5.97E2,1.614E3,8E0,2.52E2,8.21E2,1.63E2,9E0,1.2E2,4E1,2E0,2.6E1,4E0,1E0,1E0,1.2E1,2.1E1,1.3E1,7E0,2E0,2.2E1,2.24E2,8.2E2,1.06E2,5.2E1,3.2E1,5.6E1,6E0,9.1E1,1.3E1,7E0,7.5E1,1.53E2,4.1E1,1E0,4E0,6.87E2,1.52E2,1.18E2,3.5E1,1.4E1,1.204E3,7.216E3,2.649E3,2.05E2,4.5E1,7.093E3,5.8E1],"tree_param":{"num_deleted":"0","num_feature":"10","num_nodes":"119","size_leaf_vector":"1"}},{"base_weights":[-1.5821666E-5,-5.2998397E-2,8.2557164E-2,-6.794937E-2,1.105009E-1,-6.925286E-2,9.3878046E-2,-1.563152E-1,-4.232023E-2,1.5636154E-3,1.4391866E-1,-1.3308826E-1,4.7486328E-2,7.169579E-2,1.5839708E-1,-2.0271231E-1,-1.2130819E-1,-8.155293E-2,2.4587436E-2,1.8733403E-1,-6.851904E-2,-7.632591E-2,1.5758549E-1,-1.621157E-1,1.04555085E-1,-1.7373143E-2,1.570525E-1,4.6562627E-2,1.4893343E-1,-4.28753E-2,1.5952459E-1,-2.065498E-1,3.8201988E-2,-1.3644443E-1,3.2395158E-2,7.0882335E-2,-9.639304E-2,-1.7798597E-1,4.679873E-2,4.363056E-3,3.0267936E-1,2.546473E-1,-1.0961026E-1,-1.8792412E-1,1.4992356E-1,-8.914252E-2,1.6652939E-1,1.4873971E-1,-1.8144806E-1,1.7632723E-1,-8.0683894E-2,-6.961203E-2,2.0758243E-1,8.655943E-2,2.2249407E-1,7.2428785E-2,-5.7431977E-2,-9.7791955E-2,1.5417193E-1,-6.3400194E-2,1.6226839E-1,-2.2480868E-2,-1.7157232E-2,-2.7594317E-2,1.560572E-2,-1.4298707E-2,2.311556E-2,-1.0173319E-2,1.2299504E-2,1.4477949E-2,-2.2283595E-3,-1.0657071E-2,7.590793E-3,-2.2832516E-3,-1.9449946E-2,-1.8498076E-2,6.317907E-3,-2.5214354E-2,1.0351519E-2,3.3077322E-2,-1.0060135E-2,-2.5270656E-2,2.9689446E-2,-1.4137757E-2,1.6951498E-2,-2.279832E-2,2.1820419E-2,2.803858E-2,-3.099378E-2,-2.1410681E-2,2.8249381E-2,1.1088147E-2,2.0590905E-2,-2.5460973E-2,2.2058615E-2,3.2852825E-3,-2.0679688E-2,2.0697912E-2,-3.217924E-2,-2.3515886E-2,2.6745921E-2,6.366567E-3,-1.893679E-2,-1.710777E-2,2.4602532E-2,1.3497509E-2,-2.785489E-2,-1.3524639E-2,2.3741912E-2,5.189591E-3,1.8064221E-2,-3.6110994E-3,-2.870275E-2,-2.9622639E-2,1.2312706E-2,-6.5515013E-3,1.5761802E-2,-2.5431002E-2,2.0306334E-2,1.6345039E-2,-2.9254723E-2],"categories":[],"categories_nodes":[],"categories_segments":[],"categories_sizes":[],"default_left":[0,0,0,0,0,0,0,0,0,0,0,0,0,0,0,0,0,0,0,0,0,0,0,0,0,0,0,0,0,0,0,0,0,0,0,0,0,0,0,0,0,0,0,0,0,0,0,0,0,0,0,0,0,0,0,0,0,0,0,0,0,0,0,0,0,0,0,0,0,0,0,0,0,0,0,0,0,0,0,0,0,0,0,0,0,0,0,0,0,0,0,0,0,0,0,0,0,0,0,0,0,0,0,0,0,0,0,0,0,0,0,0,0,0,0,0,0,0,0,0,0],"id":12,"left_children":[1,3,5,7,9,11,13,15,17,19,21,23,25,27,29,31,33,35,37,39,41,43,45,47,49,51,53,55,57,-1,59,61,63,65,67,69,71,73,75,77,79,81,83,85,87,89,91,93,95,97,99,101,103,105,107,109,111,113,115,117,119,-1,-1,-1,-1,-1,-1,-1,-1,-1,-1,-1,-1,-1,-1,-1,-1,-1,-1,-1,-1,-1,-1,-1,-1,-1,-1,-1,-1,-1,-1,-1,-1,-1,-1,-1,-1,-1,-1,-1,-1,-1,-1,-1,-1,-1,-1,-1,-1,-1,-1,-1,-1,-1,-1,-1,-1,-1,-1,-1,-1],"loss_changes":[1.4055336E2,4.7845848E1,2.1587242E1,4.060244E1,5.9700966E0,6.504544E0,1.6713394E1,6.522667E0,3.649169E1,5.0382795E0,3.789631E0,3.9075222E0,2.1986072E0,1.687785E1,2.0471725E0,1.6091232E0,5.3553467E0,1.9830109E1,2.3130835E1,2.2357936E0,3.7593951E0,1.896603E0,2.6231766E0,3.0498028E0,8.385168E-1,2.305979E0,5.112562E-1,1.766093E1,2.7745056E0,0E0,1.8354797E0,1.0503311E0,1.0797249E0,5.0692787E0,2.5279791E0,5.359519E0,1.401252E1,1.2971172E0,1.7597658E1,1.094294E0,7.697067E-1,7.6092315E-1,2.2407305E0,8.6320305E-1,1.5867658E0,2.0110168E0,2.4775505E0,9.2554003E-1,2.5816908E0,7.536783E-1,1.0309244E0,2.5498214E0,5.806906E-1,1.0451841E0,3.471284E-1,1.1671326E1,6.392559E0,2.0091805E0,1.593338E0,1.9338499E0,1.632637E0,0E0,0E0,0E0,0E0,0E0,0E0,0E0,0E0,0E0,0E0,0E0,0E0,0E0,0E0,0E0,0E0,0E0,0E0,0E0,0E0,0E0,0E0,0E0,0E0,0E0,0E0,0E0,0E0,0E0,0E0,0E0,0E0,0E0,0E0,0E0,0E0,0E0,0E0,0E0,0E0,0E0,0E0,0E0,0E0,0E0,0E0,0E0,0E0,0E0,0E0,0E0,0E0,0E0,0E0,0E0,0E0,0E0,0E0,0E0,0E0],"parents":[2147483647,0,0,1,1,2,2,3,3,4,4,5,5,6,6,7,7,8,8,9,9,10,10,11,11,12,12,13,13,14,14,15,15,16,16,17,17,18,18,19,19,20,20,21,21,22,22,23,23,24,24,25,25,26,26,27,27,28,28,30,30,31,31,32,32,33,33,34,34,35,35,36,36,37,37,38,38,39,39,40,40,41,41,42,42,43,43,44,44,45,45,46,46,47,47,48,48,49,49,50,50,51,51,52,52,53,53,54,54,55,55,56,56,57,57,58,58,59,59,60,60],"right_children":[2,4,6,8,10,12,14,16,18,20,22,24,26,28,30,32,34,36,38,40,42,44,46,48,50,52,54,56,58,-1,60,62,64,66,68,70,72,74,76,78,80,82,84,86,88,90,92,94,96,98,100,102,104,106,108,110,112,114,116,118,120,-1,-1,-1,-1,-1,-1,-1,-1,-1,-1,-1,-1,-1,-1,-1,-1,-1,-1,-1,-1,-1,-1,-1,-1,-1,-1,-1,-1,-1,-1,-1,-1,-1,-1,-1,-1,-1,-1,-1,-1,-1,-1,-1,-1,-1,-1,-1,-1,-1,-1,-1,-1,-1,-1,-1,-1,-1,-1,-1,-1],"split_conditions":[2.4601758E-2,1.4126E-1,-1.1478E-1,-7.246E-2,-5.235E-2,9.799165E-3,1.1923E-1,-1.5023E-1,4.8234463E-3,-9.184153E-3,-2.861832E-2,7.887E-2,4.077419E-2,1.1026E-1,-2.8528E-1,4.058227E-2,2.2963107E-2,-1.9724786E-2,-1.4313E-1,-5.99E-3,-1.326E-1,8.472E-2,-1.5178E-1,-1.4973E-1,9.27083E-3,1.4126E-1,7.856E-2,4.809E-2,-1.6816E-1,-4.28753E-2,-1.6772E-1,4.0364205E-3,-2.2123E-1,2.235E-1,-2.018E-2,3.7659046E-3,1.5394E-1,-9.853E-2,-1.5175E-1,-1.3252171E-2,1.6204119E-2,-3.8955943E-4,2.6378E-1,8.463E-2,1.9893762E-2,2.003393E-2,-1.7521866E-3,-2.4637E-1,-1.8987875E-2,-1.1719E-1,6.996E-2,-5.0041056E-3,-1.1428166E-2,6.871E-2,1.022673E-2,1.0312E-1,2.0799674E-2,-3.7513897E-4,-3.430796E-2,3.7664913E-2,2.5739E-1,-2.2480868E-2,-1.7157232E-2,-2.7594317E-2,1.560572E-2,-1.4298707E-2,2.311556E-2,-1.0173319E-2,1.2299504E-2,1.4477949E-2,-2.2283595E-3,-1.0657071E-2,7.590793E-3,-2.2832516E-3,-1.9449946E-2,-1.8498076E-2,6.317907E-3,-2.5214354E-2,1.0351519E-2,3.3077322E-2,-1.0060135E-2,-2.5270656E-2,2.9689446E-2,-1.4137757E-2,1.6951498E-2,-2.279832E-2,2.1820419E-2,2.803858E-2,-3.099378E-2,-2.1410681E-2,2.8249381E-2,1.1088147E-2,2.0590905E-2,-2.5460973E-2,2.2058615E-2,3.2852825E-3,-2.0679688E-2,2.0697912E-2,-3.217924E-2,-2.3515886E-2,2.6745921E-2,6.366567E-3,-1.893679E-2,-1.710777E-2,2.4602532E-2,1.3497509E-2,-2.785489E-2,-1.3524639E-2,2.3741912E-2,5.189591E-3,1.8064221E-2,-3.6110994E-3,-2.870275E-2,-2.9622639E-2,1.2312706E-2,-6.5515013E-3,1.5761802E-2,-2.5431002E-2,2.0306334E-2,1.6345039E-2,-2.9254723E-2],"split_indices":[9,2,3,4,4,0,2,4,0,1,0,5,9,4,5,0,0,1,2,5,6,4,5,6,8,2,4,6,5,0,4,7,4,3,2,8,3,6,3,0,8,9,2,3,1,0,7,3,8,3,4,1,7,4,0,5,8,0,0,9,6,0,0,0,0,0,0,0,0,0,0,0,0,0,0,0,0,0,0,0,0,0,0,0,0,0,0,0,0,0,0,0,0,0,0,0,0,0,0,0,0,0,0,0,0,0,0,0,0,0,0,0,0,0,0,0,0,0,0,0,0],"split_type":[0,0,0,0,0,0,0,0,0,0,0,0,0,0,0,0,0,0,0,0,0,0,0,0,0,0,0,0,0,0,0,0,0,0,0,0,0,0,0,0,0,0,0,0,0,0,0,0,0,0,0,0,0,0,0,0,0,0,0,0,0,0,0,0,0,0,0,0,0,0,0,0,0,0,0,0,0,0,0,0,0,0,0,0,0,0,0,0,0,0,0,0,0,0,0,0,0,0,0,0,0,0,0,0,0,0,0,0,0,0,0,0,0,0,0,0,0,0,0,0,0],"sum_hessian":[3.2125E4,1.9569E4,1.2556E4,1.793E4,1.639E3,8.71E2,1.1685E4,4.03E3,1.39E4,3.85E2,1.254E3,5.63E2,3.08E2,8.697E3,2.988E3,1.731E3,2.299E3,8.762E3,5.138E3,1.05E2,2.8E2,7.3E1,1.181E3,5.02E2,6.1E1,1.94E2,1.14E2,6.563E3,2.134E3,5E0,2.983E3,1.704E3,2.7E1,2.093E3,2.06E2,7.77E2,7.985E3,5.07E2,4.631E3,4.1E1,6.4E1,3.1E1,2.49E2,4.9E1,2.4E1,4.1E1,1.14E3,2.9E1,4.73E2,4.4E1,1.7E1,1.58E2,3.6E1,5.6E1,5.8E1,5.256E3,1.307E3,4.4E1,2.09E3,3.6E1,2.947E3,1.116E3,5.88E2,7E0,2E1,2.057E3,3.6E1,8.3E1,1.23E2,4.33E2,3.44E2,7.54E3,4.45E2,4.9E1,4.58E2,3.05E2,4.326E3,1.1E1,3E1,6E1,4E0,2E0,2.9E1,2.24E2,2.5E1,4.5E1,4E0,1.9E1,5E0,3.1E1,1E1,4.74E2,6.66E2,4E0,2.5E1,5E1,4.23E2,4.2E1,2E0,1.2E1,5E0,7.5E1,8.3E1,3E0,3.3E1,5E1,6E0,2E0,5.6E1,4.419E3,8.37E2,1.197E3,1.1E2,2.3E1,2.1E1,3.2E1,2.058E3,2.1E1,1.5E1,2.94E3,7E0],"tree_param":{"num_deleted":"0","num_feature":"10","num_nodes":"121","size_leaf_vector":"1"}},{"base_weights":[-1.8340554E-5,-8.182239E-2,4.360684E-2,9.330078E-2,-9.152351E-2,-1.3239011E-1,5.6041576E-2,-7.822667E-2,1.3708282E-1,-1.6261253E-1,-6.998788E-2,-2.663165E-1,-9.409133E-2,1.0898147E-1,1.9838693E-2,-2.1845059E-1,-2.6870358E-3,-1.7405212E-1,1.5503411E-1,-2.0372093E-1,-1.3750833E-1,-1.155368E-1,-2.748707E-2,-2.7966022E-1,1.1817479E-1,-1.2029009E-1,1.3499238E-1,-2.071598E-2,1.1961291E-1,1.3513563E-3,1.5718561E-1,2.6983231E-2,-2.369412E-2,-1.97216E-1,9.646333E-2,-2.5211036E-1,1.2816048E-1,-7.752699E-2,1.733297E-1,-2.0555928E-1,1.1395159E-1,-1.4000712E-1,3.5570096E-2,-1.7758694E-1,-9.548371E-2,4.4832364E-2,-7.0228286E-2,-2.970243E-1,-4.9108054E-2,-1.9548057E-1,3.2533222E-1,-1.439809E-1,8.654907E-2,-2.8237173E-1,1.5734325E-1,-1.4296038E-1,2.8400023E-2,1.40245E-1,6.591692E-2,-1.2950626E-1,2.2110276E-2,-2.8261268E-1,1.6125306E-1,-2.812591E-2,3.563464E-2,-1.4437093E-2,1.9532872E-2,-2.8898517E-2,2.4269262E-2,3.8335003E-2,-2.5481243E-2,-2.2862805E-2,1.1903615E-2,1.186593E-2,2.44226E-2,-1.9020436E-2,-2.4084857E-2,-2.0614987E-2,3.2553982E-2,-1.4266792E-2,3.237434E-2,-1.7936984E-2,2.9203106E-2,-4.377691E-3,-1.2731194E-2,-4.543287E-3,9.6692E-3,-8.591577E-3,1.1883118E-2,-3.0890975E-2,-6.9623613E-3,-3.115739E-2,6.8789995E-3,-3.1689223E-2,1.4508301E-2,3.4897026E-2,9.175199E-3,-1.5559519E-2,1.3688438E-2,-1.7404422E-3,2.1399012E-2,-4.0615898E-2,1.6828222E-2,6.2448084E-3,2.3782423E-2,2.2572827E-2,-1.7184233E-2,4.5495927E-3,-3.251956E-2,-4.0659583E-3,1.4458172E-2,4.0437696E-3,1.8847946E-2,-1.6076047E-2,1.6700908E-3,4.5926168E-4,1.5544129E-2,-3.3579897E-2,1.7781138E-2,1.8638609E-2,1.0414032E-2],"categories":[],"categories_nodes":[],"categories_segments":[],"categories_sizes":[],"default_left":[0,0,0,0,0,0,0,0,0,0,0,0,0,0,0,0,0,0,0,0,0,0,0,0,0,0,0,0,0,0,0,0,0,0,0,0,0,0,0,0,0,0,0,0,0,0,0,0,0,0,0,0,0,0,0,0,0,0,0,0,0,0,0,0,0,0,0,0,0,0,0,0,0,0,0,0,0,0,0,0,0,0,0,0,0,0,0,0,0,0,0,0,0,0,0,0,0,0,0,0,0,0,0,0,0,0,0,0,0,0,0,0,0,0,0,0,0,0,0,0,0],"id":13,"left_children":[1,3,5,7,9,11,13,15,17,19,21,23,25,27,29,31,33,35,37,39,41,43,45,47,49,51,53,55,57,59,61,-1,-1,63,65,67,69,71,73,75,77,79,-1,81,83,85,87,89,91,93,95,97,99,101,103,105,107,109,111,113,115,117,119,-1,-1,-1,-1,-1,-1,-1,-1,-1,-1,-1,-1,-1,-1,-1,-1,-1,-1,-1,-1,-1,-1,-1,-1,-1,-1,-1,-1,-1,-1,-1,-1,-1,-1,-1,-1,-1,-1,-1,-1,-1,-1,-1,-1,-1,-1,-1,-1,-1,-1,-1,-1,-1,-1,-1,-1,-1,-1],"loss_changes":[1.1465215E2,1.8991951E1,4.586255E1,4.418988E0,1.6198288E1,7.0686474E0,3.7507153E1,1.2705085E0,2.640893E0,2.5117188E0,1.57315445E1,1.6081257E0,6.4800787E0,1.0961754E1,2.9515202E1,4.4313765E-1,1.542746E0,6.456555E-1,1.8983316E0,5.671272E-1,1.9366512E0,4.864418E0,1.3003981E1,1.1744041E0,7.783325E-1,4.750943E0,1.0798874E0,3.624566E0,8.129097E0,2.7835737E1,2.5124016E0,0E0,0E0,1.3563489E0,1.2901388E0,4.5329535E-1,6.840664E-1,1.0073446E0,1.5640278E0,4.559555E-1,4.7348812E-1,1.926712E0,0E0,8.536606E-1,4.877325E0,7.320986E0,7.851963E0,7.24453E-1,7.022058E-1,2.527176E-1,6.6310167E-3,2.8527565E0,1.3285184E0,4.030606E-1,7.946973E-1,1.8809702E0,2.6202056E0,4.168602E0,6.3660107E0,6.4138203E0,2.0655748E1,3.7805593E-1,1.9428024E0,0E0,0E0,0E0,0E0,0E0,0E0,0E0,0E0,0E0,0E0,0E0,0E0,0E0,0E0,0E0,0E0,0E0,0E0,0E0,0E0,0E0,0E0,0E0,0E0,0E0,0E0,0E0,0E0,0E0,0E0,0E0,0E0,0E0,0E0,0E0,0E0,0E0,0E0,0E0,0E0,0E0,0E0,0E0,0E0,0E0,0E0,0E0,0E0,0E0,0E0,0E0,0E0,0E0,0E0,0E0,0E0,0E0,0E0],"parents":[2147483647,0,0,1,1,2,2,3,3,4,4,5,5,6,6,7,7,8,8,9,9,10,10,11,11,12,12,13,13,14,14,15,15,16,16,17,17,18,18,19,19,20,20,21,21,22,22,23,23,24,24,25,25,26,26,27,27,28,28,29,29,30,30,33,33,34,34,35,35,36,36,37,37,38,38,39,39,40,40,41,41,43,43,44,44,45,45,46,46,47,47,48,48,49,49,50,50,51,51,52,52,53,53,54,54,55,55,56,56,57,57,58,58,59,59,60,60,61,61,62,62],"right_children":[2,4,6,8,10,12,14,16,18,20,22,24,26,28,30,32,34,36,38,40,42,44,46,48,50,52,54,56,58,60,62,-1,-1,64,66,68,70,72,74,76,78,80,-1,82,84,86,88,90,92,94,96,98,100,102,104,106,108,110,112,114,116,118,120,-1,-1,-1,-1,-1,-1,-1,-1,-1,-1,-1,-1,-1,-1,-1,-1,-1,-1,-1,-1,-1,-1,-1,-1,-1,-1,-1,-1,-1,-1,-1,-1,-1,-1,-1,-1,-1,-1,-1,-1,-1,-1,-1,-1,-1,-1,-1,-1,-1,-1,-1,-1,-1,-1,-1,-1,-1,-1],"split_conditions":[1.1746858E-2,-1.4647E-1,-1.3006E-1,-6.069951E-3,-7.541E-2,-2.4033E-1,-7.76124E-3,-4.81E-2,-1.6758E-1,-1.6223E-1,-9.04E-3,1.703E-1,1.4958E-1,-8.812E-2,1.2348E-1,-3.7845537E-2,-9.54676E-3,1.1951302E-2,-1.5288E-1,2.3303E-1,2.3061E-1,-1.5175E-1,1.3424575E-3,4.4557106E-2,-1.2104211E-2,1.5897E-1,-4.6808463E-2,-2.631E-2,6.769511E-3,-1.8771239E-2,-2.0655E-1,2.6983231E-2,-2.369412E-2,8.463E-2,-1.1262E-1,9.628E-2,1.0322014E-2,1.134E-2,6.2067425E-3,3.8895991E-3,-1.0243E-1,2.4734E-1,3.5570096E-2,2.5654E-1,-2.585043E-3,-3.348E-2,2.5834372E-2,1.8054103E-2,-2.071E-2,1.6946254E-2,4.682E-2,1.7909E-1,-1.7195735E-4,5.542E-2,2.31E-3,-2.446137E-2,1.6475E-1,-3.252991E-2,1.313E-1,1E-1,1.5394E-1,2.3742E-1,5.858107E-3,-2.812591E-2,3.563464E-2,-1.4437093E-2,1.9532872E-2,-2.8898517E-2,2.4269262E-2,3.8335003E-2,-2.5481243E-2,-2.2862805E-2,1.1903615E-2,1.186593E-2,2.44226E-2,-1.9020436E-2,-2.4084857E-2,-2.0614987E-2,3.2553982E-2,-1.4266792E-2,3.237434E-2,-1.7936984E-2,2.9203106E-2,-4.377691E-3,-1.2731194E-2,-4.543287E-3,9.6692E-3,-8.591577E-3,1.1883118E-2,-3.0890975E-2,-6.9623613E-3,-3.115739E-2,6.8789995E-3,-3.1689223E-2,1.4508301E-2,3.4897026E-2,9.175199E-3,-1.5559519E-2,1.3688438E-2,-1.7404422E-3,2.1399012E-2,-4.0615898E-2,1.6828222E-2,6.2448084E-3,2.3782423E-2,2.2572827E-2,-1.7184233E-2,4.5495927E-3,-3.251956E-2,-4.0659583E-3,1.4458172E-2,4.0437696E-3,1.8847946E-2,-1.6076047E-2,1.6700908E-3,4.5926168E-4,1.5544129E-2,-3.3579897E-2,1.7781138E-2,1.8638609E-2,1.0414032E-2],"split_indices":[9,6,5,9,5,5,1,4,3,5,3,3,4,2,5,1,0,0,2,4,3,3,1,9,7,2,0,4,8,0,4,0,0,3,2,4,1,5,0,9,3,4,0,4,8,2,0,7,3,0,2,3,0,2,3,8,6,0,4,3,3,5,8,0,0,0,0,0,0,0,0,0,0,0,0,0,0,0,0,0,0,0,0,0,0,0,0,0,0,0,0,0,0,0,0,0,0,0,0,0,0,0,0,0,0,0,0,0,0,0,0,0,0,0,0,0,0,0,0,0,0],"split_type":[0,0,0,0,0,0,0,0,0,0,0,0,0,0,0,0,0,0,0,0,0,0,0,0,0,0,0,0,0,0,0,0,0,0,0,0,0,0,0,0,0,0,0,0,0,0,0,0,0,0,0,0,0,0,0,0,0,0,0,0,0,0,0,0,0,0,0,0,0,0,0,0,0,0,0,0,0,0,0,0,0,0,0,0,0,0,0,0,0,0,0,0,0,0,0,0,0,0,0,0,0,0,0,0,0,0,0,0,0,0,0,0,0,0,0,0,0,0,0,0,0],"sum_hessian":[3.2125E4,1.1173E4,2.0952E4,5.86E2,1.0587E4,1.382E3,1.957E4,1.19E2,4.67E2,2.46E3,8.127E3,3.06E2,1.076E3,7.947E3,1.1623E4,4.1E1,7.8E1,2.5E1,4.42E2,9.3E2,1.53E3,3.922E3,4.205E3,2.96E2,1E1,9.66E2,1.1E2,6.02E2,7.345E3,1.0245E4,1.378E3,1E0,4E1,2.6E1,5.2E1,2E1,5E0,3.2E1,4.1E2,9.25E2,5E0,1.523E3,7E0,9.56E2,2.966E3,1.562E3,2.643E3,2.75E2,2.1E1,4E0,6E0,8.67E2,9.9E1,5E0,1.05E2,1.72E2,4.3E2,5.305E3,2.04E3,1.402E3,8.843E3,